<?xml version="1.0" encoding="ISO-8859-1"?>
<smile version="1.0" id="barley" numsamples="10000" discsamples="10000">
	<nodes>
		<cpt id="saatid">
			<state id="x_26_3" />
			<state id="x26_3_10_4" />
			<state id="x10_4_20_4" />
			<state id="x_20_4" />
			<probabilities>0.25 0.25 0.25 0.25</probabilities>
		</cpt>
		<cpt id="jordtype">
			<state id="x1" />
			<state id="x2" />
			<state id="x3" />
			<state id="x4" />
			<state id="x5" />
			<state id="x6" />
			<state id="x7" />
			<state id="x8" />
			<state id="x9" />
			<probabilities>0.1111111111111111 0.1111111111111111 0.1111111111111111 0.1111111111111111 0.1111111111111111 0.1111111111111111 0.1111111111111111 0.1111111111111111 0.1111111111111111</probabilities>
		</cpt>
		<cpt id="mm25cm">
			<state id="x4_5_5_5" />
			<state id="x5_5_6_5" />
			<state id="x6_5_7_5" />
			<state id="x7_5_8_5" />
			<state id="x8_5_9_5" />
			<state id="x9_5_10_5" />
			<state id="x10_5_11_5" />
			<parents>jordtype</parents>
			<probabilities>0.6913617276544691 0.2416516696660668 0.0605878824235153 0.00599880023995201 0.0001999600079984003 9.998000399920017e-05 9.998000399920017e-05 0.0668066806680668 0.2417241724172417 0.3829382938293829 0.2417241724172417 0.0606060606060606 0.006000600060006 0.0002000200020002 0.4012197560487902 0.3720255948810238 0.1865626874625075 0.03709258148370326 0.002899420115976804 9.998000399920017e-05 9.998000399920017e-05 0.0668066806680668 0.2417241724172417 0.3829382938293829 0.2417241724172417 0.0606060606060606 0.006000600060006 0.0002000200020002 0.0122 0.0934 0.2956 0.3721 0.1866 0.0371 0.003 0.0013001300130013 0.0214021402140214 0.1359135913591359 0.3413341334133413 0.3413341334133413 0.1359135913591359 0.0228022802280228 9.999000099990002e-05 9.999000099990002e-05 0.0012998700129987 0.0213978602139786 0.1358864113588641 0.3412658734126587 0.4999500049995 9.997000899730081e-05 9.997000899730081e-05 9.997000899730081e-05 0.002899130260921723 0.0370888733379986 0.1865440367889633 0.7731680495851244 9.997000899730081e-05 9.997000899730081e-05 9.997000899730081e-05 0.002899130260921723 0.0370888733379986 0.1865440367889633 0.7731680495851244</probabilities>
		</cpt>
		<cpt id="saadybde">
			<state id="x_2_5" />
			<state id="x2_5_3_5" />
			<state id="x3_5_4_5" />
			<state id="x4_5_5_5" />
			<state id="x_5_5" />
			<probabilities>0.2 0.2 0.2 0.2 0.2</probabilities>
		</cpt>
		<cpt id="frspsum">
			<state id="x_70" />
			<state id="x70_80" />
			<state id="x80_90" />
			<state id="x90_100" />
			<state id="x100_110" />
			<state id="x110_120" />
			<state id="x120_130" />
			<state id="x130_140" />
			<state id="x140_150" />
			<state id="x150_160" />
			<state id="x160_170" />
			<state id="x_170" />
			<parents>mm25cm saadybde</parents>
			<probabilities>0.1702489253224033 0.2590222933120064 0.2953114065780266 0.1901429571128661 0.06907927621713485 0.01409577126861941 0.001599520143956813 9.997000899730081e-05 9.997000899730081e-05 9.997000899730081e-05 9.997000899730081e-05 9.997000899730081e-05 0.1047790441911618 0.2109578084383123 0.3004399120175965 0.2415516896620676 0.1095780843831234 0.02799440111977605 0.003999200159968006 0.0002999400119976005 9.998000399920017e-05 9.998000399920017e-05 9.998000399920017e-05 9.998000399920017e-05 0.05987604958016794 0.1575369852059176 0.2801879248300679 0.2813874450219912 0.1595361855257897 0.0509796081567373 0.009196321471411435 0.000899640143942423 9.996001599360256e-05 9.996001599360256e-05 9.996001599360256e-05 9.996001599360256e-05 0.03158736505397841 0.1079568172730908 0.2398040783686525 0.3006797281087565 0.2128148740503799 0.08506597361055578 0.01919232307077169 0.002399040383846461 0.0001999200319872051 9.996001599360256e-05 9.996001599360256e-05 9.996001599360256e-05 0.0153984601539846 0.06779322067793221 0.1881811818818118 0.2947705229477052 0.2605739426057394 0.1300869913008699 0.0365963403659634 0.0057994200579942 0.0004999500049995 9.999000099990002e-05 9.999000099990002e-05 9.999000099990002e-05 0.05407836865253898 0.1488404638144742 0.2745901639344262 0.2861855257896841 0.1684326269492203 0.05587764894042383 0.01049580167932827 0.001099560175929628 9.996001599360256e-05 9.996001599360256e-05 9.996001599360256e-05 9.996001599360256e-05 0.02819154253723883 0.1004698590422873 0.231630510846746 0.3015095471358592 0.2215335399380186 0.09187243826851944 0.02149355193441967 0.002799160251924422 0.0001999400179946016 9.997000899730081e-05 9.997000899730081e-05 9.997000899730081e-05 0.01359728054389122 0.0621875624875025 0.1791641671665667 0.2912417516496701 0.267246550689862 0.1384723055388922 0.04049190161967606 0.006698660267946411 0.0005998800239952009 9.998000399920017e-05 9.998000399920017e-05 9.998000399920017e-05 0.00599880023995201 0.03529294141171765 0.1271745650869826 0.2581483703259348 0.2957408518296341 0.1913617276544691 0.06988602279544091 0.01439712057588482 0.001699660067986403 9.998000399920017e-05 9.998000399920017e-05 9.998000399920017e-05 0.002499500099980004 0.01839632073585283 0.08268346330733853 0.2097580483903219 0.3002399520095981 0.2426514697060588 0.1106778644271146 0.02849430113977205 0.004099180163967207 0.0002999400119976005 9.998000399920017e-05 9.998000399920017e-05 0.01189762047590482 0.05688862227554488 0.1702659468106378 0.2871425714857028 0.2735452909418116 0.1470705858828234 0.04459108178364327 0.007598480303939211 0.000699860027994401 9.998000399920014e-05 9.998000399920014e-05 9.998000399920014e-05 0.005198960207958408 0.03189362127574485 0.1190761847630474 0.2508498300339932 0.2983403319336133 0.2003599280143971 0.07588482303539291 0.01619676064787042 0.001899620075984803 9.998000399920017e-05 9.998000399920017e-05 9.998000399920017e-05 0.0020997900209979 0.0162983701629837 0.07629237076292371 0.200979902009799 0.2984701529847015 0.2503749625037496 0.1184881511848815 0.03159684031596841 0.0047995200479952 0.0003999600039996001 9.999000099990002e-05 9.999000099990002e-05 0.0007999200079992001 0.007699230076992301 0.04489551044895511 0.1476852314768523 0.2738726127387261 0.2868713128687131 0.1696830316968303 0.0565943405659434 0.0105989401059894 0.0010998900109989 9.999000099990002e-05 9.999000099990002e-05 0.0002999400119976005 0.003299340131973605 0.02419516096780644 0.09948010397920416 0.2305538892221556 0.3015396920615876 0.222755448910218 0.09288142371525694 0.02179564087182563 0.002899420115976804 0.0001999600079984003 9.998000399920017e-05 0.001799640071985603 0.01449710057988403 0.07028594281143771 0.1919616076784643 0.2959408118376325 0.2576484703059388 0.1265746850629874 0.03509298140371925 0.005498900219956008 0.0004999000199960008 9.998000399920017e-05 9.998000399920017e-05 0.0006997900629811056 0.006697990602819154 0.04068779366190143 0.1390582825152454 0.2677196840947715 0.2910126961911427 0.1786464060781765 0.06188143556932919 0.0120963710886734 0.001299610116964911 9.997000899730081e-05 9.997000899730081e-05 0.0001999800019998 0.0028997100289971 0.0215978402159784 0.09239076092390761 0.2220777922207779 0.3015698430156984 0.2311768823117688 0.09999000099990002 0.0243975602439756 0.0032996700329967 0.0002999700029997 9.999000099990002e-05 9.999999999999998e-05 0.0011 0.0105 0.05619999999999999 0.169 0.2866 0.2743999999999999 0.1483 0.04519999999999999 0.007799999999999998 0.0006999999999999999 9.999999999999998e-05 9.999000099990002e-05 0.0003999600039996001 0.0046995300469953 0.0313968603139686 0.117988201179882 0.2497750224977502 0.2986701329867014 0.2015798420157984 0.07679232076792319 0.0164983501649835 0.001999800019998 9.999000099990002e-05 0.0002 0.0024 0.0193 0.08550000000000001 0.2135 0.3008 0.2393 0.1075 0.0272 0.0039 0.0003 0.0001 9.998000399920017e-05 0.0008998200359928015 0.009298140371925615 0.05128974205158968 0.1600679864027195 0.281743651269746 0.2799440111977605 0.1570685862827434 0.04969006198760248 0.008898220355928814 0.0008998200359928015 9.998000399920017e-05 0.0001 0.0003 0.0041 0.0282 0.1101 0.2421 0.3004 0.2105 0.0832 0.0185 0.0023 0.0002 9.999000099990002e-05 9.999000099990002e-05 0.0015998400159984 0.0141985801419858 0.06949305069493052 0.1907809219078092 0.2955704429557044 0.2586741325867413 0.1277872212778722 0.0355964403559644 0.005599440055994401 0.0004999500049995 9.998000399920017e-05 9.998000399920017e-05 0.0005998800239952009 0.00659868026394721 0.04019196160767846 0.137872425514897 0.2668466306738653 0.2915416916616677 0.1798640271945611 0.0625874825034993 0.01229754049190162 0.001399720055988802 9.999999999999998e-05 0.0002999999999999999 0.003499999999999999 0.02529999999999999 0.1026 0.234 0.3013999999999999 0.2192 0.08989999999999998 0.0208 0.0027 0.0002 9.999000099990002e-05 9.999000099990002e-05 0.0013998600139986 0.0125987401259874 0.0637936206379362 0.1817818218178182 0.2923707629237076 0.2654734526547345 0.1360863913608639 0.03929607039296071 0.006399360063993601 0.0005999400059994 9.999999999999998e-05 9.999999999999998e-05 0.0004999999999999999 0.005699999999999999 0.03629999999999999 0.1295 0.2600999999999999 0.2949999999999999 0.1889 0.06819999999999998 0.0139 0.001699999999999999 9.998000399920017e-05 9.998000399920017e-05 0.0001999600079984003 0.002399520095980804 0.01899620075984803 0.08458308338332333 0.2122575484903019 0.3006398720255949 0.2403519296140772 0.1084783043391322 0.02759448110377924 0.004299140171965607 9.997000899730081e-05 9.997000899730081e-05 9.997000899730081e-05 0.0008997300809757072 0.009097270818754374 0.05068479456163151 0.158852344296711 0.2810156952914126 0.2806158152554234 0.1582525242427272 0.0502849145256423 0.009997000899730081 9.998000399920017e-05 9.998000399920017e-05 0.0003999200159968007 0.004999000199960009 0.03279344131173766 0.1212757448510298 0.2529494101179764 0.2976404719056189 0.1978604279144171 0.07418516296740653 0.01569686062787442 0.001999600079984003 9.998000399920018e-05 9.998000399920018e-05 9.998000399920018e-05 0.002099580083983204 0.01689662067586483 0.07808438312337534 0.2034593081383724 0.2990401919616077 0.2481503699260149 0.1162767446510698 0.03069386122775446 0.004999000199960009 9.997000899730081e-05 9.997000899730081e-05 9.997000899730081e-05 0.0007997600719784065 0.007997600719784064 0.04608617414775568 0.1500549835049485 0.275517344796561 0.2855143456962911 0.167149855043487 0.05518344496651004 0.01139658102569229 9.996001599360256e-05 9.996001599360256e-05 9.996001599360256e-05 0.0002998800479808076 0.00349860055977609 0.02499000399840064 0.1015593762495002 0.2328068772491003 0.3013794482207117 0.2202119152339064 0.09086365453818472 0.02409036385445822 9.996001599360256e-05 9.996001599360256e-05 9.996001599360256e-05 9.996001599360256e-05 0.001399440223910436 0.01239504198320672 0.06297481007596961 0.1805277888844462 0.2917832866853259 0.2662934826069572 0.1372451019592163 0.0469812075169932</probabilities>
		</cpt>
		<cpt id="akorsbl1">
			<state id="x_5_m2" />
			<state id="x_5_m22" />
			<probabilities>0.5 0.5</probabilities>
		</cpt>
		<cpt id="blindsum">
			<state id="x_70" />
			<state id="x70_80" />
			<state id="x80_90" />
			<state id="x90_100" />
			<state id="x100_110" />
			<state id="x110_120" />
			<state id="x120_130" />
			<state id="x130_140" />
			<state id="x140_150" />
			<state id="x150_160" />
			<state id="x160_170" />
			<state id="x_170" />
			<parents>frspsum akorsbl1</parents>
			<probabilities>0.9989012086704626 9.989012086704626e-05 9.989012086704626e-05 9.989012086704626e-05 9.989012086704626e-05 9.989012086704626e-05 9.989012086704626e-05 9.989012086704626e-05 9.989012086704626e-05 9.989012086704626e-05 9.989012086704626e-05 9.989012086704626e-05 0.9989012086704626 9.989012086704626e-05 9.989012086704626e-05 9.989012086704626e-05 9.989012086704626e-05 9.989012086704626e-05 9.989012086704626e-05 9.989012086704626e-05 9.989012086704626e-05 9.989012086704626e-05 9.989012086704626e-05 9.989012086704626e-05 0.4995004995004996 0.4995004995004996 9.990009990009991e-05 9.990009990009991e-05 9.990009990009991e-05 9.990009990009991e-05 9.990009990009991e-05 9.990009990009991e-05 9.990009990009991e-05 9.990009990009991e-05 9.990009990009991e-05 9.990009990009991e-05 0.9989012086704626 9.989012086704626e-05 9.989012086704626e-05 9.989012086704626e-05 9.989012086704626e-05 9.989012086704626e-05 9.989012086704626e-05 9.989012086704626e-05 9.989012086704626e-05 9.989012086704626e-05 9.989012086704626e-05 9.989012086704626e-05 9.990009990009991e-05 0.4995004995004996 0.4995004995004996 9.990009990009991e-05 9.990009990009991e-05 9.990009990009991e-05 9.990009990009991e-05 9.990009990009991e-05 9.990009990009991e-05 9.990009990009991e-05 9.990009990009991e-05 9.990009990009991e-05 0.4995004995004996 0.4995004995004996 9.990009990009991e-05 9.990009990009991e-05 9.990009990009991e-05 9.990009990009991e-05 9.990009990009991e-05 9.990009990009991e-05 9.990009990009991e-05 9.990009990009991e-05 9.990009990009991e-05 9.990009990009991e-05 9.990009990009991e-05 9.990009990009991e-05 0.4995004995004996 0.4995004995004996 9.990009990009991e-05 9.990009990009991e-05 9.990009990009991e-05 9.990009990009991e-05 9.990009990009991e-05 9.990009990009991e-05 9.990009990009991e-05 9.990009990009991e-05 9.990009990009991e-05 0.4995004995004996 0.4995004995004996 9.990009990009991e-05 9.990009990009991e-05 9.990009990009991e-05 9.990009990009991e-05 9.990009990009991e-05 9.990009990009991e-05 9.990009990009991e-05 9.990009990009991e-05 9.990009990009991e-05 9.990009990009991e-05 9.990009990009991e-05 9.990009990009991e-05 0.4995004995004996 0.4995004995004996 9.990009990009991e-05 9.990009990009991e-05 9.990009990009991e-05 9.990009990009991e-05 9.990009990009991e-05 9.990009990009991e-05 9.990009990009991e-05 9.990009990009991e-05 9.990009990009991e-05 0.4995004995004996 0.4995004995004996 9.990009990009991e-05 9.990009990009991e-05 9.990009990009991e-05 9.990009990009991e-05 9.990009990009991e-05 9.990009990009991e-05 9.990009990009991e-05 9.990009990009991e-05 9.990009990009991e-05 9.990009990009991e-05 9.990009990009991e-05 9.990009990009991e-05 0.4995004995004996 0.4995004995004996 9.990009990009991e-05 9.990009990009991e-05 9.990009990009991e-05 9.990009990009991e-05 9.990009990009991e-05 9.990009990009991e-05 9.990009990009991e-05 9.990009990009991e-05 9.990009990009991e-05 0.4995004995004996 0.4995004995004996 9.990009990009991e-05 9.990009990009991e-05 9.990009990009991e-05 9.990009990009991e-05 9.990009990009991e-05 9.990009990009991e-05 9.990009990009991e-05 9.990009990009991e-05 9.990009990009991e-05 9.990009990009991e-05 9.990009990009991e-05 9.990009990009991e-05 0.4995004995004996 0.4995004995004996 9.990009990009991e-05 9.990009990009991e-05 9.990009990009991e-05 9.990009990009991e-05 9.990009990009991e-05 9.990009990009991e-05 9.990009990009991e-05 9.990009990009991e-05 9.990009990009991e-05 0.4995004995004996 0.4995004995004996 9.990009990009991e-05 9.990009990009991e-05 9.990009990009991e-05 9.990009990009991e-05 9.990009990009991e-05 9.990009990009991e-05 9.990009990009991e-05 9.990009990009991e-05 9.990009990009991e-05 9.990009990009991e-05 9.990009990009991e-05 9.990009990009991e-05 0.4995004995004996 0.4995004995004996 9.990009990009991e-05 9.990009990009991e-05 9.990009990009991e-05 9.990009990009991e-05 9.990009990009991e-05 9.990009990009991e-05 9.990009990009991e-05 9.990009990009991e-05 9.990009990009991e-05 0.4995004995004996 0.4995004995004996 9.990009990009991e-05 9.990009990009991e-05 9.990009990009991e-05 9.990009990009991e-05 9.990009990009991e-05 9.99000999000999e-05 9.99000999000999e-05 9.99000999000999e-05 9.99000999000999e-05 9.99000999000999e-05 9.99000999000999e-05 9.99000999000999e-05 0.4995004995004995 0.4995004995004995 9.99000999000999e-05 9.99000999000999e-05 9.99000999000999e-05 9.990009990009991e-05 9.990009990009991e-05 9.990009990009991e-05 9.990009990009991e-05 9.990009990009991e-05 9.990009990009991e-05 0.4995004995004996 0.4995004995004996 9.990009990009991e-05 9.990009990009991e-05 9.990009990009991e-05 9.990009990009991e-05 9.990009990009991e-05 9.990009990009991e-05 9.990009990009991e-05 9.990009990009991e-05 9.990009990009991e-05 9.990009990009991e-05 9.990009990009991e-05 9.990009990009991e-05 0.4995004995004996 0.4995004995004996 9.990009990009991e-05 9.990009990009991e-05 9.99000999000999e-05 9.99000999000999e-05 9.99000999000999e-05 9.99000999000999e-05 9.99000999000999e-05 9.99000999000999e-05 9.99000999000999e-05 0.4995004995004995 0.4995004995004995 9.99000999000999e-05 9.99000999000999e-05 9.99000999000999e-05 9.99000999000999e-05 9.99000999000999e-05 9.99000999000999e-05 9.99000999000999e-05 9.99000999000999e-05 9.99000999000999e-05 9.99000999000999e-05 9.99000999000999e-05 9.99000999000999e-05 0.4995004995004995 0.4995004995004995 9.99000999000999e-05 9.990009990009991e-05 9.990009990009991e-05 9.990009990009991e-05 9.990009990009991e-05 9.990009990009991e-05 9.990009990009991e-05 9.990009990009991e-05 9.990009990009991e-05 0.4995004995004996 0.4995004995004996 9.990009990009991e-05 9.990009990009991e-05 9.989012086704624e-05 9.989012086704624e-05 9.989012086704624e-05 9.989012086704624e-05 9.989012086704624e-05 9.989012086704624e-05 9.989012086704624e-05 9.989012086704624e-05 9.989012086704624e-05 9.989012086704624e-05 9.989012086704624e-05 0.9989012086704624 9.989012086704626e-05 9.989012086704626e-05 9.989012086704626e-05 9.989012086704626e-05 9.989012086704626e-05 9.989012086704626e-05 9.989012086704626e-05 9.989012086704626e-05 9.989012086704626e-05 9.989012086704626e-05 0.9989012086704626 9.989012086704626e-05</probabilities>
		</cpt>
		<cpt id="blindh">
			<state id="No" />
			<state id="Yes" />
			<parents>blindsum</parents>
			<probabilities>0.2998 0.7002 0.2998 0.7002 0.2998 0.7002 0.2998 0.7002 0.2998 0.7002 0.2998 0.7002 0.2998 0.7002 0.2998 0.7002 0.2998 0.7002 0.2998 0.7002 0.2998 0.7002 0.2998 0.7002</probabilities>
		</cpt>
		<cpt id="iweed2">
			<state id="x_1" />
			<state id="x1_4" />
			<state id="x5_9" />
			<state id="x9_16" />
			<state id="x16_25" />
			<state id="x25_36" />
			<state id="x36_49" />
			<state id="x49_64" />
			<state id="x64_81" />
			<state id="x81_100" />
			<state id="x_100" />
			<probabilities>0.09090909090909093 0.09090909090909093 0.09090909090909093 0.09090909090909093 0.09090909090909093 0.09090909090909093 0.09090909090909093 0.09090909090909093 0.09090909090909093 0.09090909090909093 0.09090909090909093</probabilities>
		</cpt>
		<cpt id="almh">
			<state id="No" />
			<state id="Yes" />
			<parents>iweed2 blindh</parents>
			<probabilities>0.9999000099990001 9.999000099990002e-05 0.1001 0.8999 0.2703 0.7297 0.1001 0.8999 0.0956 0.9044 0.0956 0.9044 0.06519999999999999 0.9348 0.06519999999999999 0.9348 0.0537 0.9463 0.0537 0.9463 0.0474 0.9526 0.0474 0.9526 0.0431 0.9569 0.0431 0.9569 0.0399 0.9601 0.0399 0.9601 0.0373 0.9627 0.0373 0.9627 0.0352 0.9648 0.0352 0.9648 0.0291 0.9709 0.0291 0.9709</probabilities>
		</cpt>
		<cpt id="rkafst">
			<state id="app_12" />
			<state id="app_20" />
			<probabilities>0.5 0.5</probabilities>
		</cpt>
		<cpt id="selh">
			<state id="No" />
			<state id="Yes_1_time" />
			<parents>rkafst iweed2 almh</parents>
			<probabilities>0.9998 0.0002 0.9998 0.0002 0.9979 0.0021 0.9994 0.0005999999999999999 0.8885999999999999 0.1114 0.9854000000000001 0.0146 0.2095 0.7905 0.7339 0.2661 0.0177 0.9823 0.3061 0.6939 0.0028 0.9972 0.1272 0.8728 0.0009 0.9991 0.067 0.9330000000000001 0.0004 0.9996 0.043 0.957 0.0003 0.9997 0.0315 0.9685 0.0002 0.9998 0.0252 0.9748 0.0001 0.9999 0.0155 0.9845 0.9683 0.0317 0.9699 0.0301 0.9222 0.07779999999999999 0.9476 0.0524 0.6953 0.3047 0.8541 0.1459 0.2438 0.7562 0.5966 0.4034 0.0383 0.9617 0.2969 0.7030999999999999 0.0062 0.9938 0.1363 0.8637 0.0016 0.9984 0.07190000000000001 0.9281 0.0005999999999999999 0.9994 0.045 0.955 0.0003 0.9997 0.0322 0.9678 0.0002 0.9998 0.0252 0.9748 0.0001 0.9999 0.0149 0.9851</probabilities>
		</cpt>
		<cpt id="nplac">
			<state id="Top_dressed" />
			<state id="Invorked" />
			<state id="Placed" />
			<probabilities>0.3333333333333333 0.3333333333333333 0.3333333333333333</probabilities>
		</cpt>
		<cpt id="weed">
			<state id="x0_2_5" />
			<state id="x2_5_5_0" />
			<state id="x5_10" />
			<state id="x10_20" />
			<state id="x20_50" />
			<state id="x50_100" />
			<state id="x100_150" />
			<state id="x_150" />
			<parents>blindh almh selh rkafst iweed2 saatid nplac</parents>
			<probabilities>0.9993004896572401 9.993004896572401e-05 9.993004896572401e-05 9.993004896572401e-05 9.993004896572401e-05 9.993004896572401e-05 9.993004896572401e-05 9.993004896572401e-05 0.9993004896572401 9.993004896572401e-05 9.993004896572401e-05 9.993004896572401e-05 9.993004896572401e-05 9.993004896572401e-05 9.993004896572401e-05 9.993004896572401e-05 0.9993004896572401 9.993004896572401e-05 9.993004896572401e-05 9.993004896572401e-05 9.993004896572401e-05 9.993004896572401e-05 9.993004896572401e-05 9.993004896572401e-05 0.9993004896572401 9.993004896572401e-05 9.993004896572401e-05 9.993004896572401e-05 9.993004896572401e-05 9.993004896572401e-05 9.993004896572401e-05 9.993004896572401e-05 0.9993004896572401 9.993004896572401e-05 9.993004896572401e-05 9.993004896572401e-05 9.993004896572401e-05 9.993004896572401e-05 9.993004896572401e-05 9.993004896572401e-05 0.9993004896572401 9.993004896572401e-05 9.993004896572401e-05 9.993004896572401e-05 9.993004896572401e-05 9.993004896572401e-05 9.993004896572401e-05 9.993004896572401e-05 0.871664167916042 0.1276361819090455 0.0001999000499750125 9.995002498750625e-05 9.995002498750625e-05 9.995002498750625e-05 9.995002498750625e-05 9.995002498750625e-05 0.871664167916042 0.1276361819090455 0.0001999000499750125 9.995002498750625e-05 9.995002498750625e-05 9.995002498750625e-05 9.995002498750625e-05 9.995002498750625e-05 0.9993004197481512 9.994003597841297e-05 9.994003597841297e-05 9.994003597841297e-05 9.994003597841297e-05 9.994003597841297e-05 9.994003597841297e-05 9.994003597841297e-05 0.4006996501749125 0.367016491754123 0.2283858070964518 0.003498250874562719 9.995002498750625e-05 9.995002498750625e-05 9.995002498750625e-05 9.995002498750625e-05 0.4006996501749125 0.367016491754123 0.2283858070964518 0.003498250874562719 9.995002498750625e-05 9.995002498750625e-05 9.995002498750625e-05 9.995002498750625e-05 0.8040979510244878 0.1938030984507746 0.0015992003998001 9.995002498750625e-05 9.995002498750625e-05 9.995002498750625e-05 9.995002498750625e-05 9.995002498750625e-05 0.9990005996402159 0.0003997601439136519 9.994003597841297e-05 9.994003597841297e-05 9.994003597841297e-05 9.994003597841297e-05 9.994003597841297e-05 9.994003597841297e-05 0.9990005996402159 0.0003997601439136519 9.994003597841297e-05 9.994003597841297e-05 9.994003597841297e-05 9.994003597841297e-05 9.994003597841297e-05 9.994003597841297e-05 0.9993004896572401 9.993004896572401e-05 9.993004896572401e-05 9.993004896572401e-05 9.993004896572401e-05 9.993004896572401e-05 9.993004896572401e-05 9.993004896572401e-05 0.4466213514594162 0.3862455017992803 0.1659336265493803 0.0007996801279488205 9.996001599360256e-05 9.996001599360256e-05 9.996001599360256e-05 9.996001599360256e-05 0.4466213514594162 0.3862455017992803 0.1659336265493803 0.0007996801279488205 9.996001599360256e-05 9.996001599360256e-05 9.996001599360256e-05 9.996001599360256e-05 0.8655672163918041 0.1336331834082959 0.0002998500749625187 9.995002498750625e-05 9.995002498750625e-05 9.995002498750625e-05 9.995002498750625e-05 9.995002498750625e-05 0.1656668666266747 0.07378524295140973 0.1886622675464907 0.3803239352129574 0.1912617476504699 9.998000399920017e-05 9.998000399920017e-05 9.998000399920017e-05 0.1656668666266747 0.07378524295140973 0.1886622675464907 0.3803239352129574 0.1912617476504699 9.998000399920017e-05 9.998000399920017e-05 9.998000399920017e-05 0.2500249925022493 0.2046386084174747 0.388183544936519 0.1562531240627812 0.0005998200539838048 9.997000899730081e-05 9.997000899730081e-05 9.997000899730081e-05 0.1301739652069586 0.02459508098380324 0.05778844231153769 0.1466706658668266 0.4698060387922415 0.1699660067986403 0.0008998200359928015 9.998000399920017e-05 0.1301739652069586 0.02459508098380324 0.05778844231153769 0.1466706658668266 0.4698060387922415 0.1699660067986403 0.0008998200359928015 9.998000399920017e-05 0.1581683663267347 0.0625874825034993 0.1595680863827235 0.3537292541491702 0.2654469106178765 0.0002999400119976005 9.998000399920017e-05 9.998000399920017e-05 0.6629685157421289 0.3176411794102949 0.01889055472263868 9.995002498750625e-05 9.995002498750625e-05 9.995002498750625e-05 9.995002498750625e-05 9.995002498750625e-05 0.6629685157421289 0.3176411794102949 0.01889055472263868 9.995002498750625e-05 9.995002498750625e-05 9.995002498750625e-05 9.995002498750625e-05 9.995002498750625e-05 0.9884069558265042 0.01099340395762542 9.994003597841297e-05 9.994003597841297e-05 9.994003597841297e-05 9.994003597841297e-05 9.994003597841297e-05 9.994003597841297e-05 0.2008598280343931 0.1282743451309738 0.3077384523095381 0.3364327134573086 0.02639472105578884 9.998000399920017e-05 9.998000399920017e-05 9.998000399920017e-05 0.2008598280343931 0.1282743451309738 0.3077384523095381 0.3364327134573086 0.02639472105578884 9.998000399920017e-05 9.998000399920017e-05 9.998000399920017e-05 0.3476956912926122 0.3264020793761871 0.3093072078376487 0.01619514145756273 9.997000899730081e-05 9.997000899730081e-05 9.997000899730081e-05 9.997000899730081e-05 0.1271872812718728 0.0207979202079792 0.0481951804819518 0.1208879112088791 0.428957104289571 0.2486751324867513 0.0051994800519948 9.999000099990002e-05 0.1271872812718728 0.0207979202079792 0.0481951804819518 0.1208879112088791 0.428957104289571 0.2486751324867513 0.0051994800519948 9.999000099990002e-05 0.1508849115088491 0.0520947905209479 0.1314868513148685 0.3133686631336867 0.3494650534946505 0.0024997500249975 9.999000099990002e-05 9.999000099990002e-05 0.116011601160116 0.0079007900790079 0.0168016801680168 0.03810381038103811 0.1483148314831483 0.3055305530553055 0.2372237223722372 0.1301130113011301 0.116011601160116 0.0079007900790079 0.0168016801680168 0.03810381038103811 0.1483148314831483 0.3055305530553055 0.2372237223722372 0.1301130113011301 0.1248875112488751 0.0180981901809819 0.0411958804119588 0.1018898110188981 0.3837616238376162 0.3128687131286871 0.0171982801719828 9.999000099990002e-05 0.3482606957217113 0.326969212315074 0.3083766493402639 0.01599360255897641 9.996001599360256e-05 9.996001599360256e-05 9.996001599360256e-05 9.996001599360256e-05 0.3482606957217113 0.326969212315074 0.3083766493402639 0.01599360255897641 9.996001599360256e-05 9.996001599360256e-05 9.996001599360256e-05 9.996001599360256e-05 0.7129435282358819 0.2774612693653173 0.009095452273863066 9.995002498750624e-05 9.995002498750624e-05 9.995002498750624e-05 9.995002498750624e-05 9.995002498750624e-05 0.150869826034793 0.05228954209158168 0.131873625274945 0.3139372125574885 0.3483303339332133 0.002499500099980004 9.998000399920017e-05 9.998000399920017e-05 0.150869826034793 0.05228954209158168 0.131873625274945 0.3139372125574885 0.3483303339332133 0.002499500099980004 9.998000399920017e-05 9.998000399920017e-05 0.210515793682527 0.1435425829668132 0.3323670531787284 0.2995801679328268 0.01369452219112355 9.996001599360255e-05 9.996001599360255e-05 9.996001599360255e-05 0.1178117811781178 0.009800980098009802 0.0213021302130213 0.04940494049404941 0.1964196419641965 0.3635363536353636 0.1941194119411941 0.04760476047604761 0.1178117811781178 0.009800980098009802 0.0213021302130213 0.04940494049404941 0.1964196419641965 0.3635363536353636 0.1941194119411941 0.04760476047604761 0.1288871112888711 0.0228977102289771 0.0534946505349465 0.1351864813518648 0.4545545445455454 0.2028797120287971 0.001999800019998 9.999000099990002e-05 0.1123 0.0039 0.008 0.0172 0.061 0.1306 0.1549 0.5121 0.1123 0.0039 0.008 0.0172 0.061 0.1306 0.1549 0.5121 0.1166883311668833 0.008599140085991401 0.0184981501849815 0.0421957804219578 0.1657834216578342 0.3302669733026697 0.2257774222577742 0.09219078092190781 0.234629611116665 0.1811456563031091 0.3749875037488753 0.2067379786064181 0.002199340197940618 9.997000899730081e-05 9.997000899730081e-05 9.997000899730081e-05 0.234629611116665 0.1811456563031091 0.3749875037488753 0.2067379786064181 0.002199340197940618 9.997000899730081e-05 9.997000899730081e-05 9.997000899730081e-05 0.4413234706117553 0.3848460615753699 0.172530987604958 0.000899640143942423 9.996001599360256e-05 9.996001599360256e-05 9.996001599360256e-05 9.996001599360256e-05 0.133 0.0281 0.0669 0.1709 0.4882 0.1127 0.0001 0.0001 0.133 0.0281 0.0669 0.1709 0.4882 0.1127 0.0001 0.0001 0.164867026594681 0.0725854829034193 0.1856628674265147 0.3783243351329734 0.1982603479304139 9.998000399920014e-05 9.998000399920014e-05 9.998000399920014e-05 0.114 0.0057 0.0121 0.0267 0.09959999999999999 0.2165 0.2245 0.3009 0.114 0.0057 0.0121 0.0267 0.09959999999999999 0.2165 0.2245 0.3009 0.1204879512048795 0.012998700129987 0.0286971302869713 0.06859314068593141 0.2735726427357265 0.3911608839116088 0.0982901709829017 0.006199380061993801 0.1108 0.0023 0.0047 0.009900000000000001 0.033 0.0663 0.0794 0.6936 0.1108 0.0023 0.0047 0.009900000000000001 0.033 0.0663 0.0794 0.6936 0.1134113411341134 0.005000500050005 0.0106010601060106 0.023002300230023 0.0844084408440844 0.1838183818381838 0.2035203520352035 0.3762376237623762 0.1860255897640944 0.1049580167932827 0.2621951219512195 0.380047980807677 0.06647341063574572 9.996001599360259e-05 9.996001599360259e-05 9.996001599360259e-05 0.1860255897640944 0.1049580167932827 0.2621951219512195 0.380047980807677 0.06647341063574572 9.996001599360259e-05 9.996001599360259e-05 9.996001599360259e-05 0.3060775689724111 0.2812874850059976 0.3655537784886046 0.04668132746901239 9.996001599360256e-05 9.996001599360256e-05 9.996001599360256e-05 9.996001599360256e-05 0.1245124512451245 0.0176017601760176 0.0401040104010401 0.0989098909890989 0.3754375437543754 0.3228322832283228 0.0205020502050205 0.0001000100010001 0.1245124512451245 0.0176017601760176 0.0401040104010401 0.0989098909890989 0.3754375437543754 0.3228322832283228 0.0205020502050205 0.0001000100010001 0.1444855514448555 0.0432956704329567 0.1075892410758924 0.2677732226777322 0.4244575542445755 0.0121987801219878 9.999000099990002e-05 9.999000099990002e-05 0.1122 0.0038 0.0078 0.0168 0.0591 0.1264 0.1504 0.5235 0.1122 0.0038 0.0078 0.0168 0.0591 0.1264 0.1504 0.5235 0.1164883511648835 0.008399160083991599 0.017998200179982 0.04099590040995901 0.1604839516048395 0.3231676832316768 0.2298770122987701 0.1025897410258974 0.11001100110011 0.0015001500150015 0.0031003100310031 0.006400640064006401 0.0208020802080208 0.0397039703970397 0.046004600460046 0.7724772477247724 0.11001100110011 0.0015001500150015 0.0031003100310031 0.006400640064006401 0.0208020802080208 0.0397039703970397 0.046004600460046 0.7724772477247724 0.1117 0.003300000000000001 0.006900000000000002 0.0146 0.05060000000000001 0.1065 0.1283 0.5781000000000001 0.1611677664467107 0.06708658268346332 0.1711657668466307 0.3663267346530694 0.2339532093581284 9.998000399920017e-05 9.998000399920017e-05 9.998000399920017e-05 0.1611677664467107 0.06708658268346332 0.1711657668466307 0.3663267346530694 0.2339532093581284 9.998000399920017e-05 9.998000399920017e-05 9.998000399920017e-05 0.2377286813955813 0.1859442167349795 0.3784864540637808 0.1958412476257123 0.001699490152954114 9.997000899730081e-05 9.997000899730081e-05 9.997000899730081e-05 0.1198119811981198 0.0121012101210121 0.0267026702670267 0.06330633063306329 0.2533253325332533 0.3913391339133913 0.1222122212221222 0.0112011201120112 0.1198119811981198 0.0121012101210121 0.0267026702670267 0.06330633063306329 0.2533253325332533 0.3913391339133913 0.1222122212221222 0.0112011201120112 0.1334866513348665 0.0287971202879712 0.06869313068693131 0.1754824517548245 0.4896510348965104 0.1036896310368963 9.999000099990002e-05 9.999000099990002e-05 0.1110888911108889 0.0026997300269973 0.0054994500549945 0.0115988401159884 0.03919608039196081 0.08029197080291971 0.0968903109689031 0.6527347265273473 0.1110888911108889 0.0026997300269973 0.0054994500549945 0.0115988401159884 0.03919608039196081 0.08029197080291971 0.0968903109689031 0.6527347265273473 0.1141885811418858 0.0058994100589941 0.0123987601239876 0.0272972702729727 0.1021897810218978 0.2218778122187781 0.2271772822717728 0.288971102889711 0.1096109610961096 0.0011001100110011 0.0022002200220022 0.0045004500450045 0.0143014301430143 0.0265026502650265 0.0297029702970297 0.8120812081208121 0.1096109610961096 0.0011001100110011 0.0022002200220022 0.0045004500450045 0.0143014301430143 0.0265026502650265 0.0297029702970297 0.8120812081208121 0.1108 0.0024 0.0048 0.0101 0.0338 0.068 0.08160000000000001 0.6885 0.1466706658668266 0.04639072185562887 0.1159768046390722 0.2847430513897221 0.3988202359528094 0.007198560287942412 9.998000399920017e-05 9.998000399920017e-05 0.1466706658668266 0.04639072185562887 0.1159768046390722 0.2847430513897221 0.3988202359528094 0.007198560287942412 9.998000399920017e-05 9.998000399920017e-05 0.1995201919232308 0.1261495401839265 0.3039784086365454 0.3411635345861656 0.02888844462215115 9.996001599360259e-05 9.996001599360259e-05 9.996001599360259e-05 0.1169116911691169 0.008900890089008901 0.0191019101910191 0.0439043904390439 0.1729172917291729 0.3391339133913391 0.2195219521952195 0.07960796079607961 0.1169116911691169 0.008900890089008901 0.0191019101910191 0.0439043904390439 0.1729172917291729 0.3391339133913391 0.2195219521952195 0.07960796079607961 0.126987301269873 0.0204979502049795 0.0473952604739526 0.1188881111888811 0.4247575242475752 0.2553744625537446 0.005999400059994 9.999000099990002e-05 0.1105 0.002 0.0041 0.008500000000000001 0.0279 0.0551 0.0654 0.7265 0.1105 0.002 0.0041 0.008500000000000001 0.0279 0.0551 0.0654 0.7265 0.1127112711271127 0.0043004300430043 0.0091009100910091 0.0195019501950195 0.0702070207020702 0.1519151915191519 0.1763176317631763 0.4559455945594559 0.1092890710928907 0.0007999200079992001 0.0016998300169983 0.0033996600339966 0.0104989501049895 0.018998100189981 0.0207979202079792 0.8345165483451655 0.1092890710928907 0.0007999200079992001 0.0016998300169983 0.0033996600339966 0.0104989501049895 0.018998100189981 0.0207979202079792 0.8345165483451655 0.1101889811018898 0.0017998200179982 0.0035996400359964 0.007399260073992601 0.0241975802419758 0.046995300469953 0.05519448055194481 0.7506249375062494 0.1375587323802859 0.03398980305908228 0.08257522743177047 0.2105368389483155 0.4836549035289413 0.05148455463360992 9.997000899730081e-05 9.997000899730081e-05 0.1375587323802859 0.03398980305908228 0.08257522743177047 0.2105368389483155 0.4836549035289413 0.05148455463360992 9.997000899730081e-05 9.997000899730081e-05 0.176147155853244 0.08977306807957613 0.2278316505048485 0.3916824952514246 0.1142657202839148 9.997000899730081e-05 9.997000899730081e-05 9.997000899730081e-05 0.115011501150115 0.0068006800680068 0.0144014401440144 0.0322032203220322 0.1231123112311231 0.2628262826282628 0.2402240224022402 0.2054205420542054 0.115011501150115 0.0068006800680068 0.0144014401440144 0.0322032203220322 0.1231123112311231 0.2628262826282628 0.2402240224022402 0.2054205420542054 0.1227122712271227 0.0155015501550155 0.0347034703470347 0.0846084608460846 0.3312331233123312 0.3651365136513651 0.0453045304530453 0.0008000800080008001 0.10998900109989 0.0015998400159984 0.0030996900309969 0.0064993500649935 0.020997900209979 0.0401959804019598 0.04659534046595341 0.771022897710229 0.10998900109989 0.0015998400159984 0.0030996900309969 0.0064993500649935 0.020997900209979 0.0401959804019598 0.04659534046595341 0.771022897710229 0.1117888211178882 0.0033996600339966 0.006899310068993101 0.0146985301469853 0.05119488051194881 0.1078892110788921 0.1298870112988701 0.5742425757424258 0.1091 0.0005999999999999999 0.0013 0.0026 0.0081 0.0143 0.0154 0.8486 0.1091 0.0005999999999999999 0.0013 0.0026 0.0081 0.0143 0.0154 0.8486 0.1098 0.0014 0.0028 0.0057 0.0182 0.0344 0.0395 0.7882 0.1313868613138686 0.025997400259974 0.06149385061493851 0.1566843315668433 0.4795520447955205 0.1443855614438556 0.0003999600039996001 9.999000099990002e-05 0.1313868613138686 0.025997400259974 0.06149385061493851 0.1566843315668433 0.4795520447955205 0.1443855614438556 0.0003999600039996001 9.999000099990002e-05 0.1609678064387123 0.06668666266746651 0.1702659468106379 0.3654269146170766 0.2363527294541092 9.998000399920017e-05 9.998000399920017e-05 9.998000399920017e-05 0.1137 0.0054 0.0113 0.0247 0.0914 0.1991 0.2143 0.3401 0.1137 0.0054 0.0113 0.0247 0.0914 0.1991 0.2143 0.3401 0.1197880211978802 0.0120987901209879 0.0265973402659734 0.06299370062993701 0.251974802519748 0.3911608839116088 0.1237876212378762 0.0115988401159884 0.1097 0.0012 0.0025 0.0051 0.0164 0.0306 0.0348 0.7997 0.1097 0.0012 0.0025 0.0051 0.0164 0.0306 0.0348 0.7997 0.1110888911108889 0.0026997300269973 0.0054994500549945 0.0114988501149885 0.038996100389961 0.07989201079892011 0.0963903609639036 0.6539346065393461 0.109 0.0005 0.001 0.0021 0.0064 0.0112 0.0119 0.8579 0.109 0.0005 0.001 0.0021 0.0064 0.0112 0.0119 0.8579 0.1095890410958904 0.0010998900109989 0.0021997800219978 0.0044995500449955 0.0142985701429857 0.0263973602639736 0.0295970402959704 0.8123187681231877 0.1183881611838816 0.0105989401059894 0.0230976902309769 0.05389461053894611 0.214978502149785 0.3773622637736226 0.170982901709829 0.0306969303069693 0.1183881611838816 0.0105989401059894 0.0230976902309769 0.05389461053894611 0.214978502149785 0.3773622637736226 0.170982901709829 0.0306969303069693 0.130373925214957 0.02479504099180164 0.05838832233553289 0.1481703659268147 0.471505698860228 0.1658668266346731 0.0007998400319936014 9.998000399920017e-05 0.1108 0.0024 0.0048 0.0101 0.0338 0.068 0.08160000000000001 0.6885 0.1108 0.0024 0.0048 0.0101 0.0338 0.068 0.08160000000000001 0.6885 0.1135113511351135 0.0051005100510051 0.0108010801080108 0.0236023602360236 0.0866086608660866 0.1887188718871887 0.2071207120712071 0.3645364536453645 0.108989101089891 0.0005999400059994 0.0010998900109989 0.0022997700229977 0.006999300069993001 0.0122987701229877 0.0130986901309869 0.8546145385461454 0.108989101089891 0.0005999400059994 0.0010998900109989 0.0022997700229977 0.006999300069993001 0.0122987701229877 0.0130986901309869 0.8546145385461454 0.1096890310968903 0.0011998800119988 0.0023997600239976 0.004899510048995101 0.0156984301569843 0.0290970902909709 0.032996700329967 0.804019598040196 0.1087108710871087 0.0002000200020002 0.0005000500050005001 0.0009000900090008999 0.0028002800280028 0.0048004800480048 0.004900490049004899 0.8771877187718771 0.1087108710871087 0.0002000200020002 0.0005000500050005001 0.0009000900090008999 0.0028002800280028 0.0048004800480048 0.004900490049004899 0.8771877187718771 0.109 0.0005 0.001 0.002 0.0061 0.0107 0.0113 0.8594000000000001 0.9993004896572401 9.993004896572401e-05 9.993004896572401e-05 9.993004896572401e-05 9.993004896572401e-05 9.993004896572401e-05 9.993004896572401e-05 9.993004896572401e-05 0.9993004896572401 9.993004896572401e-05 9.993004896572401e-05 9.993004896572401e-05 9.993004896572401e-05 9.993004896572401e-05 9.993004896572401e-05 9.993004896572401e-05 0.9993004896572401 9.993004896572401e-05 9.993004896572401e-05 9.993004896572401e-05 9.993004896572401e-05 9.993004896572401e-05 9.993004896572401e-05 9.993004896572401e-05 0.9993004896572401 9.993004896572401e-05 9.993004896572401e-05 9.993004896572401e-05 9.993004896572401e-05 9.993004896572401e-05 9.993004896572401e-05 9.993004896572401e-05 0.9993004896572401 9.993004896572401e-05 9.993004896572401e-05 9.993004896572401e-05 9.993004896572401e-05 9.993004896572401e-05 9.993004896572401e-05 9.993004896572401e-05 0.9993004896572401 9.993004896572401e-05 9.993004896572401e-05 9.993004896572401e-05 9.993004896572401e-05 9.993004896572401e-05 9.993004896572401e-05 9.993004896572401e-05 0.871664167916042 0.1276361819090455 0.0001999000499750125 9.995002498750625e-05 9.995002498750625e-05 9.995002498750625e-05 9.995002498750625e-05 9.995002498750625e-05 0.871664167916042 0.1276361819090455 0.0001999000499750125 9.995002498750625e-05 9.995002498750625e-05 9.995002498750625e-05 9.995002498750625e-05 9.995002498750625e-05 0.9993004197481512 9.994003597841297e-05 9.994003597841297e-05 9.994003597841297e-05 9.994003597841297e-05 9.994003597841297e-05 9.994003597841297e-05 9.994003597841297e-05 0.4006996501749125 0.367016491754123 0.2283858070964518 0.003498250874562719 9.995002498750625e-05 9.995002498750625e-05 9.995002498750625e-05 9.995002498750625e-05 0.4006996501749125 0.367016491754123 0.2283858070964518 0.003498250874562719 9.995002498750625e-05 9.995002498750625e-05 9.995002498750625e-05 9.995002498750625e-05 0.8040979510244878 0.1938030984507746 0.0015992003998001 9.995002498750625e-05 9.995002498750625e-05 9.995002498750625e-05 9.995002498750625e-05 9.995002498750625e-05 0.9990005996402159 0.0003997601439136519 9.994003597841297e-05 9.994003597841297e-05 9.994003597841297e-05 9.994003597841297e-05 9.994003597841297e-05 9.994003597841297e-05 0.9990005996402159 0.0003997601439136519 9.994003597841297e-05 9.994003597841297e-05 9.994003597841297e-05 9.994003597841297e-05 9.994003597841297e-05 9.994003597841297e-05 0.9993004896572401 9.993004896572401e-05 9.993004896572401e-05 9.993004896572401e-05 9.993004896572401e-05 9.993004896572401e-05 9.993004896572401e-05 9.993004896572401e-05 0.4466213514594162 0.3862455017992803 0.1659336265493803 0.0007996801279488205 9.996001599360256e-05 9.996001599360256e-05 9.996001599360256e-05 9.996001599360256e-05 0.4466213514594162 0.3862455017992803 0.1659336265493803 0.0007996801279488205 9.996001599360256e-05 9.996001599360256e-05 9.996001599360256e-05 9.996001599360256e-05 0.8655672163918041 0.1336331834082959 0.0002998500749625187 9.995002498750625e-05 9.995002498750625e-05 9.995002498750625e-05 9.995002498750625e-05 9.995002498750625e-05 0.1656668666266747 0.07378524295140973 0.1886622675464907 0.3803239352129574 0.1912617476504699 9.998000399920017e-05 9.998000399920017e-05 9.998000399920017e-05 0.1656668666266747 0.07378524295140973 0.1886622675464907 0.3803239352129574 0.1912617476504699 9.998000399920017e-05 9.998000399920017e-05 9.998000399920017e-05 0.2500249925022493 0.2046386084174747 0.388183544936519 0.1562531240627812 0.0005998200539838048 9.997000899730081e-05 9.997000899730081e-05 9.997000899730081e-05 0.1301739652069586 0.02459508098380324 0.05778844231153769 0.1466706658668266 0.4698060387922415 0.1699660067986403 0.0008998200359928015 9.998000399920017e-05 0.1301739652069586 0.02459508098380324 0.05778844231153769 0.1466706658668266 0.4698060387922415 0.1699660067986403 0.0008998200359928015 9.998000399920017e-05 0.1581683663267347 0.0625874825034993 0.1595680863827235 0.3537292541491702 0.2654469106178765 0.0002999400119976005 9.998000399920017e-05 9.998000399920017e-05 0.6629685157421289 0.3176411794102949 0.01889055472263868 9.995002498750625e-05 9.995002498750625e-05 9.995002498750625e-05 9.995002498750625e-05 9.995002498750625e-05 0.6629685157421289 0.3176411794102949 0.01889055472263868 9.995002498750625e-05 9.995002498750625e-05 9.995002498750625e-05 9.995002498750625e-05 9.995002498750625e-05 0.9884069558265042 0.01099340395762542 9.994003597841297e-05 9.994003597841297e-05 9.994003597841297e-05 9.994003597841297e-05 9.994003597841297e-05 9.994003597841297e-05 0.2008598280343931 0.1282743451309738 0.3077384523095381 0.3364327134573086 0.02639472105578884 9.998000399920017e-05 9.998000399920017e-05 9.998000399920017e-05 0.2008598280343931 0.1282743451309738 0.3077384523095381 0.3364327134573086 0.02639472105578884 9.998000399920017e-05 9.998000399920017e-05 9.998000399920017e-05 0.3476956912926122 0.3264020793761871 0.3093072078376487 0.01619514145756273 9.997000899730081e-05 9.997000899730081e-05 9.997000899730081e-05 9.997000899730081e-05 0.1271872812718728 0.0207979202079792 0.0481951804819518 0.1208879112088791 0.428957104289571 0.2486751324867513 0.0051994800519948 9.999000099990002e-05 0.1271872812718728 0.0207979202079792 0.0481951804819518 0.1208879112088791 0.428957104289571 0.2486751324867513 0.0051994800519948 9.999000099990002e-05 0.1508849115088491 0.0520947905209479 0.1314868513148685 0.3133686631336867 0.3494650534946505 0.0024997500249975 9.999000099990002e-05 9.999000099990002e-05 0.116011601160116 0.0079007900790079 0.0168016801680168 0.03810381038103811 0.1483148314831483 0.3055305530553055 0.2372237223722372 0.1301130113011301 0.116011601160116 0.0079007900790079 0.0168016801680168 0.03810381038103811 0.1483148314831483 0.3055305530553055 0.2372237223722372 0.1301130113011301 0.1248875112488751 0.0180981901809819 0.0411958804119588 0.1018898110188981 0.3837616238376162 0.3128687131286871 0.0171982801719828 9.999000099990002e-05 0.3482606957217113 0.326969212315074 0.3083766493402639 0.01599360255897641 9.996001599360256e-05 9.996001599360256e-05 9.996001599360256e-05 9.996001599360256e-05 0.3482606957217113 0.326969212315074 0.3083766493402639 0.01599360255897641 9.996001599360256e-05 9.996001599360256e-05 9.996001599360256e-05 9.996001599360256e-05 0.7129435282358819 0.2774612693653173 0.009095452273863066 9.995002498750624e-05 9.995002498750624e-05 9.995002498750624e-05 9.995002498750624e-05 9.995002498750624e-05 0.150869826034793 0.05228954209158168 0.131873625274945 0.3139372125574885 0.3483303339332133 0.002499500099980004 9.998000399920017e-05 9.998000399920017e-05 0.150869826034793 0.05228954209158168 0.131873625274945 0.3139372125574885 0.3483303339332133 0.002499500099980004 9.998000399920017e-05 9.998000399920017e-05 0.210515793682527 0.1435425829668132 0.3323670531787284 0.2995801679328268 0.01369452219112355 9.996001599360255e-05 9.996001599360255e-05 9.996001599360255e-05 0.1178117811781178 0.009800980098009802 0.0213021302130213 0.04940494049404941 0.1964196419641965 0.3635363536353636 0.1941194119411941 0.04760476047604761 0.1178117811781178 0.009800980098009802 0.0213021302130213 0.04940494049404941 0.1964196419641965 0.3635363536353636 0.1941194119411941 0.04760476047604761 0.1288871112888711 0.0228977102289771 0.0534946505349465 0.1351864813518648 0.4545545445455454 0.2028797120287971 0.001999800019998 9.999000099990002e-05 0.1123 0.0039 0.008 0.0172 0.061 0.1306 0.1549 0.5121 0.1123 0.0039 0.008 0.0172 0.061 0.1306 0.1549 0.5121 0.1166883311668833 0.008599140085991401 0.0184981501849815 0.0421957804219578 0.1657834216578342 0.3302669733026697 0.2257774222577742 0.09219078092190781 0.234629611116665 0.1811456563031091 0.3749875037488753 0.2067379786064181 0.002199340197940618 9.997000899730081e-05 9.997000899730081e-05 9.997000899730081e-05 0.234629611116665 0.1811456563031091 0.3749875037488753 0.2067379786064181 0.002199340197940618 9.997000899730081e-05 9.997000899730081e-05 9.997000899730081e-05 0.4413234706117553 0.3848460615753699 0.172530987604958 0.000899640143942423 9.996001599360256e-05 9.996001599360256e-05 9.996001599360256e-05 9.996001599360256e-05 0.133 0.0281 0.0669 0.1709 0.4882 0.1127 0.0001 0.0001 0.133 0.0281 0.0669 0.1709 0.4882 0.1127 0.0001 0.0001 0.164867026594681 0.0725854829034193 0.1856628674265147 0.3783243351329734 0.1982603479304139 9.998000399920014e-05 9.998000399920014e-05 9.998000399920014e-05 0.114 0.0057 0.0121 0.0267 0.09959999999999999 0.2165 0.2245 0.3009 0.114 0.0057 0.0121 0.0267 0.09959999999999999 0.2165 0.2245 0.3009 0.1204879512048795 0.012998700129987 0.0286971302869713 0.06859314068593141 0.2735726427357265 0.3911608839116088 0.0982901709829017 0.006199380061993801 0.1108 0.0023 0.0047 0.009900000000000001 0.033 0.0663 0.0794 0.6936 0.1108 0.0023 0.0047 0.009900000000000001 0.033 0.0663 0.0794 0.6936 0.1134113411341134 0.005000500050005 0.0106010601060106 0.023002300230023 0.0844084408440844 0.1838183818381838 0.2035203520352035 0.3762376237623762 0.1860255897640944 0.1049580167932827 0.2621951219512195 0.380047980807677 0.06647341063574572 9.996001599360259e-05 9.996001599360259e-05 9.996001599360259e-05 0.1860255897640944 0.1049580167932827 0.2621951219512195 0.380047980807677 0.06647341063574572 9.996001599360259e-05 9.996001599360259e-05 9.996001599360259e-05 0.3060775689724111 0.2812874850059976 0.3655537784886046 0.04668132746901239 9.996001599360256e-05 9.996001599360256e-05 9.996001599360256e-05 9.996001599360256e-05 0.1245124512451245 0.0176017601760176 0.0401040104010401 0.0989098909890989 0.3754375437543754 0.3228322832283228 0.0205020502050205 0.0001000100010001 0.1245124512451245 0.0176017601760176 0.0401040104010401 0.0989098909890989 0.3754375437543754 0.3228322832283228 0.0205020502050205 0.0001000100010001 0.1444855514448555 0.0432956704329567 0.1075892410758924 0.2677732226777322 0.4244575542445755 0.0121987801219878 9.999000099990002e-05 9.999000099990002e-05 0.1122 0.0038 0.0078 0.0168 0.0591 0.1264 0.1504 0.5235 0.1122 0.0038 0.0078 0.0168 0.0591 0.1264 0.1504 0.5235 0.1164883511648835 0.008399160083991599 0.017998200179982 0.04099590040995901 0.1604839516048395 0.3231676832316768 0.2298770122987701 0.1025897410258974 0.11001100110011 0.0015001500150015 0.0031003100310031 0.006400640064006401 0.0208020802080208 0.0397039703970397 0.046004600460046 0.7724772477247724 0.11001100110011 0.0015001500150015 0.0031003100310031 0.006400640064006401 0.0208020802080208 0.0397039703970397 0.046004600460046 0.7724772477247724 0.1117 0.003300000000000001 0.006900000000000002 0.0146 0.05060000000000001 0.1065 0.1283 0.5781000000000001 0.1611677664467107 0.06708658268346332 0.1711657668466307 0.3663267346530694 0.2339532093581284 9.998000399920017e-05 9.998000399920017e-05 9.998000399920017e-05 0.1611677664467107 0.06708658268346332 0.1711657668466307 0.3663267346530694 0.2339532093581284 9.998000399920017e-05 9.998000399920017e-05 9.998000399920017e-05 0.2377286813955813 0.1859442167349795 0.3784864540637808 0.1958412476257123 0.001699490152954114 9.997000899730081e-05 9.997000899730081e-05 9.997000899730081e-05 0.1198119811981198 0.0121012101210121 0.0267026702670267 0.06330633063306329 0.2533253325332533 0.3913391339133913 0.1222122212221222 0.0112011201120112 0.1198119811981198 0.0121012101210121 0.0267026702670267 0.06330633063306329 0.2533253325332533 0.3913391339133913 0.1222122212221222 0.0112011201120112 0.1334866513348665 0.0287971202879712 0.06869313068693131 0.1754824517548245 0.4896510348965104 0.1036896310368963 9.999000099990002e-05 9.999000099990002e-05 0.1110888911108889 0.0026997300269973 0.0054994500549945 0.0115988401159884 0.03919608039196081 0.08029197080291971 0.0968903109689031 0.6527347265273473 0.1110888911108889 0.0026997300269973 0.0054994500549945 0.0115988401159884 0.03919608039196081 0.08029197080291971 0.0968903109689031 0.6527347265273473 0.1141885811418858 0.0058994100589941 0.0123987601239876 0.0272972702729727 0.1021897810218978 0.2218778122187781 0.2271772822717728 0.288971102889711 0.1096109610961096 0.0011001100110011 0.0022002200220022 0.0045004500450045 0.0143014301430143 0.0265026502650265 0.0297029702970297 0.8120812081208121 0.1096109610961096 0.0011001100110011 0.0022002200220022 0.0045004500450045 0.0143014301430143 0.0265026502650265 0.0297029702970297 0.8120812081208121 0.1108 0.0024 0.0048 0.0101 0.0338 0.068 0.08160000000000001 0.6885 0.1466706658668266 0.04639072185562887 0.1159768046390722 0.2847430513897221 0.3988202359528094 0.007198560287942412 9.998000399920017e-05 9.998000399920017e-05 0.1466706658668266 0.04639072185562887 0.1159768046390722 0.2847430513897221 0.3988202359528094 0.007198560287942412 9.998000399920017e-05 9.998000399920017e-05 0.1995201919232308 0.1261495401839265 0.3039784086365454 0.3411635345861656 0.02888844462215115 9.996001599360259e-05 9.996001599360259e-05 9.996001599360259e-05 0.1169116911691169 0.008900890089008901 0.0191019101910191 0.0439043904390439 0.1729172917291729 0.3391339133913391 0.2195219521952195 0.07960796079607961 0.1169116911691169 0.008900890089008901 0.0191019101910191 0.0439043904390439 0.1729172917291729 0.3391339133913391 0.2195219521952195 0.07960796079607961 0.126987301269873 0.0204979502049795 0.0473952604739526 0.1188881111888811 0.4247575242475752 0.2553744625537446 0.005999400059994 9.999000099990002e-05 0.1105 0.002 0.0041 0.008500000000000001 0.0279 0.0551 0.0654 0.7265 0.1105 0.002 0.0041 0.008500000000000001 0.0279 0.0551 0.0654 0.7265 0.1127112711271127 0.0043004300430043 0.0091009100910091 0.0195019501950195 0.0702070207020702 0.1519151915191519 0.1763176317631763 0.4559455945594559 0.1092890710928907 0.0007999200079992001 0.0016998300169983 0.0033996600339966 0.0104989501049895 0.018998100189981 0.0207979202079792 0.8345165483451655 0.1092890710928907 0.0007999200079992001 0.0016998300169983 0.0033996600339966 0.0104989501049895 0.018998100189981 0.0207979202079792 0.8345165483451655 0.1101889811018898 0.0017998200179982 0.0035996400359964 0.007399260073992601 0.0241975802419758 0.046995300469953 0.05519448055194481 0.7506249375062494 0.1375587323802859 0.03398980305908228 0.08257522743177047 0.2105368389483155 0.4836549035289413 0.05148455463360992 9.997000899730081e-05 9.997000899730081e-05 0.1375587323802859 0.03398980305908228 0.08257522743177047 0.2105368389483155 0.4836549035289413 0.05148455463360992 9.997000899730081e-05 9.997000899730081e-05 0.176147155853244 0.08977306807957613 0.2278316505048485 0.3916824952514246 0.1142657202839148 9.997000899730081e-05 9.997000899730081e-05 9.997000899730081e-05 0.115011501150115 0.0068006800680068 0.0144014401440144 0.0322032203220322 0.1231123112311231 0.2628262826282628 0.2402240224022402 0.2054205420542054 0.115011501150115 0.0068006800680068 0.0144014401440144 0.0322032203220322 0.1231123112311231 0.2628262826282628 0.2402240224022402 0.2054205420542054 0.1227122712271227 0.0155015501550155 0.0347034703470347 0.0846084608460846 0.3312331233123312 0.3651365136513651 0.0453045304530453 0.0008000800080008001 0.10998900109989 0.0015998400159984 0.0030996900309969 0.0064993500649935 0.020997900209979 0.0401959804019598 0.04659534046595341 0.771022897710229 0.10998900109989 0.0015998400159984 0.0030996900309969 0.0064993500649935 0.020997900209979 0.0401959804019598 0.04659534046595341 0.771022897710229 0.1117888211178882 0.0033996600339966 0.006899310068993101 0.0146985301469853 0.05119488051194881 0.1078892110788921 0.1298870112988701 0.5742425757424258 0.1091 0.0005999999999999999 0.0013 0.0026 0.0081 0.0143 0.0154 0.8486 0.1091 0.0005999999999999999 0.0013 0.0026 0.0081 0.0143 0.0154 0.8486 0.1098 0.0014 0.0028 0.0057 0.0182 0.0344 0.0395 0.7882 0.1313868613138686 0.025997400259974 0.06149385061493851 0.1566843315668433 0.4795520447955205 0.1443855614438556 0.0003999600039996001 9.999000099990002e-05 0.1313868613138686 0.025997400259974 0.06149385061493851 0.1566843315668433 0.4795520447955205 0.1443855614438556 0.0003999600039996001 9.999000099990002e-05 0.1609678064387123 0.06668666266746651 0.1702659468106379 0.3654269146170766 0.2363527294541092 9.998000399920017e-05 9.998000399920017e-05 9.998000399920017e-05 0.1137 0.0054 0.0113 0.0247 0.0914 0.1991 0.2143 0.3401 0.1137 0.0054 0.0113 0.0247 0.0914 0.1991 0.2143 0.3401 0.1197880211978802 0.0120987901209879 0.0265973402659734 0.06299370062993701 0.251974802519748 0.3911608839116088 0.1237876212378762 0.0115988401159884 0.1097 0.0012 0.0025 0.0051 0.0164 0.0306 0.0348 0.7997 0.1097 0.0012 0.0025 0.0051 0.0164 0.0306 0.0348 0.7997 0.1110888911108889 0.0026997300269973 0.0054994500549945 0.0114988501149885 0.038996100389961 0.07989201079892011 0.0963903609639036 0.6539346065393461 0.109 0.0005 0.001 0.0021 0.0064 0.0112 0.0119 0.8579 0.109 0.0005 0.001 0.0021 0.0064 0.0112 0.0119 0.8579 0.1095890410958904 0.0010998900109989 0.0021997800219978 0.0044995500449955 0.0142985701429857 0.0263973602639736 0.0295970402959704 0.8123187681231877 0.1183881611838816 0.0105989401059894 0.0230976902309769 0.05389461053894611 0.214978502149785 0.3773622637736226 0.170982901709829 0.0306969303069693 0.1183881611838816 0.0105989401059894 0.0230976902309769 0.05389461053894611 0.214978502149785 0.3773622637736226 0.170982901709829 0.0306969303069693 0.130373925214957 0.02479504099180164 0.05838832233553289 0.1481703659268147 0.471505698860228 0.1658668266346731 0.0007998400319936014 9.998000399920017e-05 0.1108 0.0024 0.0048 0.0101 0.0338 0.068 0.08160000000000001 0.6885 0.1108 0.0024 0.0048 0.0101 0.0338 0.068 0.08160000000000001 0.6885 0.1135113511351135 0.0051005100510051 0.0108010801080108 0.0236023602360236 0.0866086608660866 0.1887188718871887 0.2071207120712071 0.3645364536453645 0.108989101089891 0.0005999400059994 0.0010998900109989 0.0022997700229977 0.006999300069993001 0.0122987701229877 0.0130986901309869 0.8546145385461454 0.108989101089891 0.0005999400059994 0.0010998900109989 0.0022997700229977 0.006999300069993001 0.0122987701229877 0.0130986901309869 0.8546145385461454 0.1096890310968903 0.0011998800119988 0.0023997600239976 0.004899510048995101 0.0156984301569843 0.0290970902909709 0.032996700329967 0.804019598040196 0.1087108710871087 0.0002000200020002 0.0005000500050005001 0.0009000900090008999 0.0028002800280028 0.0048004800480048 0.004900490049004899 0.8771877187718771 0.1087108710871087 0.0002000200020002 0.0005000500050005001 0.0009000900090008999 0.0028002800280028 0.0048004800480048 0.004900490049004899 0.8771877187718771 0.109 0.0005 0.001 0.002 0.0061 0.0107 0.0113 0.8594000000000001 0.9993004896572401 9.993004896572401e-05 9.993004896572401e-05 9.993004896572401e-05 9.993004896572401e-05 9.993004896572401e-05 9.993004896572401e-05 9.993004896572401e-05 0.9993004896572401 9.993004896572401e-05 9.993004896572401e-05 9.993004896572401e-05 9.993004896572401e-05 9.993004896572401e-05 9.993004896572401e-05 9.993004896572401e-05 0.9993004896572401 9.993004896572401e-05 9.993004896572401e-05 9.993004896572401e-05 9.993004896572401e-05 9.993004896572401e-05 9.993004896572401e-05 9.993004896572401e-05 0.9993004896572401 9.993004896572401e-05 9.993004896572401e-05 9.993004896572401e-05 9.993004896572401e-05 9.993004896572401e-05 9.993004896572401e-05 9.993004896572401e-05 0.9993004896572401 9.993004896572401e-05 9.993004896572401e-05 9.993004896572401e-05 9.993004896572401e-05 9.993004896572401e-05 9.993004896572401e-05 9.993004896572401e-05 0.9993004896572401 9.993004896572401e-05 9.993004896572401e-05 9.993004896572401e-05 9.993004896572401e-05 9.993004896572401e-05 9.993004896572401e-05 9.993004896572401e-05 0.9588247051768939 0.04057565460723566 9.994003597841297e-05 9.994003597841297e-05 9.994003597841297e-05 9.994003597841297e-05 9.994003597841297e-05 9.994003597841297e-05 0.9588247051768939 0.04057565460723566 9.994003597841297e-05 9.994003597841297e-05 9.994003597841297e-05 9.994003597841297e-05 9.994003597841297e-05 9.994003597841297e-05 0.9993004896572401 9.993004896572401e-05 9.993004896572401e-05 9.993004896572401e-05 9.993004896572401e-05 9.993004896572401e-05 9.993004896572401e-05 9.993004896572401e-05 0.5001499250374812 0.391304347826087 0.1080459770114943 9.995002498750625e-05 9.995002498750625e-05 9.995002498750625e-05 9.995002498750625e-05 9.995002498750625e-05 0.5001499250374812 0.391304347826087 0.1080459770114943 9.995002498750625e-05 9.995002498750625e-05 9.995002498750625e-05 9.995002498750625e-05 9.995002498750625e-05 0.9178492904257446 0.08155106935838498 9.994003597841297e-05 9.994003597841297e-05 9.994003597841297e-05 9.994003597841297e-05 9.994003597841297e-05 9.994003597841297e-05 0.9993004896572401 9.993004896572401e-05 9.993004896572401e-05 9.993004896572401e-05 9.993004896572401e-05 9.993004896572401e-05 9.993004896572401e-05 9.993004896572401e-05 0.9993004896572401 9.993004896572401e-05 9.993004896572401e-05 9.993004896572401e-05 9.993004896572401e-05 9.993004896572401e-05 9.993004896572401e-05 9.993004896572401e-05 0.9993004896572401 9.993004896572401e-05 9.993004896572401e-05 9.993004896572401e-05 9.993004896572401e-05 9.993004896572401e-05 9.993004896572401e-05 9.993004896572401e-05 0.5587206396801599 0.3780109945027486 0.06276861569215392 9.995002498750625e-05 9.995002498750625e-05 9.995002498750625e-05 9.995002498750625e-05 9.995002498750625e-05 0.5587206396801599 0.3780109945027486 0.06276861569215392 9.995002498750625e-05 9.995002498750625e-05 9.995002498750625e-05 9.995002498750625e-05 9.995002498750625e-05 0.9556266240255847 0.04377373575854487 9.994003597841297e-05 9.994003597841297e-05 9.994003597841297e-05 9.994003597841297e-05 9.994003597841297e-05 9.994003597841297e-05 0.1830633873225355 0.1002799440111978 0.2520495900819836 0.3855228954209158 0.07878424315136973 9.998000399920017e-05 9.998000399920017e-05 9.998000399920017e-05 0.1830633873225355 0.1002799440111978 0.2520495900819836 0.3855228954209158 0.07878424315136973 9.998000399920017e-05 9.998000399920017e-05 9.998000399920017e-05 0.297780887644942 0.2709916033586565 0.3740503798480607 0.05677728908436626 9.996001599360256e-05 9.996001599360256e-05 9.996001599360256e-05 9.996001599360256e-05 0.1362727454509098 0.03229354129174165 0.07798440311937613 0.1991601679664067 0.4887022595480904 0.06538692261547691 9.998000399920017e-05 9.998000399920017e-05 0.1362727454509098 0.03229354129174165 0.07798440311937613 0.1991601679664067 0.4887022595480904 0.06538692261547691 9.998000399920017e-05 9.998000399920017e-05 0.1729481155653304 0.08467459762071378 0.2158352494251725 0.3910826751974408 0.1351594521643507 9.997000899730081e-05 9.997000899730081e-05 9.997000899730081e-05 0.8007996001999 0.1970014992503748 0.001699150424787606 9.995002498750625e-05 9.995002498750625e-05 9.995002498750625e-05 9.995002498750625e-05 9.995002498750625e-05 0.8007996001999 0.1970014992503748 0.001699150424787606 9.995002498750625e-05 9.995002498750625e-05 9.995002498750625e-05 9.995002498750625e-05 9.995002498750625e-05 0.9987007795322806 0.0006995802518488907 9.994003597841297e-05 9.994003597841297e-05 9.994003597841297e-05 9.994003597841297e-05 9.994003597841297e-05 9.994003597841297e-05 0.2306077568972411 0.1749300279888045 0.3696521391443423 0.2215113954418233 0.002998800479808077 9.996001599360256e-05 9.996001599360256e-05 9.996001599360256e-05 0.2306077568972411 0.1749300279888045 0.3696521391443423 0.2215113954418233 0.002998800479808077 9.996001599360256e-05 9.996001599360256e-05 9.996001599360256e-05 0.4302709187243827 0.3810856742977107 0.1869439168249525 0.001299610116964911 9.997000899730081e-05 9.997000899730081e-05 9.997000899730081e-05 9.997000899730081e-05 0.1322867713228677 0.0271972802719728 0.0646935306469353 0.164983501649835 0.4853514648535147 0.1251874812518748 0.0001999800019998 9.999000099990002e-05 0.1322867713228677 0.0271972802719728 0.0646935306469353 0.164983501649835 0.4853514648535147 0.1251874812518748 0.0001999800019998 9.999000099990002e-05 0.1632510246925922 0.07017894631610516 0.1792462261321603 0.3733879836049185 0.2136359092272318 9.997000899730081e-05 9.997000899730081e-05 9.997000899730081e-05 0.117988201179882 0.0100989901009899 0.0218978102189781 0.0507949205079492 0.2020797920207979 0.3681631836816319 0.1871812818718128 0.0417958204179582 0.117988201179882 0.0100989901009899 0.0218978102189781 0.0507949205079492 0.2020797920207979 0.3681631836816319 0.1871812818718128 0.0417958204179582 0.129374125174965 0.02349530093981204 0.05498900219956009 0.1391721655668866 0.4603079384123175 0.1910617876424715 0.001499700059988002 9.998000399920017e-05 0.4311275489804078 0.3813474610155937 0.1858256697321072 0.001299480207916833 9.996001599360256e-05 9.996001599360256e-05 9.996001599360256e-05 9.996001599360256e-05 0.4311275489804078 0.3813474610155937 0.1858256697321072 0.001299480207916833 9.996001599360256e-05 9.996001599360256e-05 9.996001599360256e-05 9.996001599360256e-05 0.8466613354658137 0.1523390643742503 0.0004998000799680128 9.996001599360256e-05 9.996001599360256e-05 9.996001599360256e-05 9.996001599360256e-05 9.996001599360256e-05 0.163367326534693 0.07028594281143771 0.1797640471905619 0.3738252349530094 0.2124575084983003 9.998000399920017e-05 9.998000399920017e-05 9.998000399920017e-05 0.163367326534693 0.07028594281143771 0.1797640471905619 0.3738252349530094 0.2124575084983003 9.998000399920017e-05 9.998000399920017e-05 9.998000399920017e-05 0.2437268819354194 0.1950414875537339 0.3840847745676297 0.1758472458262521 0.0009997000899730081 9.997000899730081e-05 9.997000899730081e-05 9.997000899730081e-05 0.1202240448089618 0.01260252050410082 0.02790558111622325 0.06641328265653131 0.2653530706141228 0.391878375675135 0.1077215443088618 0.007901580316063214 0.1202240448089618 0.01260252050410082 0.02790558111622325 0.06641328265653131 0.2653530706141228 0.391878375675135 0.1077215443088618 0.007901580316063214 0.1344865513448655 0.02999700029997 0.0720927907209279 0.1841815818418158 0.490950904909509 0.0880911908809119 9.999000099990002e-05 9.999000099990002e-05 0.1132886711328867 0.004899510048995101 0.0102989701029897 0.0223977602239776 0.08179182081791821 0.177982201779822 0.198980101989801 0.3903609639036096 0.1132886711328867 0.004899510048995101 0.0102989701029897 0.0223977602239776 0.08179182081791821 0.177982201779822 0.198980101989801 0.3903609639036096 0.1188 0.011 0.02410000000000001 0.05640000000000001 0.2255000000000001 0.3831000000000001 0.1575 0.02360000000000001 0.2766893242702919 0.2429028388644542 0.3889444222311075 0.09106357457017193 9.996001599360256e-05 9.996001599360256e-05 9.996001599360256e-05 9.996001599360256e-05 0.2766893242702919 0.2429028388644542 0.3889444222311075 0.09106357457017193 9.996001599360256e-05 9.996001599360256e-05 9.996001599360256e-05 9.996001599360256e-05 0.5521239380309845 0.3803098450774613 0.06706646676661671 9.995002498750625e-05 9.995002498750625e-05 9.995002498750625e-05 9.995002498750625e-05 9.995002498750625e-05 0.139872025594881 0.03699260147970406 0.09078184363127376 0.2301539692061588 0.469006198760248 0.03299340131973606 9.998000399920017e-05 9.998000399920017e-05 0.139872025594881 0.03699260147970406 0.09078184363127376 0.2301539692061588 0.469006198760248 0.03299340131973606 9.998000399920017e-05 9.998000399920017e-05 0.1819454163750875 0.09867039888033589 0.2484254723582925 0.3870838748375487 0.08357492752174348 9.997000899730081e-05 9.997000899730081e-05 9.997000899730081e-05 0.1155 0.007300000000000002 0.0156 0.03510000000000001 0.1353 0.2846000000000001 0.241 0.1656 0.1155 0.007300000000000002 0.0156 0.03510000000000001 0.1353 0.2846000000000001 0.241 0.1656 0.1237876212378762 0.0166983301669833 0.0378962103789621 0.09299070092990701 0.357964203579642 0.3415658434156584 0.0287971202879712 0.0002999700029997 0.1113888611138886 0.0028997100289971 0.005999400059994 0.0126987301269873 0.0433956604339566 0.08989101089891011 0.1084891510848915 0.6252374762523747 0.1113888611138886 0.0028997100289971 0.005999400059994 0.0126987301269873 0.0433956604339566 0.08989101089891011 0.1084891510848915 0.6252374762523747 0.1147 0.0064 0.0136 0.0302 0.1143 0.2462 0.2366 0.238 0.2104368689393182 0.1433569929021294 0.3321003698890333 0.3000099970008997 0.01379586124162751 9.997000899730081e-05 9.997000899730081e-05 9.997000899730081e-05 0.2104368689393182 0.1433569929021294 0.3321003698890333 0.3000099970008997 0.01379586124162751 9.997000899730081e-05 9.997000899730081e-05 9.997000899730081e-05 0.3743502598960416 0.3492602958816473 0.2682926829268293 0.007696921231507397 9.996001599360256e-05 9.996001599360256e-05 9.996001599360256e-05 9.996001599360256e-05 0.1288871112888711 0.0228977102289771 0.05339466053394661 0.1350864913508649 0.4543545645435457 0.2032796720327967 0.001999800019998 9.999000099990002e-05 0.1288871112888711 0.0228977102289771 0.05339466053394661 0.1350864913508649 0.4543545645435457 0.2032796720327967 0.001999800019998 9.999000099990002e-05 0.1548690261947611 0.0578884223155369 0.1469706058788242 0.3373325334933013 0.3019396120775845 0.0007998400319936014 9.998000399920017e-05 9.998000399920017e-05 0.1131 0.0048 0.01 0.0218 0.0793 0.1724 0.1944 0.4042 0.1131 0.0048 0.01 0.0218 0.0793 0.1724 0.1944 0.4042 0.1186 0.0107 0.0234 0.0547 0.2184 0.3794 0.1666 0.0282 0.1104220844168834 0.001900380076015203 0.003900780156031206 0.008201640328065614 0.02690538107621524 0.05291058211642329 0.0626125225045009 0.7331466293258652 0.1104220844168834 0.001900380076015203 0.003900780156031206 0.008201640328065614 0.02690538107621524 0.05291058211642329 0.0626125225045009 0.7331466293258652 0.112622524504901 0.004200840168033606 0.008701740348069613 0.01880376075215043 0.06741348269653931 0.1455291058211642 0.1701340268053611 0.4725945189037807 0.1769646070785843 0.09088182363527295 0.2305538892221556 0.3915216956608679 0.1097780443911218 9.998000399920017e-05 9.998000399920017e-05 9.998000399920017e-05 0.1769646070785843 0.09088182363527295 0.2305538892221556 0.3915216956608679 0.1097780443911218 9.998000399920017e-05 9.998000399920017e-05 9.998000399920017e-05 0.2809157252824153 0.2488253523942817 0.3868839348195541 0.08297510746775967 9.997000899730081e-05 9.997000899730081e-05 9.997000899730081e-05 9.997000899730081e-05 0.1228 0.0156 0.03520000000000001 0.08570000000000001 0.3349 0.3623000000000001 0.0428 0.0007000000000000001 0.1228 0.0156 0.03520000000000001 0.08570000000000001 0.3349 0.3623000000000001 0.0428 0.0007000000000000001 0.1404719056188762 0.03789242151569686 0.09318136372725455 0.2358528294341132 0.4636072785442912 0.02879424115176965 9.998000399920017e-05 9.998000399920017e-05 0.1118 0.0034 0.007 0.0149 0.0518 0.1093 0.1315 0.5703 0.1118 0.0034 0.007 0.0149 0.0518 0.1093 0.1315 0.5703 0.1156115611561156 0.0075007500750075 0.0159015901590159 0.0359035903590359 0.139013901390139 0.2907290729072907 0.2404240424042404 0.1549154915491549 0.1099 0.0014 0.0028 0.0057 0.0184 0.0348 0.04 0.787 0.1099 0.0014 0.0028 0.0057 0.0184 0.0348 0.04 0.787 0.1114 0.003 0.0061 0.0129 0.0444 0.09229999999999999 0.1115 0.6183999999999999 0.1577684463107379 0.0621875624875025 0.1582683463307339 0.3522295540891822 0.2689462107578485 0.0003999200159968007 9.998000399920017e-05 9.998000399920017e-05 0.1577684463107379 0.0621875624875025 0.1582683463307339 0.3522295540891822 0.2689462107578485 0.0003999200159968007 9.998000399920017e-05 9.998000399920017e-05 0.2287313805858243 0.1720483854843547 0.3670898730380886 0.228331500549835 0.003498950314905529 9.997000899730081e-05 9.997000899730081e-05 9.997000899730081e-05 0.1191119111911191 0.0114011401140114 0.0249024902490249 0.0587058705870587 0.2348234823482348 0.387038703870387 0.1454145414541454 0.0186018601860186 0.1191119111911191 0.0114011401140114 0.0249024902490249 0.0587058705870587 0.2348234823482348 0.387038703870387 0.1454145414541454 0.0186018601860186 0.132 0.0268 0.0636 0.1623 0.4837 0.1312 0.0003 0.0001 0.111 0.0025 0.0052 0.0108 0.0366 0.0743 0.0895 0.6701 0.111 0.0025 0.0052 0.0108 0.0366 0.0743 0.0895 0.6701 0.1138 0.0055 0.0116 0.0255 0.0946 0.206 0.2186 0.3244 0.1095 0.001 0.0021 0.0043 0.0135 0.0247 0.0276 0.8173 0.1095 0.001 0.0021 0.0043 0.0135 0.0247 0.0276 0.8173 0.1107110711071107 0.0022002200220022 0.0045004500450045 0.0095009500950095 0.0315031503150315 0.063006300630063 0.07530753075307531 0.7032703270327033 0.1457708458308339 0.04509098180363928 0.1124775044991002 0.2778444311137772 0.4096180763847231 0.008998200359928014 9.998000399920017e-05 9.998000399920017e-05 0.1457708458308339 0.04509098180363928 0.1124775044991002 0.2778444311137772 0.4096180763847231 0.008998200359928014 9.998000399920017e-05 9.998000399920017e-05 0.1971408577426772 0.1223632910126962 0.297110866739978 0.3493951814455663 0.03368989303209037 9.997000899730081e-05 9.997000899730081e-05 9.997000899730081e-05 0.1166883311668833 0.008699130086991301 0.0186981301869813 0.0426957304269573 0.1677832216778322 0.3327667233276672 0.2240775922407759 0.08859114088591141 0.1166883311668833 0.008699130086991301 0.0186981301869813 0.0426957304269573 0.1677832216778322 0.3327667233276672 0.2240775922407759 0.08859114088591141 0.1265126512651265 0.02000200020002 0.0461046104610461 0.1153115311531153 0.4171417141714172 0.2673267326732673 0.0075007500750075 0.0001000100010001 0.1104 0.002 0.004 0.0083 0.0272 0.0536 0.0634 0.7311 0.1104 0.002 0.004 0.0083 0.0272 0.0536 0.0634 0.7311 0.1126 0.0042 0.008800000000000001 0.019 0.0683 0.1474 0.172 0.4677 0.1092890710928907 0.0007999200079992001 0.0015998400159984 0.0032996700329967 0.0102989701029897 0.0184981501849815 0.0202979702029797 0.835916408359164 0.1092890710928907 0.0007999200079992001 0.0015998400159984 0.0032996700329967 0.0102989701029897 0.0184981501849815 0.0202979702029797 0.835916408359164 0.1102110211021102 0.0017001700170017 0.003500350035003501 0.007200720072007201 0.02360236023602361 0.04570457045704571 0.05350535053505351 0.7545754575457546 0.1376724655068986 0.03419316136772646 0.08318336332733453 0.2121575684863027 0.4828034393121376 0.04979004199160168 9.998000399920017e-05 9.998000399920017e-05 0.1376724655068986 0.03419316136772646 0.08318336332733453 0.2121575684863027 0.4828034393121376 0.04979004199160168 9.998000399920017e-05 9.998000399920017e-05 0.1766470058982305 0.09037288813355993 0.2294311706488054 0.3915825252424273 0.111666500049985 9.997000899730081e-05 9.997000899730081e-05 9.997000899730081e-05 0.1151115111511151 0.0068006800680068 0.0145014501450145 0.0324032403240324 0.124012401240124 0.2646264626462646 0.2404240424042404 0.2021202120212021 0.1151115111511151 0.0068006800680068 0.0145014501450145 0.0324032403240324 0.124012401240124 0.2646264626462646 0.2404240424042404 0.2021202120212021 0.1227877212278772 0.0155984401559844 0.03499650034996501 0.08529147085291471 0.3333666633336666 0.3633636636336366 0.0437956204379562 0.0007999200079992001 0.11001100110011 0.0016001600160016 0.0032003200320032 0.006500650065006499 0.0211021102110211 0.0404040404040404 0.0469046904690469 0.7702770277027702 0.11001100110011 0.0016001600160016 0.0032003200320032 0.006500650065006499 0.0211021102110211 0.0404040404040404 0.0469046904690469 0.7702770277027702 0.1118111811181118 0.0034003400340034 0.007000700070007001 0.0148014801480148 0.0515051505150515 0.1087108710871087 0.1308130813081308 0.5719571957195718 0.1091109110911091 0.0006000600060006 0.0013001300130013 0.0026002600260026 0.008100810081008099 0.0144014401440144 0.0155015501550155 0.8483848384838484 0.1091109110911091 0.0006000600060006 0.0013001300130013 0.0026002600260026 0.008100810081008099 0.0144014401440144 0.0155015501550155 0.8483848384838484 0.109878024395121 0.001399720055988802 0.002799440111977605 0.00569886022795441 0.01839632073585283 0.03469306138772246 0.03979204159168167 0.7873425314937013 0.1211121112111211 0.0136013601360136 0.0302030203020302 0.0726072607260726 0.2887288728872887 0.3878387838783878 0.08210821082108211 0.0038003800380038 0.1211121112111211 0.0136013601360136 0.0302030203020302 0.0726072607260726 0.2887288728872887 0.3878387838783878 0.08210821082108211 0.0038003800380038 0.1364727054589082 0.03259348130373925 0.07878424315136973 0.2011597680463907 0.4880023995200959 0.06278744251149769 9.998000399920017e-05 9.998000399920017e-05 0.1114111411141114 0.003000300030003 0.006100610061006101 0.0129012901290129 0.0444044404440444 0.09230923092309229 0.1115111511151115 0.6183618361836183 0.1114111411141114 0.003000300030003 0.006100610061006101 0.0129012901290129 0.0444044404440444 0.09230923092309229 0.1115111511151115 0.6183618361836183 0.1148 0.0065 0.0139 0.0309 0.1174 0.2522 0.2382 0.2261 0.1092109210921092 0.0007000700070007001 0.0014001400140014 0.0028002800280028 0.008900890089008901 0.0158015801580158 0.0171017101710171 0.844084408440844 0.1092109210921092 0.0007000700070007001 0.0014001400140014 0.0028002800280028 0.008900890089008901 0.0158015801580158 0.0171017101710171 0.844084408440844 0.10998900109989 0.0014998500149985 0.002999700029997 0.006199380061993801 0.0201979802019798 0.0384961503849615 0.0444955504449555 0.7761223877612239 0.1087891210878912 0.0002999700029997 0.0005999400059994 0.0011998800119988 0.0034996500349965 0.006099390060993901 0.006299370062993701 0.8732126787321267 0.1087891210878912 0.0002999700029997 0.0005999400059994 0.0011998800119988 0.0034996500349965 0.006099390060993901 0.006299370062993701 0.8732126787321267 0.1091 0.0005999999999999999 0.0012 0.0025 0.0078 0.0138 0.0148 0.8502 0.9993004896572401 9.993004896572401e-05 9.993004896572401e-05 9.993004896572401e-05 9.993004896572401e-05 9.993004896572401e-05 9.993004896572401e-05 9.993004896572401e-05 0.9993004896572401 9.993004896572401e-05 9.993004896572401e-05 9.993004896572401e-05 9.993004896572401e-05 9.993004896572401e-05 9.993004896572401e-05 9.993004896572401e-05 0.9993004896572401 9.993004896572401e-05 9.993004896572401e-05 9.993004896572401e-05 9.993004896572401e-05 9.993004896572401e-05 9.993004896572401e-05 9.993004896572401e-05 0.9993004896572401 9.993004896572401e-05 9.993004896572401e-05 9.993004896572401e-05 9.993004896572401e-05 9.993004896572401e-05 9.993004896572401e-05 9.993004896572401e-05 0.9993004896572401 9.993004896572401e-05 9.993004896572401e-05 9.993004896572401e-05 9.993004896572401e-05 9.993004896572401e-05 9.993004896572401e-05 9.993004896572401e-05 0.9993004896572401 9.993004896572401e-05 9.993004896572401e-05 9.993004896572401e-05 9.993004896572401e-05 9.993004896572401e-05 9.993004896572401e-05 9.993004896572401e-05 0.9772136717969219 0.02218668798720768 9.994003597841297e-05 9.994003597841297e-05 9.994003597841297e-05 9.994003597841297e-05 9.994003597841297e-05 9.994003597841297e-05 0.9772136717969219 0.02218668798720768 9.994003597841297e-05 9.994003597841297e-05 9.994003597841297e-05 9.994003597841297e-05 9.994003597841297e-05 9.994003597841297e-05 0.9993004896572401 9.993004896572401e-05 9.993004896572401e-05 9.993004896572401e-05 9.993004896572401e-05 9.993004896572401e-05 9.993004896572401e-05 9.993004896572401e-05 0.5440279860069965 0.3830084957521239 0.07246376811594202 9.995002498750625e-05 9.995002498750625e-05 9.995002498750625e-05 9.995002498750625e-05 9.995002498750625e-05 0.5440279860069965 0.3830084957521239 0.07246376811594202 9.995002498750625e-05 9.995002498750625e-05 9.995002498750625e-05 9.995002498750625e-05 9.995002498750625e-05 0.94773136118329 0.0516689986008395 9.994003597841297e-05 9.994003597841297e-05 9.994003597841297e-05 9.994003597841297e-05 9.994003597841297e-05 9.994003597841297e-05 0.9993004896572401 9.993004896572401e-05 9.993004896572401e-05 9.993004896572401e-05 9.993004896572401e-05 9.993004896572401e-05 9.993004896572401e-05 9.993004896572401e-05 0.9993004896572401 9.993004896572401e-05 9.993004896572401e-05 9.993004896572401e-05 9.993004896572401e-05 9.993004896572401e-05 9.993004896572401e-05 9.993004896572401e-05 0.9993004896572401 9.993004896572401e-05 9.993004896572401e-05 9.993004896572401e-05 9.993004896572401e-05 9.993004896572401e-05 9.993004896572401e-05 9.993004896572401e-05 0.6068358984609235 0.3549870077953228 0.03767739356386168 9.994003597841297e-05 9.994003597841297e-05 9.994003597841297e-05 9.994003597841297e-05 9.994003597841297e-05 0.6068358984609235 0.3549870077953228 0.03767739356386168 9.994003597841297e-05 9.994003597841297e-05 9.994003597841297e-05 9.994003597841297e-05 9.994003597841297e-05 0.9750149910053968 0.02438536877873276 9.994003597841297e-05 9.994003597841297e-05 9.994003597841297e-05 9.994003597841297e-05 9.994003597841297e-05 9.994003597841297e-05 0.1909618076384723 0.1126774645070986 0.2783443311337732 0.3682263547290542 0.04949010197960408 9.998000399920017e-05 9.998000399920017e-05 9.998000399920017e-05 0.1909618076384723 0.1126774645070986 0.2783443311337732 0.3682263547290542 0.04949010197960408 9.998000399920017e-05 9.998000399920017e-05 9.998000399920017e-05 0.3199720111955218 0.2975809676129548 0.3487604958016793 0.03328668532586965 9.996001599360256e-05 9.996001599360256e-05 9.996001599360256e-05 9.996001599360256e-05 0.1389722055588882 0.03579284143171366 0.08748250349930013 0.2224555088982204 0.4756048790241952 0.03949210157968407 9.998000399920017e-05 9.998000399920017e-05 0.1389722055588882 0.03579284143171366 0.08748250349930013 0.2224555088982204 0.4756048790241952 0.03949210157968407 9.998000399920017e-05 9.998000399920017e-05 0.1796461061681495 0.09507147855643307 0.2403279016295111 0.3896830950714785 0.09497150854743577 9.997000899730081e-05 9.997000899730081e-05 9.997000899730081e-05 0.8484757621189405 0.1505247376311844 0.0004997501249375312 9.995002498750625e-05 9.995002498750625e-05 9.995002498750625e-05 9.995002498750625e-05 9.995002498750625e-05 0.8484757621189405 0.1505247376311844 0.0004997501249375312 9.995002498750625e-05 9.995002498750625e-05 9.995002498750625e-05 9.995002498750625e-05 9.995002498750625e-05 0.9992004797121727 0.0001998800719568259 9.994003597841297e-05 9.994003597841297e-05 9.994003597841297e-05 9.994003597841297e-05 9.994003597841297e-05 9.994003597841297e-05 0.2443267019894032 0.1959412176347096 0.3844846546036189 0.1739478156553034 0.0009997000899730081 9.997000899730081e-05 9.997000899730081e-05 9.997000899730081e-05 0.2443267019894032 0.1959412176347096 0.3844846546036189 0.1739478156553034 0.0009997000899730081 9.997000899730081e-05 9.997000899730081e-05 9.997000899730081e-05 0.4676661669165417 0.3904047976011994 0.1411294352823588 0.000399800099950025 9.995002498750625e-05 9.995002498750625e-05 9.995002498750625e-05 9.995002498750625e-05 0.1345730853829234 0.03019396120775845 0.07238552289542093 0.1849630073985203 0.491001799640072 0.08668266346730653 9.998000399920017e-05 9.998000399920017e-05 0.1345730853829234 0.03019396120775845 0.07238552289542093 0.1849630073985203 0.491001799640072 0.08668266346730653 9.998000399920017e-05 9.998000399920017e-05 0.1688493451964411 0.07857642707187844 0.20073977806658 0.3866839948015595 0.164850544836549 9.997000899730081e-05 9.997000899730081e-05 9.997000899730081e-05 0.1189 0.011 0.0242 0.0567 0.2265 0.3836 0.1561 0.023 0.1189 0.011 0.0242 0.0567 0.2265 0.3836 0.1561 0.023 0.1313868613138686 0.025997400259974 0.06139386061393861 0.1563843615638436 0.4793520647935207 0.144985501449855 0.0003999600039996001 9.999000099990002e-05 0.4686125549780088 0.3905437824870052 0.1401439424230308 0.0002998800479808076 9.996001599360256e-05 9.996001599360256e-05 9.996001599360256e-05 9.996001599360256e-05 0.4686125549780088 0.3905437824870052 0.1401439424230308 0.0002998800479808076 9.996001599360256e-05 9.996001599360256e-05 9.996001599360256e-05 9.996001599360256e-05 0.8893553223388306 0.1100449775112444 9.995002498750625e-05 9.995002498750625e-05 9.995002498750625e-05 9.995002498750625e-05 9.995002498750625e-05 9.995002498750625e-05 0.1690323870451819 0.07876849260295882 0.201219512195122 0.3869452219112355 0.163734506197521 9.996001599360256e-05 9.996001599360256e-05 9.996001599360256e-05 0.1690323870451819 0.07876849260295882 0.201219512195122 0.3869452219112355 0.163734506197521 9.996001599360256e-05 9.996001599360256e-05 9.996001599360256e-05 0.2591222633210037 0.2179346196141158 0.3913825852244327 0.1309607117864641 0.0002999100269919024 9.997000899730081e-05 9.997000899730081e-05 9.997000899730081e-05 0.1212878712128787 0.0138986101389861 0.0308969103089691 0.0743925607439256 0.2952704729527048 0.3855614438556144 0.0755924407559244 0.0030996900309969 0.1212878712128787 0.0138986101389861 0.0308969103089691 0.0743925607439256 0.2952704729527048 0.3855614438556144 0.0755924407559244 0.0030996900309969 0.1369726054789042 0.03329334133173366 0.08078384323135372 0.2060587882423515 0.486002799440112 0.05668866226754649 9.998000399920017e-05 9.998000399920017e-05 0.1137 0.0054 0.0113 0.0247 0.0915 0.1993 0.2144 0.3397 0.1137 0.0054 0.0113 0.0247 0.0915 0.1993 0.2144 0.3397 0.1197880211978802 0.0120987901209879 0.0265973402659734 0.06309369063093691 0.2521747825217478 0.3911608839116088 0.1234876512348765 0.0115988401159884 0.2961815273890444 0.2688924430227909 0.3755497800879648 0.05897640943622551 9.996001599360256e-05 9.996001599360256e-05 9.996001599360256e-05 9.996001599360256e-05 0.2961815273890444 0.2688924430227909 0.3755497800879648 0.05897640943622551 9.996001599360256e-05 9.996001599360256e-05 9.996001599360256e-05 9.996001599360256e-05 0.5998000999500249 0.3589205397301349 0.04077961019490255 9.995002498750625e-05 9.995002498750625e-05 9.995002498750625e-05 9.995002498750625e-05 9.995002498750625e-05 0.142871425714857 0.04119176164767047 0.101879624075185 0.2555488902219556 0.4410117976404719 0.01729654069186163 9.998000399920017e-05 9.998000399920017e-05 0.142871425714857 0.04119176164767047 0.101879624075185 0.2555488902219556 0.4410117976404719 0.01729654069186163 9.998000399920017e-05 9.998000399920017e-05 0.1898430470858742 0.1108667399780066 0.274517644706588 0.3712886134159752 0.05318404478656403 9.997000899730081e-05 9.997000899730081e-05 9.997000899730081e-05 0.1161116111611161 0.008000800080008001 0.0172017201720172 0.039003900390039 0.152015201520152 0.3111311131113111 0.2353235323532353 0.1212121212121212 0.1161116111611161 0.008000800080008001 0.0172017201720172 0.039003900390039 0.152015201520152 0.3111311131113111 0.2353235323532353 0.1212121212121212 0.1252 0.0184 0.04209999999999999 0.1045 0.3905999999999999 0.3043 0.0148 9.999999999999998e-05 0.1116 0.0032 0.0066 0.0139 0.0482 0.1009 0.1217 0.5939 0.1116 0.0032 0.0066 0.0139 0.0482 0.1009 0.1217 0.5939 0.1152115211521152 0.007000700070007001 0.0149014901490149 0.03340334033403341 0.1283128312831283 0.2723272327232724 0.2411241124112412 0.1877187718771877 0.2216335099470159 0.1610516844946516 0.3554933519944017 0.2555233429971008 0.005998200539838049 9.997000899730081e-05 9.997000899730081e-05 9.997000899730081e-05 0.2216335099470159 0.1610516844946516 0.3554933519944017 0.2555233429971008 0.005998200539838049 9.997000899730081e-05 9.997000899730081e-05 9.997000899730081e-05 0.4056377449020392 0.3697520991603359 0.2212115153938425 0.002998800479808077 9.996001599360256e-05 9.996001599360256e-05 9.996001599360256e-05 9.996001599360256e-05 0.1307869213078692 0.0252974702529747 0.0596940305969403 0.1517848215178482 0.4752524747525247 0.1564843515648435 0.0005999400059994 9.999000099990002e-05 0.1307869213078692 0.0252974702529747 0.0596940305969403 0.1517848215178482 0.4752524747525247 0.1564843515648435 0.0005999400059994 9.999000099990002e-05 0.1595521343596921 0.06468059582125361 0.1650504848545436 0.3599920023992802 0.2503249025292412 0.0001999400179946016 9.997000899730081e-05 9.997000899730081e-05 0.1135886411358864 0.0051994800519948 0.010998900109989 0.023997600239976 0.08869113088691132 0.1931806819318068 0.2102789721027897 0.354064593540646 0.1135886411358864 0.0051994800519948 0.010998900109989 0.023997600239976 0.08869113088691132 0.1931806819318068 0.2102789721027897 0.354064593540646 0.1195 0.0118 0.0259 0.0611 0.2445 0.3898 0.1331 0.0143 0.1106 0.0021 0.0043 0.008999999999999999 0.0298 0.0591 0.0704 0.7147 0.1106 0.0021 0.0043 0.008999999999999999 0.0298 0.0591 0.0704 0.7147 0.113 0.0046 0.009599999999999999 0.0208 0.07530000000000001 0.1634 0.1868 0.4265 0.1841631673665267 0.1020795840831834 0.2559488102379524 0.383623275344931 0.07388522295540892 9.998000399920017e-05 9.998000399920017e-05 9.998000399920017e-05 0.1841631673665267 0.1020795840831834 0.2559488102379524 0.383623275344931 0.07388522295540892 9.998000399920017e-05 9.998000399920017e-05 9.998000399920017e-05 0.3009495252373813 0.2749625187406297 0.3709145427286357 0.0527736131934033 9.995002498750625e-05 9.995002498750625e-05 9.995002498750625e-05 9.995002498750625e-05 0.1242 0.0172 0.0391 0.09619999999999999 0.3676 0.3315 0.024 0.0002 0.1242 0.0172 0.0391 0.09619999999999999 0.3676 0.3315 0.024 0.0002 0.1436569029291213 0.04218734379686094 0.104668599420174 0.2615215435369389 0.4330700789763071 0.01469559132260322 9.997000899730081e-05 9.997000899730081e-05 0.1121 0.0037 0.0077 0.0164 0.0576 0.1229 0.1467 0.5329 0.1121 0.0037 0.0077 0.0164 0.0576 0.1229 0.1467 0.5329 0.1162883711628837 0.008199180081991801 0.0175982401759824 0.03999600039996001 0.1560843915608439 0.3170682931706829 0.2328767123287671 0.1118888111188881 0.10998900109989 0.0014998500149985 0.0030996900309969 0.006299370062993701 0.0202979702029797 0.0386961303869613 0.04479552044795521 0.7753224677532247 0.10998900109989 0.0014998500149985 0.0030996900309969 0.006299370062993701 0.0202979702029797 0.0386961303869613 0.04479552044795521 0.7753224677532247 0.1117 0.0033 0.0067 0.0142 0.0493 0.1036 0.1249 0.5863 0.162867426514697 0.06948610277944411 0.1776644671065787 0.372125574885023 0.2175564887022595 9.998000399920017e-05 9.998000399920017e-05 9.998000399920017e-05 0.162867426514697 0.06948610277944411 0.1776644671065787 0.372125574885023 0.2175564887022595 9.998000399920017e-05 9.998000399920017e-05 9.998000399920017e-05 0.242251549690062 0.1928614277144571 0.3828234353129374 0.1806638672265547 0.001099780043991202 9.998000399920017e-05 9.998000399920017e-05 9.998000399920017e-05 0.1201 0.0125 0.0276 0.06569999999999999 0.2624 0.3919 0.1112 0.0086 0.1201 0.0125 0.0276 0.06569999999999999 0.2624 0.3919 0.1112 0.0086 0.1342865713428657 0.0296970302969703 0.07119288071192881 0.181981801819818 0.4908509149085091 0.09179082091790822 9.999000099990002e-05 9.999000099990002e-05 0.1111888811118888 0.0027997200279972 0.005699430056994301 0.0118988101189881 0.04049595040495951 0.08329167083291671 0.1005899410058994 0.6440355964403559 0.1111888811118888 0.0027997200279972 0.005699430056994301 0.0118988101189881 0.04049595040495951 0.08329167083291671 0.1005899410058994 0.6440355964403559 0.1143114311431143 0.006000600060006 0.0127012701270127 0.0282028202820282 0.106010601060106 0.2298229822982298 0.2308230823082308 0.2721272127212721 0.1095890410958904 0.0010998900109989 0.0022997700229977 0.0046995300469953 0.0147985201479852 0.0273972602739726 0.0307969203079692 0.8093190680931907 0.1095890410958904 0.0010998900109989 0.0022997700229977 0.0046995300469953 0.0147985201479852 0.0273972602739726 0.0307969203079692 0.8093190680931907 0.1108889111088891 0.0023997600239976 0.004999500049995001 0.0103989601039896 0.03489651034896511 0.0704929507049295 0.08479152084791521 0.6811318868113189 0.1494701059788042 0.05018996200759848 0.1264747050589882 0.3044391121775645 0.365626874625075 0.003599280143971206 9.998000399920017e-05 9.998000399920017e-05 0.1494701059788042 0.05018996200759848 0.1264747050589882 0.3044391121775645 0.365626874625075 0.003599280143971206 9.998000399920017e-05 9.998000399920017e-05 0.2067379786064181 0.1375587323802859 0.3233030090972708 0.3143057082875138 0.01779466160151954 9.997000899730081e-05 9.997000899730081e-05 9.997000899730081e-05 0.1175 0.0095 0.0206 0.0475 0.1884 0.3561 0.2034 0.057 0.1175 0.0095 0.0206 0.0475 0.1884 0.3561 0.2034 0.057 0.1282 0.0221 0.05139999999999999 0.1296 0.4454999999999999 0.2202 0.002899999999999999 9.999999999999998e-05 0.1106 0.0021 0.0044 0.0091 0.0301 0.0598 0.0713 0.7126 0.1106 0.0021 0.0044 0.0091 0.0301 0.0598 0.0713 0.7126 0.113011301130113 0.0046004600460046 0.0097009700970097 0.021002100210021 0.07620762076207621 0.1655165516551655 0.1887188718871887 0.4212421242124212 0.109378124375125 0.0008998200359928015 0.001799640071985603 0.003599280143971206 0.01129774045190962 0.02039592081583683 0.02249550089982004 0.830133973205359 0.109378124375125 0.0008998200359928015 0.001799640071985603 0.003599280143971206 0.01129774045190962 0.02039592081583683 0.02249550089982004 0.830133973205359 0.1104110411041104 0.0019001900190019 0.0038003800380038 0.0079007900790079 0.026002600260026 0.0509050905090509 0.0601060106010601 0.738973897389739 0.1405718856228754 0.03799240151969606 0.09338132373525294 0.2363527294541092 0.4631073785242952 0.02839432113577285 9.998000399920017e-05 9.998000399920017e-05 0.1405718856228754 0.03799240151969606 0.09338132373525294 0.2363527294541092 0.4631073785242952 0.02839432113577285 9.998000399920017e-05 9.998000399920017e-05 0.1838448465460362 0.1015695291412576 0.2547235829251225 0.384184744576627 0.0753773867839648 9.997000899730081e-05 9.997000899730081e-05 9.997000899730081e-05 0.1156884311568843 0.007499250074992501 0.015998400159984 0.035996400359964 0.1392860713928607 0.2911708829117088 0.2402759724027597 0.1540845915408459 0.1156884311568843 0.007499250074992501 0.015998400159984 0.035996400359964 0.1392860713928607 0.2911708829117088 0.2402759724027597 0.1540845915408459 0.1241 0.0171 0.0389 0.09570000000000002 0.3661 0.3332000000000001 0.02470000000000001 0.0002000000000000001 0.1101889811018898 0.0016998300169983 0.0034996500349965 0.007099290070992901 0.0232976702329767 0.044995500449955 0.0526947305269473 0.7565243475652436 0.1101889811018898 0.0016998300169983 0.0034996500349965 0.007099290070992901 0.0232976702329767 0.044995500449955 0.0526947305269473 0.7565243475652436 0.1121 0.0037 0.0076 0.0163 0.0574 0.1222 0.146 0.5347 0.1091890810918908 0.0006999300069993001 0.0013998600139986 0.0028997100289971 0.008899110088991101 0.0157984201579842 0.0171982801719828 0.843915608439156 0.1091890810918908 0.0006999300069993001 0.0013998600139986 0.0028997100289971 0.008899110088991101 0.0157984201579842 0.0171982801719828 0.843915608439156 0.11 0.0015 0.003 0.0063 0.0202 0.0385 0.0445 0.776 0.1222877712228777 0.014998500149985 0.0334966503349665 0.08129187081291871 0.3200679932006799 0.3728627137286271 0.0536946305369463 0.0012998700129987 0.1222877712228777 0.014998500149985 0.0334966503349665 0.08129187081291871 0.3200679932006799 0.3728627137286271 0.0536946305369463 0.0012998700129987 0.1391721655668866 0.03619276144771046 0.08838232353529295 0.2245550889822036 0.4739052189562087 0.03759248150369926 9.998000399920017e-05 9.998000399920017e-05 0.1116888311168883 0.0032996700329967 0.006699330066993301 0.0141985801419858 0.0492950704929507 0.1036896310368963 0.124987501249875 0.586141385861414 0.1116888311168883 0.0032996700329967 0.006699330066993301 0.0141985801419858 0.0492950704929507 0.1036896310368963 0.124987501249875 0.586141385861414 0.1153884611538846 0.0071992800719928 0.0152984701529847 0.0342965703429657 0.1317868213178682 0.2784721527847215 0.2411758824117588 0.1763823617638236 0.1093 0.0008000000000000003 0.0015 0.003100000000000001 0.009700000000000002 0.0174 0.019 0.8392000000000002 0.1093 0.0008000000000000003 0.0015 0.003100000000000001 0.009700000000000002 0.0174 0.019 0.8392000000000002 0.1101 0.0016 0.0033 0.0068 0.0222 0.0428 0.0499 0.7633 0.1088 0.0003 0.0005999999999999999 0.0013 0.0039 0.0067 0.0069 0.8715000000000001 0.1088 0.0003 0.0005999999999999999 0.0013 0.0039 0.0067 0.0069 0.8715000000000001 0.1091890810918908 0.0006999300069993001 0.0013998600139986 0.0026997300269973 0.008499150084991502 0.0150984901509849 0.0163983601639836 0.8460153984601539 0.9993004896572401 9.993004896572401e-05 9.993004896572401e-05 9.993004896572401e-05 9.993004896572401e-05 9.993004896572401e-05 9.993004896572401e-05 9.993004896572401e-05 0.9993004896572401 9.993004896572401e-05 9.993004896572401e-05 9.993004896572401e-05 9.993004896572401e-05 9.993004896572401e-05 9.993004896572401e-05 9.993004896572401e-05 0.9993004896572401 9.993004896572401e-05 9.993004896572401e-05 9.993004896572401e-05 9.993004896572401e-05 9.993004896572401e-05 9.993004896572401e-05 9.993004896572401e-05 0.9993004896572401 9.993004896572401e-05 9.993004896572401e-05 9.993004896572401e-05 9.993004896572401e-05 9.993004896572401e-05 9.993004896572401e-05 9.993004896572401e-05 0.9993004896572401 9.993004896572401e-05 9.993004896572401e-05 9.993004896572401e-05 9.993004896572401e-05 9.993004896572401e-05 9.993004896572401e-05 9.993004896572401e-05 0.9993004896572401 9.993004896572401e-05 9.993004896572401e-05 9.993004896572401e-05 9.993004896572401e-05 9.993004896572401e-05 9.993004896572401e-05 9.993004896572401e-05 0.9297421547071757 0.06965820507695383 9.994003597841297e-05 9.994003597841297e-05 9.994003597841297e-05 9.994003597841297e-05 9.994003597841297e-05 9.994003597841297e-05 0.9297421547071757 0.06965820507695383 9.994003597841297e-05 9.994003597841297e-05 9.994003597841297e-05 9.994003597841297e-05 9.994003597841297e-05 9.994003597841297e-05 0.9993004896572401 9.993004896572401e-05 9.993004896572401e-05 9.993004896572401e-05 9.993004896572401e-05 9.993004896572401e-05 9.993004896572401e-05 9.993004896572401e-05 0.4563174730107957 0.3885445821671331 0.1542383046781287 0.0004998000799680128 9.996001599360256e-05 9.996001599360256e-05 9.996001599360256e-05 9.996001599360256e-05 0.4563174730107957 0.3885445821671331 0.1542383046781287 0.0004998000799680128 9.996001599360256e-05 9.996001599360256e-05 9.996001599360256e-05 9.996001599360256e-05 0.8764617691154423 0.1228385807096452 0.0001999000499750125 9.995002498750625e-05 9.995002498750625e-05 9.995002498750625e-05 9.995002498750625e-05 9.995002498750625e-05 0.9993004896572401 9.993004896572401e-05 9.993004896572401e-05 9.993004896572401e-05 9.993004896572401e-05 9.993004896572401e-05 9.993004896572401e-05 9.993004896572401e-05 0.9993004896572401 9.993004896572401e-05 9.993004896572401e-05 9.993004896572401e-05 9.993004896572401e-05 9.993004896572401e-05 9.993004896572401e-05 9.993004896572401e-05 0.9993004896572401 9.993004896572401e-05 9.993004896572401e-05 9.993004896572401e-05 9.993004896572401e-05 9.993004896572401e-05 9.993004896572401e-05 9.993004896572401e-05 0.5097451274362819 0.3904047976011994 0.09935032483758122 9.995002498750625e-05 9.995002498750625e-05 9.995002498750625e-05 9.995002498750625e-05 9.995002498750625e-05 0.5097451274362819 0.3904047976011994 0.09935032483758122 9.995002498750625e-05 9.995002498750625e-05 9.995002498750625e-05 9.995002498750625e-05 9.995002498750625e-05 0.9252448530881471 0.07415550669598242 9.994003597841297e-05 9.994003597841297e-05 9.994003597841297e-05 9.994003597841297e-05 9.994003597841297e-05 9.994003597841297e-05 0.1753473957812656 0.08837348795361392 0.2246326102169349 0.3917824652604219 0.1195641307607718 9.997000899730081e-05 9.997000899730081e-05 9.997000899730081e-05 0.1753473957812656 0.08837348795361392 0.2246326102169349 0.3917824652604219 0.1195641307607718 9.997000899730081e-05 9.997000899730081e-05 9.997000899730081e-05 0.2763894442223111 0.2426029588164734 0.3890443822471011 0.09156337465013994 9.996001599360256e-05 9.996001599360256e-05 9.996001599360256e-05 9.996001599360256e-05 0.1335866413358664 0.0287971202879712 0.06889311068893111 0.175982401759824 0.4898510148985101 0.1026897310268973 9.999000099990002e-05 9.999000099990002e-05 0.1335866413358664 0.0287971202879712 0.06889311068893111 0.175982401759824 0.4898510148985101 0.1026897310268973 9.999000099990002e-05 9.999000099990002e-05 0.1663500949715085 0.07477756672998101 0.1910426871938418 0.3817854643606918 0.1857442767169849 9.997000899730081e-05 9.997000899730081e-05 9.997000899730081e-05 0.7451019592163134 0.2491003598560576 0.005297880847660936 9.996001599360256e-05 9.996001599360256e-05 9.996001599360256e-05 9.996001599360256e-05 9.996001599360256e-05 0.7451019592163134 0.2491003598560576 0.005297880847660936 9.996001599360256e-05 9.996001599360256e-05 9.996001599360256e-05 9.996001599360256e-05 9.996001599360256e-05 0.9968019188486907 0.002598440935438737 9.994003597841297e-05 9.994003597841297e-05 9.994003597841297e-05 9.994003597841297e-05 9.994003597841297e-05 9.994003597841297e-05 0.217313074770092 0.1541383446621351 0.3470611755297881 0.2727908836465414 0.008396641343462614 9.996001599360256e-05 9.996001599360256e-05 9.996001599360256e-05 0.217313074770092 0.1541383446621351 0.3470611755297881 0.2727908836465414 0.008396641343462614 9.996001599360256e-05 9.996001599360256e-05 9.996001599360256e-05 0.3935425829668133 0.3626549380247901 0.2391043582566973 0.00429828068772491 9.996001599360256e-05 9.996001599360256e-05 9.996001599360256e-05 9.996001599360256e-05 0.1300739852029594 0.02439512097580485 0.05728854229154171 0.1452709458108379 0.4682063587282544 0.1737652469506099 0.0008998200359928016 9.998000399920018e-05 0.1300739852029594 0.02439512097580485 