<?xml version="1.0" encoding="ISO-8859-1"?>
<smile version="1.0" id="link" numsamples="1000" discsamples="10000">
	<nodes>
		<cpt id="N5_d_f">
			<state id="x1" label="F3" />
			<state id="x2" label="F4" />
			<probabilities>0.005000000000000001 0.995</probabilities>
		</cpt>
		<cpt id="N5_d_m">
			<state id="x1" label="F5" />
			<state id="x2" label="F6" />
			<probabilities>0.005000000000000001 0.995</probabilities>
		</cpt>
		<cpt id="Z_72_a_f">
			<state id="f" label="F7" />
			<state id="m" label="F8" />
			<probabilities>0.5 0.5</probabilities>
		</cpt>
		<cpt id="Z_72_d_f">
			<state id="f" label="F9" />
			<state id="m" label="F10" />
			<parents>Z_72_a_f</parents>
			<probabilities>0.67 0.33 0.33 0.67</probabilities>
		</cpt>
		<cpt id="N72_d_f">
			<state id="x1" label="F11" />
			<state id="x2" label="F12" />
			<parents>N5_d_f N5_d_m Z_72_d_f</parents>
			<probabilities>1 0 1 0 1 0 0 1 0 1 1 0 0 1 0 1</probabilities>
		</cpt>
		<cpt id="N60_d_f">
			<state id="x1" label="F13" />
			<state id="x2" label="F14" />
			<probabilities>0.005000000000000001 0.995</probabilities>
		</cpt>
		<cpt id="N60_d_m">
			<state id="x1" label="F15" />
			<state id="x2" label="F16" />
			<probabilities>0.005000000000000001 0.995</probabilities>
		</cpt>
		<cpt id="Z_1_a_f">
			<state id="f" label="F17" />
			<state id="m" label="F18" />
			<probabilities>0.5 0.5</probabilities>
		</cpt>
		<cpt id="Z_1_d_f">
			<state id="f" label="F19" />
			<state id="m" label="F20" />
			<parents>Z_1_a_f</parents>
			<probabilities>0.67 0.33 0.33 0.67</probabilities>
		</cpt>
		<cpt id="N1_d_f">
			<state id="x1" label="F21" />
			<state id="x2" label="F22" />
			<parents>N60_d_f N60_d_m Z_1_d_f</parents>
			<probabilities>1 0 1 0 1 0 0 1 0 1 1 0 0 1 0 1</probabilities>
		</cpt>
		<cpt id="N61_d_f">
			<state id="x1" label="F23" />
			<state id="x2" label="F24" />
			<probabilities>0.005000000000000001 0.995</probabilities>
		</cpt>
		<cpt id="N61_d_m">
			<state id="x1" label="F25" />
			<state id="x2" label="F26" />
			<probabilities>0.005000000000000001 0.995</probabilities>
		</cpt>
		<cpt id="Z_1_a_m">
			<state id="f" label="F27" />
			<state id="m" label="F28" />
			<probabilities>0.5 0.5</probabilities>
		</cpt>
		<cpt id="Z_1_d_m">
			<state id="f" label="F29" />
			<state id="m" label="F30" />
			<parents>Z_1_a_m</parents>
			<probabilities>0.67 0.33 0.33 0.67</probabilities>
		</cpt>
		<cpt id="N1_d_m">
			<state id="x1" label="F31" />
			<state id="x2" label="F32" />
			<parents>N61_d_f N61_d_m Z_1_d_m</parents>
			<probabilities>1 0 1 0 1 0 0 1 0 1 1 0 0 1 0 1</probabilities>
		</cpt>
		<cpt id="Z_3_a_f">
			<state id="f" label="F33" />
			<state id="m" label="F34" />
			<probabilities>0.5 0.5</probabilities>
		</cpt>
		<cpt id="Z_3_d_f">
			<state id="f" label="F35" />
			<state id="m" label="F36" />
			<parents>Z_3_a_f</parents>
			<probabilities>0.67 0.33 0.33 0.67</probabilities>
		</cpt>
		<cpt id="N3_d_f">
			<state id="x1" label="F37" />
			<state id="x2" label="F38" />
			<parents>N1_d_f N1_d_m Z_3_d_f</parents>
			<probabilities>1 0 1 0 1 0 0 1 0 1 1 0 0 1 0 1</probabilities>
		</cpt>
		<cpt id="N62_d_f">
			<state id="x1" label="F39" />
			<state id="x2" label="F40" />
			<probabilities>0.005000000000000001 0.995</probabilities>
		</cpt>
		<cpt id="N62_d_m">
			<state id="x1" label="F41" />
			<state id="x2" label="F42" />
			<probabilities>0.005000000000000001 0.995</probabilities>
		</cpt>
		<cpt id="Z_2_a_f">
			<state id="f" label="F43" />
			<state id="m" label="F44" />
			<probabilities>0.5 0.5</probabilities>
		</cpt>
		<cpt id="Z_2_d_f">
			<state id="f" label="F45" />
			<state id="m" label="F46" />
			<parents>Z_2_a_f</parents>
			<probabilities>0.67 0.33 0.33 0.67</probabilities>
		</cpt>
		<cpt id="N2_d_f">
			<state id="x1" label="F47" />
			<state id="x2" label="F48" />
			<parents>N62_d_f N62_d_m Z_2_d_f</parents>
			<probabilities>1 0 1 0 1 0 0 1 0 1 1 0 0 1 0 1</probabilities>
		</cpt>
		<cpt id="N63_d_f">
			<state id="x1" label="F49" />
			<state id="x2" label="F50" />
			<probabilities>0.005000000000000001 0.995</probabilities>
		</cpt>
		<cpt id="N63_d_m">
			<state id="x1" label="F51" />
			<state id="x2" label="F52" />
			<probabilities>0.005000000000000001 0.995</probabilities>
		</cpt>
		<cpt id="Z_2_a_m">
			<state id="f" label="F53" />
			<state id="m" label="F54" />
			<probabilities>0.5 0.5</probabilities>
		</cpt>
		<cpt id="Z_2_d_m">
			<state id="f" label="F55" />
			<state id="m" label="F56" />
			<parents>Z_2_a_m</parents>
			<probabilities>0.67 0.33 0.33 0.67</probabilities>
		</cpt>
		<cpt id="N2_d_m">
			<state id="x1" label="F57" />
			<state id="x2" label="F58" />
			<parents>N63_d_f N63_d_m Z_2_d_m</parents>
			<probabilities>1 0 1 0 1 0 0 1 0 1 1 0 0 1 0 1</probabilities>
		</cpt>
		<cpt id="Z_3_a_m">
			<state id="f" label="F59" />
			<state id="m" label="F60" />
			<probabilities>0.5 0.5</probabilities>
		</cpt>
		<cpt id="Z_3_d_m">
			<state id="f" label="F61" />
			<state id="m" label="F62" />
			<parents>Z_3_a_m</parents>
			<probabilities>0.67 0.33 0.33 0.67</probabilities>
		</cpt>
		<cpt id="N3_d_m">
			<state id="x1" label="F63" />
			<state id="x2" label="F64" />
			<parents>N2_d_f N2_d_m Z_3_d_m</parents>
			<probabilities>1 0 1 0 1 0 0 1 0 1 1 0 0 1 0 1</probabilities>
		</cpt>
		<cpt id="Z_72_a_m">
			<state id="f" label="F65" />
			<state id="m" label="F66" />
			<probabilities>0.5 0.5</probabilities>
		</cpt>
		<cpt id="Z_72_d_m">
			<state id="f" label="F67" />
			<state id="m" label="F68" />
			<parents>Z_72_a_m</parents>
			<probabilities>0.67 0.33 0.33 0.67</probabilities>
		</cpt>
		<cpt id="N72_d_m">
			<state id="x1" label="F69" />
			<state id="x2" label="F70" />
			<parents>N3_d_f N3_d_m Z_72_d_m</parents>
			<probabilities>1 0 1 0 1 0 0 1 0 1 1 0 0 1 0 1</probabilities>
		</cpt>
		<cpt id="Z_25_a_f">
			<state id="f" label="F71" />
			<state id="m" label="F72" />
			<probabilities>0.5 0.5</probabilities>
		</cpt>
		<cpt id="Z_25_d_f">
			<state id="f" label="F73" />
			<state id="m" label="F74" />
			<parents>Z_25_a_f</parents>
			<probabilities>0.67 0.33 0.33 0.67</probabilities>
		</cpt>
		<cpt id="N25_d_f">
			<state id="x1" label="F75" />
			<state id="x2" label="F76" />
			<parents>N72_d_f N72_d_m Z_25_d_f</parents>
			<probabilities>1 0 1 0 1 0 0 1 0 1 1 0 0 1 0 1</probabilities>
		</cpt>
		<cpt id="N73_d_f">
			<state id="x1" label="F77" />
			<state id="x2" label="F78" />
			<probabilities>0.005000000000000001 0.995</probabilities>
		</cpt>
		<cpt id="N73_d_m">
			<state id="x1" label="F79" />
			<state id="x2" label="F80" />
			<probabilities>0.005000000000000001 0.995</probabilities>
		</cpt>
		<cpt id="Z_25_a_m">
			<state id="f" label="F81" />
			<state id="m" label="F82" />
			<probabilities>0.5 0.5</probabilities>
		</cpt>
		<cpt id="Z_25_d_m">
			<state id="f" label="F83" />
			<state id="m" label="F84" />
			<parents>Z_25_a_m</parents>
			<probabilities>0.67 0.33 0.33 0.67</probabilities>
		</cpt>
		<cpt id="N25_d_m">
			<state id="x1" label="F85" />
			<state id="x2" label="F86" />
			<parents>N73_d_f N73_d_m Z_25_d_m</parents>
			<probabilities>1 0 1 0 1 0 0 1 0 1 1 0 0 1 0 1</probabilities>
		</cpt>
		<cpt id="Z_54_a_f">
			<state id="f" label="F87" />
			<state id="m" label="F88" />
			<probabilities>0.5 0.5</probabilities>
		</cpt>
		<cpt id="Z_54_d_f">
			<state id="f" label="F89" />
			<state id="m" label="F90" />
			<parents>Z_54_a_f</parents>
			<probabilities>0.67 0.33 0.33 0.67</probabilities>
		</cpt>
		<cpt id="N54_d_f">
			<state id="x1" label="F91" />
			<state id="x2" label="F92" />
			<parents>N25_d_f N25_d_m Z_54_d_f</parents>
			<probabilities>1 0 1 0 1 0 0 1 0 1 1 0 0 1 0 1</probabilities>
		</cpt>
		<cpt id="Z_4_a_f">
			<state id="f" label="F93" />
			<state id="m" label="F94" />
			<probabilities>0.5 0.5</probabilities>
		</cpt>
		<cpt id="Z_4_d_f">
			<state id="f" label="F95" />
			<state id="m" label="F96" />
			<parents>Z_4_a_f</parents>
			<probabilities>0.67 0.33 0.33 0.67</probabilities>
		</cpt>
		<cpt id="N4_d_f">
			<state id="x1" label="F97" />
			<state id="x2" label="F98" />
			<parents>N1_d_f N1_d_m Z_4_d_f</parents>
			<probabilities>1 0 1 0 1 0 0 1 0 1 1 0 0 1 0 1</probabilities>
		</cpt>
		<cpt id="Z_4_a_m">
			<state id="f" label="F99" />
			<state id="m" label="F100" />
			<probabilities>0.5 0.5</probabilities>
		</cpt>
		<cpt id="Z_4_d_m">
			<state id="f" label="F101" />
			<state id="m" label="F102" />
			<parents>Z_4_a_m</parents>
			<probabilities>0.67 0.33 0.33 0.67</probabilities>
		</cpt>
		<cpt id="N4_d_m">
			<state id="x1" label="F103" />
			<state id="x2" label="F104" />
			<parents>N2_d_f N2_d_m Z_4_d_m</parents>
			<probabilities>1 0 1 0 1 0 0 1 0 1 1 0 0 1 0 1</probabilities>
		</cpt>
		<cpt id="Z_10_a_f">
			<state id="f" label="F105" />
			<state id="m" label="F106" />
			<probabilities>0.5 0.5</probabilities>
		</cpt>
		<cpt id="Z_10_d_f">
			<state id="f" label="F107" />
			<state id="m" label="F108" />
			<parents>Z_10_a_f</parents>
			<probabilities>0.67 0.33 0.33 0.67</probabilities>
		</cpt>
		<cpt id="N10_d_f">
			<state id="x1" label="F109" />
			<state id="x2" label="F110" />
			<parents>N4_d_f N4_d_m Z_10_d_f</parents>
			<probabilities>1 0 1 0 1 0 0 1 0 1 1 0 0 1 0 1</probabilities>
		</cpt>
		<cpt id="N6_d_f">
			<state id="x1" label="F111" />
			<state id="x2" label="F112" />
			<probabilities>0.005000000000000001 0.995</probabilities>
		</cpt>
		<cpt id="N6_d_m">
			<state id="x1" label="F113" />
			<state id="x2" label="F114" />
			<probabilities>0.005000000000000001 0.995</probabilities>
		</cpt>
		<cpt id="Z_10_a_m">
			<state id="f" label="F115" />
			<state id="m" label="F116" />
			<probabilities>0.5 0.5</probabilities>
		</cpt>
		<cpt id="Z_10_d_m">
			<state id="f" label="F117" />
			<state id="m" label="F118" />
			<parents>Z_10_a_m</parents>
			<probabilities>0.67 0.33 0.33 0.67</probabilities>
		</cpt>
		<cpt id="N10_d_m">
			<state id="x1" label="F119" />
			<state id="x2" label="F120" />
			<parents>N6_d_f N6_d_m Z_10_d_m</parents>
			<probabilities>1 0 1 0 1 0 0 1 0 1 1 0 0 1 0 1</probabilities>
		</cpt>
		<cpt id="Z_23_a_f">
			<state id="f" label="F121" />
			<state id="m" label="F122" />
			<probabilities>0.5 0.5</probabilities>
		</cpt>
		<cpt id="Z_23_d_f">
			<state id="f" label="F123" />
			<state id="m" label="F124" />
			<parents>Z_23_a_f</parents>
			<probabilities>0.67 0.33 0.33 0.67</probabilities>
		</cpt>
		<cpt id="N23_d_f">
			<state id="x1" label="F125" />
			<state id="x2" label="F126" />
			<parents>N10_d_f N10_d_m Z_23_d_f</parents>
			<probabilities>1 0 1 0 1 0 0 1 0 1 1 0 0 1 0 1</probabilities>
		</cpt>
		<cpt id="N15_d_f">
			<state id="x1" label="F127" />
			<state id="x2" label="F128" />
			<probabilities>0.005000000000000001 0.995</probabilities>
		</cpt>
		<cpt id="N15_d_m">
			<state id="x1" label="F129" />
			<state id="x2" label="F130" />
			<probabilities>0.005000000000000001 0.995</probabilities>
		</cpt>
		<cpt id="Z_23_a_m">
			<state id="f" label="F131" />
			<state id="m" label="F132" />
			<probabilities>0.5 0.5</probabilities>
		</cpt>
		<cpt id="Z_23_d_m">
			<state id="f" label="F133" />
			<state id="m" label="F134" />
			<parents>Z_23_a_m</parents>
			<probabilities>0.67 0.33 0.33 0.67</probabilities>
		</cpt>
		<cpt id="N23_d_m">
			<state id="x1" label="F135" />
			<state id="x2" label="F136" />
			<parents>N15_d_f N15_d_m Z_23_d_m</parents>
			<probabilities>1 0 1 0 1 0 0 1 0 1 1 0 0 1 0 1</probabilities>
		</cpt>
		<cpt id="Z_54_a_m">
			<state id="f" label="F137" />
			<state id="m" label="F138" />
			<probabilities>0.5 0.5</probabilities>
		</cpt>
		<cpt id="Z_54_d_m">
			<state id="f" label="F139" />
			<state id="m" label="F140" />
			<parents>Z_54_a_m</parents>
			<probabilities>0.67 0.33 0.33 0.67</probabilities>
		</cpt>
		<cpt id="N54_d_m">
			<state id="x1" label="F141" />
			<state id="x2" label="F142" />
			<parents>N23_d_f N23_d_m Z_54_d_m</parents>
			<probabilities>1 0 1 0 1 0 0 1 0 1 1 0 0 1 0 1</probabilities>
		</cpt>
		<cpt id="Z_56_a_f">
			<state id="f" label="F143" />
			<state id="m" label="F144" />
			<probabilities>0.5 0.5</probabilities>
		</cpt>
		<cpt id="Z_56_d_f">
			<state id="f" label="F145" />
			<state id="m" label="F146" />
			<parents>Z_56_a_f</parents>
			<probabilities>0.67 0.33 0.33 0.67</probabilities>
		</cpt>
		<cpt id="N56_d_f">
			<state id="x1" label="F147" />
			<state id="x2" label="F148" />
			<parents>N54_d_f N54_d_m Z_56_d_f</parents>
			<probabilities>1 0 1 0 1 0 0 1 0 1 1 0 0 1 0 1</probabilities>
		</cpt>
		<cpt id="Z_11_a_f">
			<state id="f" label="F149" />
			<state id="m" label="F150" />
			<probabilities>0.5 0.5</probabilities>
		</cpt>
		<cpt id="Z_11_d_f">
			<state id="f" label="F151" />
			<state id="m" label="F152" />
			<parents>Z_11_a_f</parents>
			<probabilities>0.67 0.33 0.33 0.67</probabilities>
		</cpt>
		<cpt id="N11_d_f">
			<state id="x1" label="F153" />
			<state id="x2" label="F154" />
			<parents>N4_d_f N4_d_m Z_11_d_f</parents>
			<probabilities>1 0 1 0 1 0 0 1 0 1 1 0 0 1 0 1</probabilities>
		</cpt>
		<cpt id="Z_11_a_m">
			<state id="f" label="F155" />
			<state id="m" label="F156" />
			<probabilities>0.5 0.5</probabilities>
		</cpt>
		<cpt id="Z_11_d_m">
			<state id="f" label="F157" />
			<state id="m" label="F158" />
			<parents>Z_11_a_m</parents>
			<probabilities>0.67 0.33 0.33 0.67</probabilities>
		</cpt>
		<cpt id="N11_d_m">
			<state id="x1" label="F159" />
			<state id="x2" label="F160" />
			<parents>N6_d_f N6_d_m Z_11_d_m</parents>
			<probabilities>1 0 1 0 1 0 0 1 0 1 1 0 0 1 0 1</probabilities>
		</cpt>
		<cpt id="Z_24_a_f">
			<state id="f" label="F161" />
			<state id="m" label="F162" />
			<probabilities>0.5 0.5</probabilities>
		</cpt>
		<cpt id="Z_24_d_f">
			<state id="f" label="F163" />
			<state id="m" label="F164" />
			<parents>Z_24_a_f</parents>
			<probabilities>0.67 0.33 0.33 0.67</probabilities>
		</cpt>
		<cpt id="N24_d_f">
			<state id="x1" label="F165" />
			<state id="x2" label="F166" />
			<parents>N11_d_f N11_d_m Z_24_d_f</parents>
			<probabilities>1 0 1 0 1 0 0 1 0 1 1 0 0 1 0 1</probabilities>
		</cpt>
		<cpt id="N16_d_f">
			<state id="x1" label="F167" />
			<state id="x2" label="F168" />
			<probabilities>0.005000000000000001 0.995</probabilities>
		</cpt>
		<cpt id="N16_d_m">
			<state id="x1" label="F169" />
			<state id="x2" label="F170" />
			<probabilities>0.005000000000000001 0.995</probabilities>
		</cpt>
		<cpt id="Z_24_a_m">
			<state id="f" label="F171" />
			<state id="m" label="F172" />
			<probabilities>0.5 0.5</probabilities>
		</cpt>
		<cpt id="Z_24_d_m">
			<state id="f" label="F173" />
			<state id="m" label="F174" />
			<parents>Z_24_a_m</parents>
			<probabilities>0.67 0.33 0.33 0.67</probabilities>
		</cpt>
		<cpt id="N24_d_m">
			<state id="x1" label="F175" />
			<state id="x2" label="F176" />
			<parents>N16_d_f N16_d_m Z_24_d_m</parents>
			<probabilities>1 0 1 0 1 0 0 1 0 1 1 0 0 1 0 1</probabilities>
		</cpt>
		<cpt id="Z_55_a_f">
			<state id="f" label="F177" />
			<state id="m" label="F178" />
			<probabilities>0.5 0.5</probabilities>
		</cpt>
		<cpt id="Z_55_d_f">
			<state id="f" label="F179" />
			<state id="m" label="F180" />
			<parents>Z_55_a_f</parents>
			<probabilities>0.67 0.33 0.33 0.67</probabilities>
		</cpt>
		<cpt id="N55_d_f">
			<state id="x1" label="F181" />
			<state id="x2" label="F182" />
			<parents>N24_d_f N24_d_m Z_55_d_f</parents>
			<probabilities>1 0 1 0 1 0 0 1 0 1 1 0 0 1 0 1</probabilities>
		</cpt>
		<cpt id="Z_68_a_f">
			<state id="f" label="F183" />
			<state id="m" label="F184" />
			<probabilities>0.5 0.5</probabilities>
		</cpt>
		<cpt id="Z_68_d_f">
			<state id="f" label="F185" />
			<state id="m" label="F186" />
			<parents>Z_68_a_f</parents>
			<probabilities>0.67 0.33 0.33 0.67</probabilities>
		</cpt>
		<cpt id="N68_d_f">
			<state id="x1" label="F187" />
			<state id="x2" label="F188" />
			<parents>N1_d_f N1_d_m Z_68_d_f</parents>
			<probabilities>1 0 1 0 1 0 0 1 0 1 1 0 0 1 0 1</probabilities>
		</cpt>
		<cpt id="Z_68_a_m">
			<state id="f" label="F189" />
			<state id="m" label="F190" />
			<probabilities>0.5 0.5</probabilities>
		</cpt>
		<cpt id="Z_68_d_m">
			<state id="f" label="F191" />
			<state id="m" label="F192" />
			<parents>Z_68_a_m</parents>
			<probabilities>0.67 0.33 0.33 0.67</probabilities>
		</cpt>
		<cpt id="N68_d_m">
			<state id="x1" label="F193" />
			<state id="x2" label="F194" />
			<parents>N2_d_f N2_d_m Z_68_d_m</parents>
			<probabilities>1 0 1 0 1 0 0 1 0 1 1 0 0 1 0 1</probabilities>
		</cpt>
		<cpt id="Z_70_a_f">
			<state id="f" label="F195" />
			<state id="m" label="F196" />
			<probabilities>0.5 0.5</probabilities>
		</cpt>
		<cpt id="Z_70_d_f">
			<state id="f" label="F197" />
			<state id="m" label="F198" />
			<parents>Z_70_a_f</parents>
			<probabilities>0.67 0.33 0.33 0.67</probabilities>
		</cpt>
		<cpt id="N70_d_f">
			<state id="x1" label="F199" />
			<state id="x2" label="F200" />
			<parents>N68_d_f N68_d_m Z_70_d_f</parents>
			<probabilities>1 0 1 0 1 0 0 1 0 1 1 0 0 1 0 1</probabilities>
		</cpt>
		<cpt id="N69_d_f">
			<state id="x1" label="F201" />
			<state id="x2" label="F202" />
			<probabilities>0.005000000000000001 0.995</probabilities>
		</cpt>
		<cpt id="N69_d_m">
			<state id="x1" label="F203" />
			<state id="x2" label="F204" />
			<probabilities>0.005000000000000001 0.995</probabilities>
		</cpt>
		<cpt id="Z_70_a_m">
			<state id="f" label="F205" />
			<state id="m" label="F206" />
			<probabilities>0.5 0.5</probabilities>
		</cpt>
		<cpt id="Z_70_d_m">
			<state id="f" label="F207" />
			<state id="m" label="F208" />
			<parents>Z_70_a_m</parents>
			<probabilities>0.67 0.33 0.33 0.67</probabilities>
		</cpt>
		<cpt id="N70_d_m">
			<state id="x1" label="F209" />
			<state id="x2" label="F210" />
			<parents>N69_d_f N69_d_m Z_70_d_m</parents>
			<probabilities>1 0 1 0 1 0 0 1 0 1 1 0 0 1 0 1</probabilities>
		</cpt>
		<cpt id="Z_26_a_f">
			<state id="f" label="F211" />
			<state id="m" label="F212" />
			<probabilities>0.5 0.5</probabilities>
		</cpt>
		<cpt id="Z_26_d_f">
			<state id="f" label="F213" />
			<state id="m" label="F214" />
			<parents>Z_26_a_f</parents>
			<probabilities>0.67 0.33 0.33 0.67</probabilities>
		</cpt>
		<cpt id="N26_d_f">
			<state id="x1" label="F215" />
			<state id="x2" label="F216" />
			<parents>N70_d_f N70_d_m Z_26_d_f</parents>
			<probabilities>1 0 1 0 1 0 0 1 0 1 1 0 0 1 0 1</probabilities>
		</cpt>
		<cpt id="N66_d_f">
			<state id="x1" label="F217" />
			<state id="x2" label="F218" />
			<probabilities>0.005000000000000001 0.995</probabilities>
		</cpt>
		<cpt id="N66_d_m">
			<state id="x1" label="F219" />
			<state id="x2" label="F220" />
			<probabilities>0.005000000000000001 0.995</probabilities>
		</cpt>
		<cpt id="Z_71_a_f">
			<state id="f" label="F221" />
			<state id="m" label="F222" />
			<probabilities>0.5 0.5</probabilities>
		</cpt>
		<cpt id="Z_71_d_f">
			<state id="f" label="F223" />
			<state id="m" label="F224" />
			<parents>Z_71_a_f</parents>
			<probabilities>0.67 0.33 0.33 0.67</probabilities>
		</cpt>
		<cpt id="N71_d_f">
			<state id="x1" label="F225" />
			<state id="x2" label="F226" />
			<parents>N66_d_f N66_d_m Z_71_d_f</parents>
			<probabilities>1 0 1 0 1 0 0 1 0 1 1 0 0 1 0 1</probabilities>
		</cpt>
		<cpt id="Z_64_a_f">
			<state id="f" label="F227" />
			<state id="m" label="F228" />
			<probabilities>0.5 0.5</probabilities>
		</cpt>
		<cpt id="Z_64_d_f">
			<state id="f" label="F229" />
			<state id="m" label="F230" />
			<parents>Z_64_a_f</parents>
			<probabilities>0.67 0.33 0.33 0.67</probabilities>
		</cpt>
		<cpt id="N64_d_f">
			<state id="x1" label="F231" />
			<state id="x2" label="F232" />
			<parents>N60_d_f N60_d_m Z_64_d_f</parents>
			<probabilities>1 0 1 0 1 0 0 1 0 1 1 0 0 1 0 1</probabilities>
		</cpt>
		<cpt id="Z_64_a_m">
			<state id="f" label="F233" />
			<state id="m" label="F234" />
			<probabilities>0.5 0.5</probabilities>
		</cpt>
		<cpt id="Z_64_d_m">
			<state id="f" label="F235" />
			<state id="m" label="F236" />
			<parents>Z_64_a_m</parents>
			<probabilities>0.67 0.33 0.33 0.67</probabilities>
		</cpt>
		<cpt id="N64_d_m">
			<state id="x1" label="F237" />
			<state id="x2" label="F238" />
			<parents>N61_d_f N61_d_m Z_64_d_m</parents>
			<probabilities>1 0 1 0 1 0 0 1 0 1 1 0 0 1 0 1</probabilities>
		</cpt>
		<cpt id="Z_67_a_f">
			<state id="f" label="F239" />
			<state id="m" label="F240" />
			<probabilities>0.5 0.5</probabilities>
		</cpt>
		<cpt id="Z_67_d_f">
			<state id="f" label="F241" />
			<state id="m" label="F242" />
			<parents>Z_67_a_f</parents>
			<probabilities>0.67 0.33 0.33 0.67</probabilities>
		</cpt>
		<cpt id="N67_d_f">
			<state id="x1" label="F243" />
			<state id="x2" label="F244" />
			<parents>N64_d_f N64_d_m Z_67_d_f</parents>
			<probabilities>1 0 1 0 1 0 0 1 0 1 1 0 0 1 0 1</probabilities>
		</cpt>
		<cpt id="Z_65_a_f">
			<state id="f" label="F245" />
			<state id="m" label="F246" />
			<probabilities>0.5 0.5</probabilities>
		</cpt>
		<cpt id="Z_65_d_f">
			<state id="f" label="F247" />
			<state id="m" label="F248" />
			<parents>Z_65_a_f</parents>
			<probabilities>0.67 0.33 0.33 0.67</probabilities>
		</cpt>
		<cpt id="N65_d_f">
			<state id="x1" label="F249" />
			<state id="x2" label="F250" />
			<parents>N62_d_f N62_d_m Z_65_d_f</parents>
			<probabilities>1 0 1 0 1 0 0 1 0 1 1 0 0 1 0 1</probabilities>
		</cpt>
		<cpt id="Z_65_a_m">
			<state id="f" label="F251" />
			<state id="m" label="F252" />
			<probabilities>0.5 0.5</probabilities>
		</cpt>
		<cpt id="Z_65_d_m">
			<state id="f" label="F253" />
			<state id="m" label="F254" />
			<parents>Z_65_a_m</parents>
			<probabilities>0.67 0.33 0.33 0.67</probabilities>
		</cpt>
		<cpt id="N65_d_m">
			<state id="x1" label="F255" />
			<state id="x2" label="F256" />
			<parents>N63_d_f N63_d_m Z_65_d_m</parents>
			<probabilities>1 0 1 0 1 0 0 1 0 1 1 0 0 1 0 1</probabilities>
		</cpt>
		<cpt id="Z_67_a_m">
			<state id="f" label="F257" />
			<state id="m" label="F258" />
			<probabilities>0.5 0.5</probabilities>
		</cpt>
		<cpt id="Z_67_d_m">
			<state id="f" label="F259" />
			<state id="m" label="F260" />
			<parents>Z_67_a_m</parents>
			<probabilities>0.67 0.33 0.33 0.67</probabilities>
		</cpt>
		<cpt id="N67_d_m">
			<state id="x1" label="F261" />
			<state id="x2" label="F262" />
			<parents>N65_d_f N65_d_m Z_67_d_m</parents>
			<probabilities>1 0 1 0 1 0 0 1 0 1 1 0 0 1 0 1</probabilities>
		</cpt>
		<cpt id="Z_71_a_m">
			<state id="f" label="F263" />
			<state id="m" label="F264" />
			<probabilities>0.5 0.5</probabilities>
		</cpt>
		<cpt id="Z_71_d_m">
			<state id="f" label="F265" />
			<state id="m" label="F266" />
			<parents>Z_71_a_m</parents>
			<probabilities>0.67 0.33 0.33 0.67</probabilities>
		</cpt>
		<cpt id="N71_d_m">
			<state id="x1" label="F267" />
			<state id="x2" label="F268" />
			<parents>N67_d_f N67_d_m Z_71_d_m</parents>
			<probabilities>1 0 1 0 1 0 0 1 0 1 1 0 0 1 0 1</probabilities>
		</cpt>
		<cpt id="Z_26_a_m">
			<state id="f" label="F269" />
			<state id="m" label="F270" />
			<probabilities>0.5 0.5</probabilities>
		</cpt>
		<cpt id="Z_26_d_m">
			<state id="f" label="F271" />
			<state id="m" label="F272" />
			<parents>Z_26_a_m</parents>
			<probabilities>0.67 0.33 0.33 0.67</probabilities>
		</cpt>
		<cpt id="N26_d_m">
			<state id="x1" label="F273" />
			<state id="x2" label="F274" />
			<parents>N71_d_f N71_d_m Z_26_d_m</parents>
			<probabilities>1 0 1 0 1 0 0 1 0 1 1 0 0 1 0 1</probabilities>
		</cpt>
		<cpt id="Z_55_a_m">
			<state id="f" label="F275" />
			<state id="m" label="F276" />
			<probabilities>0.5 0.5</probabilities>
		</cpt>
		<cpt id="Z_55_d_m">
			<state id="f" label="F277" />
			<state id="m" label="F278" />
			<parents>Z_55_a_m</parents>
			<probabilities>0.67 0.33 0.33 0.67</probabilities>
		</cpt>
		<cpt id="N55_d_m">
			<state id="x1" label="F279" />
			<state id="x2" label="F280" />
			<parents>N26_d_f N26_d_m Z_55_d_m</parents>
			<probabilities>1 0 1 0 1 0 0 1 0 1 1 0 0 1 0 1</probabilities>
		</cpt>
		<cpt id="Z_56_a_m">
			<state id="f" label="F281" />
			<state id="m" label="F282" />
			<probabilities>0.5 0.5</probabilities>
		</cpt>
		<cpt id="Z_56_d_m">
			<state id="f" label="F283" />
			<state id="m" label="F284" />
			<parents>Z_56_a_m</parents>
			<probabilities>0.67 0.33 0.33 0.67</probabilities>
		</cpt>
		<cpt id="N56_d_m">
			<state id="x1" label="F285" />
			<state id="x2" label="F286" />
			<parents>N55_d_f N55_d_m Z_56_d_m</parents>
			<probabilities>1 0 1 0 1 0 0 1 0 1 1 0 0 1 0 1</probabilities>
		</cpt>
		<cpt id="N56_d_g">
			<state id="x1_1" label="F288" />
			<state id="x1_2" label="F289" />
			<state id="x2_2" label="F290" />
			<parents>N56_d_f N56_d_m</parents>
			<probabilities>1 0 0 0 1 0 0 1 0 0 0 1</probabilities>
		</cpt>
		<cpt id="D0_56_d_p">
			<state id="a" label="F291" />
			<state id="n" label="F292" />
			<parents>N56_d_g</parents>
			<probabilities>1 0 0 1 0 1</probabilities>
		</cpt>
		<cpt id="N60_a_f">
			<state id="x1" label="F294" />
			<state id="x2" label="F295" />
			<state id="x3" label="F296" />
			<state id="x4" label="F297" />
			<probabilities>0.25 0.25 0.25 0.25</probabilities>
		</cpt>
		<cpt id="N60_a_m">
			<state id="x1" label="F298" />
			<state id="x2" label="F299" />
			<state id="x3" label="F300" />
			<state id="x4" label="F301" />
			<probabilities>0.25 0.25 0.25 0.25</probabilities>
		</cpt>
		<cpt id="N1_a_f">
			<state id="x1" label="F302" />
			<state id="x2" label="F303" />
			<state id="x3" label="F304" />
			<state id="x4" label="F305" />
			<parents>N60_a_f N60_a_m Z_1_a_f</parents>
			<probabilities>1 0 0 0 1 0 0 0 1 0 0 0 0 1 0 0 1 0 0 0 0 0 1 0 1 0 0 0 0 0 0 1 0 1 0 0 1 0 0 0 0 1 0 0 0 1 0 0 0 1 0 0 0 0 1 0 0 1 0 0 0 0 0 1 0 0 1 0 1 0 0 0 0 0 1 0 0 1 0 0 0 0 1 0 0 0 1 0 0 0 1 0 0 0 0 1 0 0 0 1 1 0 0 0 0 0 0 1 0 1 0 0 0 0 0 1 0 0 1 0 0 0 0 1 0 0 0 1</probabilities>
		</cpt>
		<cpt id="N61_a_f">
			<state id="x1" label="F306" />
			<state id="x2" label="F307" />
			<state id="x3" label="F308" />
			<state id="x4" label="F309" />
			<probabilities>0.25 0.25 0.25 0.25</probabilities>
		</cpt>
		<cpt id="N61_a_m">
			<state id="x1" label="F310" />
			<state id="x2" label="F311" />
			<state id="x3" label="F312" />
			<state id="x4" label="F313" />
			<probabilities>0.25 0.25 0.25 0.25</probabilities>
		</cpt>
		<cpt id="N1_a_m">
			<state id="x1" label="F314" />
			<state id="x2" label="F315" />
			<state id="x3" label="F316" />
			<state id="x4" label="F317" />
			<parents>N61_a_f N61_a_m Z_1_a_m</parents>
			<probabilities>1 0 0 0 1 0 0 0 1 0 0 0 0 1 0 0 1 0 0 0 0 0 1 0 1 0 0 0 0 0 0 1 0 1 0 0 1 0 0 0 0 1 0 0 0 1 0 0 0 1 0 0 0 0 1 0 0 1 0 0 0 0 0 1 0 0 1 0 1 0 0 0 0 0 1 0 0 1 0 0 0 0 1 0 0 0 1 0 0 0 1 0 0 0 0 1 0 0 0 1 1 0 0 0 0 0 0 1 0 1 0 0 0 0 0 1 0 0 1 0 0 0 0 1 0 0 0 1</probabilities>
		</cpt>
		<cpt id="N4_a_f">
			<state id="x1" label="F318" />
			<state id="x2" label="F319" />
			<state id="x3" label="F320" />
			<state id="x4" label="F321" />
			<parents>N1_a_f N1_a_m Z_4_a_f</parents>
			<probabilities>1 0 0 0 1 0 0 0 1 0 0 0 0 1 0 0 1 0 0 0 0 0 1 0 1 0 0 0 0 0 0 1 0 1 0 0 1 0 0 0 0 1 0 0 0 1 0 0 0 1 0 0 0 0 1 0 0 1 0 0 0 0 0 1 0 0 1 0 1 0 0 0 0 0 1 0 0 1 0 0 0 0 1 0 0 0 1 0 0 0 1 0 0 0 0 1 0 0 0 1 1 0 0 0 0 0 0 1 0 1 0 0 0 0 0 1 0 0 1 0 0 0 0 1 0 0 0 1</probabilities>
		</cpt>
		<cpt id="N62_a_f">
			<state id="x1" label="F322" />
			<state id="x2" label="F323" />
			<state id="x3" label="F324" />
			<state id="x4" label="F325" />
			<probabilities>0.25 0.25 0.25 0.25</probabilities>
		</cpt>
		<cpt id="N62_a_m">
			<state id="x1" label="F326" />
			<state id="x2" label="F327" />
			<state id="x3" label="F328" />
			<state id="x4" label="F329" />
			<probabilities>0.25 0.25 0.25 0.25</probabilities>
		</cpt>
		<cpt id="N2_a_f">
			<state id="x1" label="F330" />
			<state id="x2" label="F331" />
			<state id="x3" label="F332" />
			<state id="x4" label="F333" />
			<parents>N62_a_f N62_a_m Z_2_a_f</parents>
			<probabilities>1 0 0 0 1 0 0 0 1 0 0 0 0 1 0 0 1 0 0 0 0 0 1 0 1 0 0 0 0 0 0 1 0 1 0 0 1 0 0 0 0 1 0 0 0 1 0 0 0 1 0 0 0 0 1 0 0 1 0 0 0 0 0 1 0 0 1 0 1 0 0 0 0 0 1 0 0 1 0 0 0 0 1 0 0 0 1 0 0 0 1 0 0 0 0 1 0 0 0 1 1 0 0 0 0 0 0 1 0 1 0 0 0 0 0 1 0 0 1 0 0 0 0 1 0 0 0 1</probabilities>
		</cpt>
		<cpt id="N63_a_f">
			<state id="x1" label="F334" />
			<state id="x2" label="F335" />
			<state id="x3" label="F336" />
			<state id="x4" label="F337" />
			<probabilities>0.25 0.25 0.25 0.25</probabilities>
		</cpt>
		<cpt id="N63_a_m">
			<state id="x1" label="F338" />
			<state id="x2" label="F339" />
			<state id="x3" label="F340" />
			<state id="x4" label="F341" />
			<probabilities>0.25 0.25 0.25 0.25</probabilities>
		</cpt>
		<cpt id="N2_a_m">
			<state id="x1" label="F342" />
			<state id="x2" label="F343" />
			<state id="x3" label="F344" />
			<state id="x4" label="F345" />
			<parents>N63_a_f N63_a_m Z_2_a_m</parents>
			<probabilities>1 0 0 0 1 0 0 0 1 0 0 0 0 1 0 0 1 0 0 0 0 0 1 0 1 0 0 0 0 0 0 1 0 1 0 0 1 0 0 0 0 1 0 0 0 1 0 0 0 1 0 0 0 0 1 0 0 1 0 0 0 0 0 1 0 0 1 0 1 0 0 0 0 0 1 0 0 1 0 0 0 0 1 0 0 0 1 0 0 0 1 0 0 0 0 1 0 0 0 1 1 0 0 0 0 0 0 1 0 1 0 0 0 0 0 1 0 0 1 0 0 0 0 1 0 0 0 1</probabilities>
		</cpt>
		<cpt id="N4_a_m">
			<state id="x1" label="F346" />
			<state id="x2" label="F347" />
			<state id="x3" label="F348" />
			<state id="x4" label="F349" />
			<parents>N2_a_f N2_a_m Z_4_a_m</parents>
			<probabilities>1 0 0 0 1 0 0 0 1 0 0 0 0 1 0 0 1 0 0 0 0 0 1 0 1 0 0 0 0 0 0 1 0 1 0 0 1 0 0 0 0 1 0 0 0 1 0 0 0 1 0 0 0 0 1 0 0 1 0 0 0 0 0 1 0 0 1 0 1 0 0 0 0 0 1 0 0 1 0 0 0 0 1 0 0 0 1 0 0 0 1 0 0 0 0 1 0 0 0 1 1 0 0 0 0 0 0 1 0 1 0 0 0 0 0 1 0 0 1 0 0 0 0 1 0 0 0 1</probabilities>
		</cpt>
		<cpt id="N11_a_f">
			<state id="x1" label="F350" />
			<state id="x2" label="F351" />
			<state id="x3" label="F352" />
			<state id="x4" label="F353" />
			<parents>N4_a_f N4_a_m Z_11_a_f</parents>
			<probabilities>1 0 0 0 1 0 0 0 1 0 0 0 0 1 0 0 1 0 0 0 0 0 1 0 1 0 0 0 0 0 0 1 0 1 0 0 1 0 0 0 0 1 0 0 0 1 0 0 0 1 0 0 0 0 1 0 0 1 0 0 0 0 0 1 0 0 1 0 1 0 0 0 0 0 1 0 0 1 0 0 0 0 1 0 0 0 1 0 0 0 1 0 0 0 0 1 0 0 0 1 1 0 0 0 0 0 0 1 0 1 0 0 0 0 0 1 0 0 1 0 0 0 0 1 0 0 0 1</probabilities>
		</cpt>
		<cpt id="N6_a_f">
			<state id="x1" label="F354" />
			<state id="x2" label="F355" />
			<state id="x3" label="F356" />
			<state id="x4" label="F357" />
			<probabilities>0.25 0.25 0.25 0.25</probabilities>
		</cpt>
		<cpt id="N6_a_m">
			<state id="x1" label="F358" />
			<state id="x2" label="F359" />
			<state id="x3" label="F360" />
			<state id="x4" label="F361" />
			<probabilities>0.25 0.25 0.25 0.25</probabilities>
		</cpt>
		<cpt id="N11_a_m">
			<state id="x1" label="F362" />
			<state id="x2" label="F363" />
			<state id="x3" label="F364" />
			<state id="x4" label="F365" />
			<parents>N6_a_f N6_a_m Z_11_a_m</parents>
			<probabilities>1 0 0 0 1 0 0 0 1 0 0 0 0 1 0 0 1 0 0 0 0 0 1 0 1 0 0 0 0 0 0 1 0 1 0 0 1 0 0 0 0 1 0 0 0 1 0 0 0 1 0 0 0 0 1 0 0 1 0 0 0 0 0 1 0 0 1 0 1 0 0 0 0 0 1 0 0 1 0 0 0 0 1 0 0 0 1 0 0 0 1 0 0 0 0 1 0 0 0 1 1 0 0 0 0 0 0 1 0 1 0 0 0 0 0 1 0 0 1 0 0 0 0 1 0 0 0 1</probabilities>
		</cpt>
		<cpt id="N24_a_f">
			<state id="x1" label="F366" />
			<state id="x2" label="F367" />
			<state id="x3" label="F368" />
			<state id="x4" label="F369" />
			<parents>N11_a_f N11_a_m Z_24_a_f</parents>
			<probabilities>1 0 0 0 1 0 0 0 1 0 0 0 0 1 0 0 1 0 0 0 0 0 1 0 1 0 0 0 0 0 0 1 0 1 0 0 1 0 0 0 0 1 0 0 0 1 0 0 0 1 0 0 0 0 1 0 0 1 0 0 0 0 0 1 0 0 1 0 1 0 0 0 0 0 1 0 0 1 0 0 0 0 1 0 0 0 1 0 0 0 1 0 0 0 0 1 0 0 0 1 1 0 0 0 0 0 0 1 0 1 0 0 0 0 0 1 0 0 1 0 0 0 0 1 0 0 0 1</probabilities>
		</cpt>
		<cpt id="N16_a_f">
			<state id="x1" label="F370" />
			<state id="x2" label="F371" />
			<state id="x3" label="F372" />
			<state id="x4" label="F373" />
			<probabilities>0.25 0.25 0.25 0.25</probabilities>
		</cpt>
		<cpt id="N16_a_m">
			<state id="x1" label="F374" />
			<state id="x2" label="F375" />
			<state id="x3" label="F376" />
			<state id="x4" label="F377" />
			<probabilities>0.25 0.25 0.25 0.25</probabilities>
		</cpt>
		<cpt id="N24_a_m">
			<state id="x1" label="F378" />
			<state id="x2" label="F379" />
			<state id="x3" label="F380" />
			<state id="x4" label="F381" />
			<parents>N16_a_f N16_a_m Z_24_a_m</parents>
			<probabilities>1 0 0 0 1 0 0 0 1 0 0 0 0 1 0 0 1 0 0 0 0 0 1 0 1 0 0 0 0 0 0 1 0 1 0 0 1 0 0 0 0 1 0 0 0 1 0 0 0 1 0 0 0 0 1 0 0 1 0 0 0 0 0 1 0 0 1 0 1 0 0 0 0 0 1 0 0 1 0 0 0 0 1 0 0 0 1 0 0 0 1 0 0 0 0 1 0 0 0 1 1 0 0 0 0 0 0 1 0 1 0 0 0 0 0 1 0 0 1 0 0 0 0 1 0 0 0 1</probabilities>
		</cpt>
		<cpt id="N55_a_f">
			<state id="x1" label="F382" />
			<state id="x2" label="F383" />
			<state id="x3" label="F384" />
			<state id="x4" label="F385" />
			<parents>N24_a_f N24_a_m Z_55_a_f</parents>
			<probabilities>1 0 0 0 1 0 0 0 1 0 0 0 0 1 0 0 1 0 0 0 0 0 1 0 1 0 0 0 0 0 0 1 0 1 0 0 1 0 0 0 0 1 0 0 0 1 0 0 0 1 0 0 0 0 1 0 0 1 0 0 0 0 0 1 0 0 1 0 1 0 0 0 0 0 1 0 0 1 0 0 0 0 1 0 0 0 1 0 0 0 1 0 0 0 0 1 0 0 0 1 1 0 0 0 0 0 0 1 0 1 0 0 0 0 0 1 0 0 1 0 0 0 0 1 0 0 0 1</probabilities>
		</cpt>
		<cpt id="N68_a_f">
			<state id="x1" label="F386" />
			<state id="x2" label="F387" />
			<state id="x3" label="F388" />
			<state id="x4" label="F389" />
			<parents>N1_a_f N1_a_m Z_68_a_f</parents>
			<probabilities>1 0 0 0 1 0 0 0 1 0 0 0 0 1 0 0 1 0 0 0 0 0 1 0 1 0 0 0 0 0 0 1 0 1 0 0 1 0 0 0 0 1 0 0 0 1 0 0 0 1 0 0 0 0 1 0 0 1 0 0 0 0 0 1 0 0 1 0 1 0 0 0 0 0 1 0 0 1 0 0 0 0 1 0 0 0 1 0 0 0 1 0 0 0 0 1 0 0 0 1 1 0 0 0 0 0 0 1 0 1 0 0 0 0 0 1 0 0 1 0 0 0 0 1 0 0 0 1</probabilities>
		</cpt>
		<cpt id="N68_a_m">
			<state id="x1" label="F390" />
			<state id="x2" label="F391" />
			<state id="x3" label="F392" />
			<state id="x4" label="F393" />
			<parents>N2_a_f N2_a_m Z_68_a_m</parents>
			<probabilities>1 0 0 0 1 0 0 0 1 0 0 0 0 1 0 0 1 0 0 0 0 0 1 0 1 0 0 0 0 0 0 1 0 1 0 0 1 0 0 0 0 1 0 0 0 1 0 0 0 1 0 0 0 0 1 0 0 1 0 0 0 0 0 1 0 0 1 0 1 0 0 0 0 0 1 0 0 1 0 0 0 0 1 0 0 0 1 0 0 0 1 0 0 0 0 1 0 0 0 1 1 0 0 0 0 0 0 1 0 1 0 0 0 0 0 1 0 0 1 0 0 0 0 1 0 0 0 1</probabilities>
		</cpt>
		<cpt id="N70_a_f">
			<state id="x1" label="F394" />
			<state id="x2" label="F395" />
			<state id="x3" label="F396" />
			<state id="x4" label="F397" />
			<parents>N68_a_f N68_a_m Z_70_a_f</parents>
			<probabilities>1 0 0 0 1 0 0 0 1 0 0 0 0 1 0 0 1 0 0 0 0 0 1 0 1 0 0 0 0 0 0 1 0 1 0 0 1 0 0 0 0 1 0 0 0 1 0 0 0 1 0 0 0 0 1 0 0 1 0 0 0 0 0 1 0 0 1 0 1 0 0 0 0 0 1 0 0 1 0 0 0 0 1 0 0 0 1 0 0 0 1 0 0 0 0 1 0 0 0 1 1 0 0 0 0 0 0 1 0 1 0 0 0 0 0 1 0 0 1 0 0 0 0 1 0 0 0 1</probabilities>
		</cpt>
		<cpt id="N69_a_f">
			<state id="x1" label="F398" />
			<state id="x2" label="F399" />
			<state id="x3" label="F400" />
			<state id="x4" label="F401" />
			<probabilities>0.25 0.25 0.25 0.25</probabilities>
		</cpt>
		<cpt id="N69_a_m">
			<state id="x1" label="F402" />
			<state id="x2" label="F403" />
			<state id="x3" label="F404" />
			<state id="x4" label="F405" />
			<probabilities>0.25 0.25 0.25 0.25</probabilities>
		</cpt>
		<cpt id="N70_a_m">
			<state id="x1" label="F406" />
			<state id="x2" label="F407" />
			<state id="x3" label="F408" />
			<state id="x4" label="F409" />
			<parents>N69_a_f N69_a_m Z_70_a_m</parents>
			<probabilities>1 0 0 0 1 0 0 0 1 0 0 0 0 1 0 0 1 0 0 0 0 0 1 0 1 0 0 0 0 0 0 1 0 1 0 0 1 0 0 0 0 1 0 0 0 1 0 0 0 1 0 0 0 0 1 0 0 1 0 0 0 0 0 1 0 0 1 0 1 0 0 0 0 0 1 0 0 1 0 0 0 0 1 0 0 0 1 0 0 0 1 0 0 0 0 1 0 0 0 1 1 0 0 0 0 0 0 1 0 1 0 0 0 0 0 1 0 0 1 0 0 0 0 1 0 0 0 1</probabilities>
		</cpt>
		<cpt id="N26_a_f">
			<state id="x1" label="F410" />
			<state id="x2" label="F411" />
			<state id="x3" label="F412" />
			<state id="x4" label="F413" />
			<parents>N70_a_f N70_a_m Z_26_a_f</parents>
			<probabilities>1 0 0 0 1 0 0 0 1 0 0 0 0 1 0 0 1 0 0 0 0 0 1 0 1 0 0 0 0 0 0 1 0 1 0 0 1 0 0 0 0 1 0 0 0 1 0 0 0 1 0 0 0 0 1 0 0 1 0 0 0 0 0 1 0 0 1 0 1 0 0 0 0 0 1 0 0 1 0 0 0 0 1 0 0 0 1 0 0 0 1 0 0 0 0 1 0 0 0 1 1 0 0 0 0 0 0 1 0 1 0 0 0 0 0 1 0 0 1 0 0 0 0 1 0 0 0 1</probabilities>
		</cpt>
		<cpt id="N66_a_f">
			<state id="x1" label="F414" />
			<state id="x2" label="F415" />
			<state id="x3" label="F416" />
			<state id="x4" label="F417" />
			<probabilities>0.25 0.25 0.25 0.25</probabilities>
		</cpt>
		<cpt id="N66_a_m">
			<state id="x1" label="F418" />
			<state id="x2" label="F419" />
			<state id="x3" label="F420" />
			<state id="x4" label="F421" />
			<probabilities>0.25 0.25 0.25 0.25</probabilities>
		</cpt>
		<cpt id="N71_a_f">
			<state id="x1" label="F422" />
			<state id="x2" label="F423" />
			<state id="x3" label="F424" />
			<state id="x4" label="F425" />
			<parents>N66_a_f N66_a_m Z_71_a_f</parents>
			<probabilities>1 0 0 0 1 0 0 0 1 0 0 0 0 1 0 0 1 0 0 0 0 0 1 0 1 0 0 0 0 0 0 1 0 1 0 0 1 0 0 0 0 1 0 0 0 1 0 0 0 1 0 0 0 0 1 0 0 1 0 0 0 0 0 1 0 0 1 0 1 0 0 0 0 0 1 0 0 1 0 0 0 0 1 0 0 0 1 0 0 0 1 0 0 0 0 1 0 0 0 1 1 0 0 0 0 0 0 1 0 1 0 0 0 0 0 1 0 0 1 0 0 0 0 1 0 0 0 1</probabilities>
		</cpt>
		<cpt id="N64_a_f">
			<state id="x1" label="F426" />
			<state id="x2" label="F427" />
			<state id="x3" label="F428" />
			<state id="x4" label="F429" />
			<parents>N60_a_f N60_a_m Z_64_a_f</parents>
			<probabilities>1 0 0 0 1 0 0 0 1 0 0 0 0 1 0 0 1 0 0 0 0 0 1 0 1 0 0 0 0 0 0 1 0 1 0 0 1 0 0 0 0 1 0 0 0 1 0 0 0 1 0 0 0 0 1 0 0 1 0 0 0 0 0 1 0 0 1 0 1 0 0 0 0 0 1 0 0 1 0 0 0 0 1 0 0 0 1 0 0 0 1 0 0 0 0 1 0 0 0 1 1 0 0 0 0 0 0 1 0 1 0 0 0 0 0 1 0 0 1 0 0 0 0 1 0 0 0 1</probabilities>
		</cpt>
		<cpt id="N64_a_m">
			<state id="x1" label="F430" />
			<state id="x2" label="F431" />
			<state id="x3" label="F432" />
			<state id="x4" label="F433" />
			<parents>N61_a_f N61_a_m Z_64_a_m</parents>
			<probabilities>1 0 0 0 1 0 0 0 1 0 0 0 0 1 0 0 1 0 0 0 0 0 1 0 1 0 0 0 0 0 0 1 0 1 0 0 1 0 0 0 0 1 0 0 0 1 0 0 0 1 0 0 0 0 1 0 0 1 0 0 0 0 0 1 0 0 1 0 1 0 0 0 0 0 1 0 0 1 0 0 0 0 1 0 0 0 1 0 0 0 1 0 0 0 0 1 0 0 0 1 1 0 0 0 0 0 0 1 0 1 0 0 0 0 0 1 0 0 1 0 0 0 0 1 0 0 0 1</probabilities>
		</cpt>
		<cpt id="N67_a_f">
			<state id="x1" label="F434" />
			<state id="x2" label="F435" />
			<state id="x3" label="F436" />
			<state id="x4" label="F437" />
			<parents>N64_a_f N64_a_m Z_67_a_f</parents>
			<probabilities>1 0 0 0 1 0 0 0 1 0 0 0 0 1 0 0 1 0 0 0 0 0 1 0 1 0 0 0 0 0 0 1 0 1 0 0 1 0 0 0 0 1 0 0 0 1 0 0 0 1 0 0 0 0 1 0 0 1 0 0 0 0 0 1 0 0 1 0 1 0 0 0 0 0 1 0 0 1 0 0 0 0 1 0 0 0 1 0 0 0 1 0 0 0 0 1 0 0 0 1 1 0 0 0 0 0 0 1 0 1 0 0 0 0 0 1 0 0 1 0 0 0 0 1 0 0 0 1</probabilities>
		</cpt>
		<cpt id="N65_a_f">
			<state id="x1" label="F438" />
			<state id="x2" label="F439" />
			<state id="x3" label="F440" />
			<state id="x4" label="F441" />
			<parents>N62_a_f N62_a_m Z_65_a_f</parents>
			<probabilities>1 0 0 0 1 0 0 0 1 0 0 0 0 1 0 0 1 0 0 0 0 0 1 0 1 0 0 0 0 0 0 1 0 1 0 0 1 0 0 0 0 1 0 0 0 1 0 0 0 1 0 0 0 0 1 0 0 1 0 0 0 0 0 1 0 0 1 0 1 0 0 0 0 0 1 0 0 1 0 0 0 0 1 0 0 0 1 0 0 0 1 0 0 0 0 1 0 0 0 1 1 0 0 0 0 0 0 1 0 1 0 0 0 0 0 1 0 0 1 0 0 0 0 1 0 0 0 1</probabilities>
		</cpt>
		<cpt id="N65_a_m">
			<state id="x1" label="F442" />
			<state id="x2" label="F443" />
			<state id="x3" label="F444" />
			<state id="x4" label="F445" />
			<parents>N63_a_f N63_a_m Z_65_a_m</parents>
			<probabilities>1 0 0 0 1 0 0 0 1 0 0 0 0 1 0 0 1 0 0 0 0 0 1 0 1 0 0 0 0 0 0 1 0 1 0 0 1 0 0 0 0 1 0 0 0 1 0 0 0 1 0 0 0 0 1 0 0 1 0 0 0 0 0 1 0 0 1 0 1 0 0 0 0 0 1 0 0 1 0 0 0 0 1 0 0 0 1 0 0 0 1 0 0 0 0 1 0 0 0 1 1 0 0 0 0 0 0 1 0 1 0 0 0 0 0 1 0 0 1 0 0 0 0 1 0 0 0 1</probabilities>
		</cpt>
		<cpt id="N67_a_m">
			<state id="x1" label="F446" />
			<state id="x2" label="F447" />
			<state id="x3" label="F448" />
			<state id="x4" label="F449" />
			<parents>N65_a_f N65_a_m Z_67_a_m</parents>
			<probabilities>1 0 0 0 1 0 0 0 1 0 0 0 0 1 0 0 1 0 0 0 0 0 1 0 1 0 0 0 0 0 0 1 0 1 0 0 1 0 0 0 0 1 0 0 0 1 0 0 0 1 0 0 0 0 1 0 0 1 0 0 0 0 0 1 0 0 1 0 1 0 0 0 0 0 1 0 0 1 0 0 0 0 1 0 0 0 1 0 0 0 1 0 0 0 0 1 0 0 0 1 1 0 0 0 0 0 0 1 0 1 0 0 0 0 0 1 0 0 1 0 0 0 0 1 0 0 0 1</probabilities>
		</cpt>
		<cpt id="N71_a_m">
			<state id="x1" label="F450" />
			<state id="x2" label="F451" />
			<state id="x3" label="F452" />
			<state id="x4" label="F453" />
			<parents>N67_a_f N67_a_m Z_71_a_m</parents>
			<probabilities>1 0 0 0 1 0 0 0 1 0 0 0 0 1 0 0 1 0 0 0 0 0 1 0 1 0 0 0 0 0 0 1 0 1 0 0 1 0 0 0 0 1 0 0 0 1 0 0 0 1 0 0 0 0 1 0 0 1 0 0 0 0 0 1 0 0 1 0 1 0 0 0 0 0 1 0 0 1 0 0 0 0 1 0 0 0 1 0 0 0 1 0 0 0 0 1 0 0 0 1 1 0 0 0 0 0 0 1 0 1 0 0 0 0 0 1 0 0 1 0 0 0 0 1 0 0 0 1</probabilities>
		</cpt>
		<cpt id="N26_a_m">
			<state id="x1" label="F454" />
			<state id="x2" label="F455" />
			<state id="x3" label="F456" />
			<state id="x4" label="F457" />
			<parents>N71_a_f N71_a_m Z_26_a_m</parents>
			<probabilities>1 0 0 0 1 0 0 0 1 0 0 0 0 1 0 0 1 0 0 0 0 0 1 0 1 0 0 0 0 0 0 1 0 1 0 0 1 0 0 0 0 1 0 0 0 1 0 0 0 1 0 0 0 0 1 0 0 1 0 0 0 0 0 1 0 0 1 0 1 0 0 0 0 0 1 0 0 1 0 0 0 0 1 0 0 0 1 0 0 0 1 0 0 0 0 1 0 0 0 1 1 0 0 0 0 0 0 1 0 1 0 0 0 0 0 1 0 0 1 0 0 0 0 1 0 0 0 1</probabilities>
		</cpt>
		<cpt id="N55_a_m">
			<state id="x1" label="F458" />
			<state id="x2" label="F459" />
			<state id="x3" label="F460" />
			<state id="x4" label="F461" />
			<parents>N26_a_f N26_a_m Z_55_a_m</parents>
			<probabilities>1 0 0 0 1 0 0 0 1 0 0 0 0 1 0 0 1 0 0 0 0 0 1 0 1 0 0 0 0 0 0 1 0 1 0 0 1 0 0 0 0 1 0 0 0 1 0 0 0 1 0 0 0 0 1 0 0 1 0 0 0 0 0 1 0 0 1 0 1 0 0 0 0 0 1 0 0 1 0 0 0 0 1 0 0 0 1 0 0 0 1 0 0 0 0 1 0 0 0 1 1 0 0 0 0 0 0 1 0 1 0 0 0 0 0 1 0 0 1 0 0 0 0 1 0 0 0 1</probabilities>
		</cpt>
		<cpt id="D0_56_a_m">
			<state id="x1" label="F462" />
			<state id="x2" label="F463" />
			<state id="x3" label="F464" />
			<state id="x4" label="F465" />
			<parents>N55_a_f N55_a_m Z_56_a_m</parents>
			<probabilities>1 0 0 0 1 0 0 0 1 0 0 0 0 1 0 0 1 0 0 0 0 0 1 0 1 0 0 0 0 0 0 1 0 1 0 0 1 0 0 0 0 1 0 0 0 1 0 0 0 1 0 0 0 0 1 0 0 1 0 0 0 0 0 1 0 0 1 0 1 0 0 0 0 0 1 0 0 1 0 0 0 0 1 0 0 0 1 0 0 0 1 0 0 0 0 1 0 0 0 1 1 0 0 0 0 0 0 1 0 1 0 0 0 0 0 1 0 0 1 0 0 0 0 1 0 0 0 1</probabilities>
		</cpt>
		<cpt id="D1_56_a_m">
			<state id="x1" label="F466" />
			<state id="x2" label="F467" />
			<state id="x3" label="F468" />
			<state id="x4" label="F469" />
			<probabilities>0.25 0.25 0.25 0.25</probabilities>
		</cpt>
		<cpt id="N5_a_f">
			<state id="x1" label="F470" />
			<state id="x2" label="F471" />
			<state id="x3" label="F472" />
			<state id="x4" label="F473" />
			<probabilities>0.25 0.25 0.25 0.25</probabilities>
		</cpt>
		<cpt id="N5_a_m">
			<state id="x1" label="F474" />
			<state id="x2" label="F475" />
			<state id="x3" label="F476" />
			<state id="x4" label="F477" />
			<probabilities>0.25 0.25 0.25 0.25</probabilities>
		</cpt>
		<cpt id="N72_a_f">
			<state id="x1" label="F478" />
			<state id="x2" label="F479" />
			<state id="x3" label="F480" />
			<state id="x4" label="F481" />
			<parents>N5_a_f N5_a_m Z_72_a_f</parents>
			<probabilities>1 0 0 0 1 0 0 0 1 0 0 0 0 1 0 0 1 0 0 0 0 0 1 0 1 0 0 0 0 0 0 1 0 1 0 0 1 0 0 0 0 1 0 0 0 1 0 0 0 1 0 0 0 0 1 0 0 1 0 0 0 0 0 1 0 0 1 0 1 0 0 0 0 0 1 0 0 1 0 0 0 0 1 0 0 0 1 0 0 0 1 0 0 0 0 1 0 0 0 1 1 0 0 0 0 0 0 1 0 1 0 0 0 0 0 1 0 0 1 0 0 0 0 1 0 0 0 1</probabilities>
		</cpt>
		<cpt id="N3_a_f">
			<state id="x1" label="F482" />
			<state id="x2" label="F483" />
			<state id="x3" label="F484" />
			<state id="x4" label="F485" />
			<parents>N1_a_f N1_a_m Z_3_a_f</parents>
			<probabilities>1 0 0 0 1 0 0 0 1 0 0 0 0 1 0 0 1 0 0 0 0 0 1 0 1 0 0 0 0 0 0 1 0 1 0 0 1 0 0 0 0 1 0 0 0 1 0 0 0 1 0 0 0 0 1 0 0 1 0 0 0 0 0 1 0 0 1 0 1 0 0 0 0 0 1 0 0 1 0 0 0 0 1 0 0 0 1 0 0 0 1 0 0 0 0 1 0 0 0 1 1 0 0 0 0 0 0 1 0 1 0 0 0 0 0 1 0 0 1 0 0 0 0 1 0 0 0 1</probabilities>
		</cpt>
		<cpt id="N3_a_m">
			<state id="x1" label="F486" />
			<state id="x2" label="F487" />
			<state id="x3" label="F488" />
			<state id="x4" label="F489" />
			<parents>N2_a_f N2_a_m Z_3_a_m</parents>
			<probabilities>1 0 0 0 1 0 0 0 1 0 0 0 0 1 0 0 1 0 0 0 0 0 1 0 1 0 0 0 0 0 0 1 0 1 0 0 1 0 0 0 0 1 0 0 0 1 0 0 0 1 0 0 0 0 1 0 0 1 0 0 0 0 0 1 0 0 1 0 1 0 0 0 0 0 1 0 0 1 0 0 0 0 1 0 0 0 1 0 0 0 1 0 0 0 0 1 0 0 0 1 1 0 0 0 0 0 0 1 0 1 0 0 0 0 0 1 0 0 1 0 0 0 0 1 0 0 0 1</probabilities>
		</cpt>
		<cpt id="N72_a_m">
			<state id="x1" label="F490" />
			<state id="x2" label="F491" />
			<state id="x3" label="F492" />
			<state id="x4" label="F493" />
			<parents>N3_a_f N3_a_m Z_72_a_m</parents>
			<probabilities>1 0 0 0 1 0 0 0 1 0 0 0 0 1 0 0 1 0 0 0 0 0 1 0 1 0 0 0 0 0 0 1 0 1 0 0 1 0 0 0 0 1 0 0 0 1 0 0 0 1 0 0 0 0 1 0 0 1 0 0 0 0 0 1 0 0 1 0 1 0 0 0 0 0 1 0 0 1 0 0 0 0 1 0 0 0 1 0 0 0 1 0 0 0 0 1 0 0 0 1 1 0 0 0 0 0 0 1 0 1 0 0 0 0 0 1 0 0 1 0 0 0 0 1 0 0 0 1</probabilities>
		</cpt>
		<cpt id="N25_a_f">
			<state id="x1" label="F494" />
			<state id="x2" label="F495" />
			<state id="x3" label="F496" />
			<state id="x4" label="F497" />
			<parents>N72_a_f N72_a_m Z_25_a_f</parents>
			<probabilities>1 0 0 0 1 0 0 0 1 0 0 0 0 1 0 0 1 0 0 0 0 0 1 0 1 0 0 0 0 0 0 1 0 1 0 0 1 0 0 0 0 1 0 0 0 1 0 0 0 1 0 0 0 0 1 0 0 1 0 0 0 0 0 1 0 0 1 0 1 0 0 0 0 0 1 0 0 1 0 0 0 0 1 0 0 0 1 0 0 0 1 0 0 0 0 1 0 0 0 1 1 0 0 0 0 0 0 1 0 1 0 0 0 0 0 1 0 0 1 0 0 0 0 1 0 0 0 1</probabilities>
		</cpt>
		<cpt id="N73_a_f">
			<state id="x1" label="F498" />
			<state id="x2" label="F499" />
			<state id="x3" label="F500" />
			<state id="x4" label="F501" />
			<probabilities>0.25 0.25 0.25 0.25</probabilities>
		</cpt>
		<cpt id="N73_a_m">
			<state id="x1" label="F502" />
			<state id="x2" label="F503" />
			<state id="x3" label="F504" />
			<state id="x4" label="F505" />
			<probabilities>0.25 0.25 0.25 0.25</probabilities>
		</cpt>
		<cpt id="N25_a_m">
			<state id="x1" label="F506" />
			<state id="x2" label="F507" />
			<state id="x3" label="F508" />
			<state id="x4" label="F509" />
			<parents>N73_a_f N73_a_m Z_25_a_m</parents>
			<probabilities>1 0 0 0 1 0 0 0 1 0 0 0 0 1 0 0 1 0 0 0 0 0 1 0 1 0 0 0 0 0 0 1 0 1 0 0 1 0 0 0 0 1 0 0 0 1 0 0 0 1 0 0 0 0 1 0 0 1 0 0 0 0 0 1 0 0 1 0 1 0 0 0 0 0 1 0 0 1 0 0 0 0 1 0 0 0 1 0 0 0 1 0 0 0 0 1 0 0 0 1 1 0 0 0 0 0 0 1 0 1 0 0 0 0 0 1 0 0 1 0 0 0 0 1 0 0 0 1</probabilities>
		</cpt>
		<cpt id="N54_a_f">
			<state id="x1" label="F510" />
			<state id="x2" label="F511" />
			<state id="x3" label="F512" />
			<state id="x4" label="F513" />
			<parents>N25_a_f N25_a_m Z_54_a_f</parents>
			<probabilities>1 0 0 0 1 0 0 0 1 0 0 0 0 1 0 0 1 0 0 0 0 0 1 0 1 0 0 0 0 0 0 1 0 1 0 0 1 0 0 0 0 1 0 0 0 1 0 0 0 1 0 0 0 0 1 0 0 1 0 0 0 0 0 1 0 0 1 0 1 0 0 0 0 0 1 0 0 1 0 0 0 0 1 0 0 0 1 0 0 0 1 0 0 0 0 1 0 0 0 1 1 0 0 0 0 0 0 1 0 1 0 0 0 0 0 1 0 0 1 0 0 0 0 1 0 0 0 1</probabilities>
		</cpt>
		<cpt id="N10_a_f">
			<state id="x1" label="F514" />
			<state id="x2" label="F515" />
			<state id="x3" label="F516" />
			<state id="x4" label="F517" />
			<parents>N4_a_f N4_a_m Z_10_a_f</parents>
			<probabilities>1 0 0 0 1 0 0 0 1 0 0 0 0 1 0 0 1 0 0 0 0 0 1 0 1 0 0 0 0 0 0 1 0 1 0 0 1 0 0 0 0 1 0 0 0 1 0 0 0 1 0 0 0 0 1 0 0 1 0 0 0 0 0 1 0 0 1 0 1 0 0 0 0 0 1 0 0 1 0 0 0 0 1 0 0 0 1 0 0 0 1 0 0 0 0 1 0 0 0 1 1 0 0 0 0 0 0 1 0 1 0 0 0 0 0 1 0 0 1 0 0 0 0 1 0 0 0 1</probabilities>
		</cpt>
		<cpt id="N10_a_m">
			<state id="x1" label="F518" />
			<state id="x2" label="F519" />
			<state id="x3" label="F520" />
			<state id="x4" label="F521" />
			<parents>N6_a_f N6_a_m Z_10_a_m</parents>
			<probabilities>1 0 0 0 1 0 0 0 1 0 0 0 0 1 0 0 1 0 0 0 0 0 1 0 1 0 0 0 0 0 0 1 0 1 0 0 1 0 0 0 0 1 0 0 0 1 0 0 0 1 0 0 0 0 1 0 0 1 0 0 0 0 0 1 0 0 1 0 1 0 0 0 0 0 1 0 0 1 0 0 0 0 1 0 0 0 1 0 0 0 1 0 0 0 0 1 0 0 0 1 1 0 0 0 0 0 0 1 0 1 0 0 0 0 0 1 0 0 1 0 0 0 0 1 0 0 0 1</probabilities>
		</cpt>
		<cpt id="N23_a_f">
			<state id="x1" label="F522" />
			<state id="x2" label="F523" />
			<state id="x3" label="F524" />
			<state id="x4" label="F525" />
			<parents>N10_a_f N10_a_m Z_23_a_f</parents>
			<probabilities>1 0 0 0 1 0 0 0 1 0 0 0 0 1 0 0 1 0 0 0 0 0 1 0 1 0 0 0 0 0 0 1 0 1 0 0 1 0 0 0 0 1 0 0 0 1 0 0 0 1 0 0 0 0 1 0 0 1 0 0 0 0 0 1 0 0 1 0 1 0 0 0 0 0 1 0 0 1 0 0 0 0 1 0 0 0 1 0 0 0 1 0 0 0 0 1 0 0 0 1 1 0 0 0 0 0 0 1 0 1 0 0 0 0 0 1 0 0 1 0 0 0 0 1 0 0 0 1</probabilities>
		</cpt>
		<cpt id="N15_a_f">
			<state id="x1" label="F526" />
			<state id="x2" label="F527" />
			<state id="x3" label="F528" />
			<state id="x4" label="F529" />
			<probabilities>0.25 0.25 0.25 0.25</probabilities>
		</cpt>
		<cpt id="N15_a_m">
			<state id="x1" label="F530" />
			<state id="x2" label="F531" />
			<state id="x3" label="F532" />
			<state id="x4" label="F533" />
			<probabilities>0.25 0.25 0.25 0.25</probabilities>
		</cpt>
		<cpt id="N23_a_m">
			<state id="x1" label="F534" />
			<state id="x2" label="F535" />
			<state id="x3" label="F536" />
			<state id="x4" label="F537" />
			<parents>N15_a_f N15_a_m Z_23_a_m</parents>
			<probabilities>1 0 0 0 1 0 0 0 1 0 0 0 0 1 0 0 1 0 0 0 0 0 1 0 1 0 0 0 0 0 0 1 0 1 0 0 1 0 0 0 0 1 0 0 0 1 0 0 0 1 0 0 0 0 1 0 0 1 0 0 0 0 0 1 0 0 1 0 1 0 0 0 0 0 1 0 0 1 0 0 0 0 1 0 0 0 1 0 0 0 1 0 0 0 0 1 0 0 0 1 1 0 0 0 0 0 0 1 0 1 0 0 0 0 0 1 0 0 1 0 0 0 0 1 0 0 0 1</probabilities>
		</cpt>
		<cpt id="N54_a_m">
			<state id="x1" label="F538" />
			<state id="x2" label="F539" />
			<state id="x3" label="F540" />
			<state id="x4" label="F541" />
			<parents>N23_a_f N23_a_m Z_54_a_m</parents>
			<probabilities>1 0 0 0 1 0 0 0 1 0 0 0 0 1 0 0 1 0 0 0 0 0 1 0 1 0 0 0 0 0 0 1 0 1 0 0 1 0 0 0 0 1 0 0 0 1 0 0 0 1 0 0 0 0 1 0 0 1 0 0 0 0 0 1 0 0 1 0 1 0 0 0 0 0 1 0 0 1 0 0 0 0 1 0 0 0 1 0 0 0 1 0 0 0 0 1 0 0 0 1 1 0 0 0 0 0 0 1 0 1 0 0 0 0 0 1 0 0 1 0 0 0 0 1 0 0 0 1</probabilities>
		</cpt>
		<cpt id="D0_56_a_f">
			<state id="x1" label="F542" />
			<state id="x2" label="F543" />
			<state id="x3" label="F544" />
			<state id="x4" label="F545" />
			<parents>N54_a_f N54_a_m Z_56_a_f</parents>
			<probabilities>1 0 0 0 1 0 0 0 1 0 0 0 0 1 0 0 1 0 0 0 0 0 1 0 1 0 0 0 0 0 0 1 0 1 0 0 1 0 0 0 0 1 0 0 0 1 0 0 0 1 0 0 0 0 1 0 0 1 0 0 0 0 0 1 0 0 1 0 1 0 0 0 0 0 1 0 0 1 0 0 0 0 1 0 0 0 1 0 0 0 1 0 0 0 0 1 0 0 0 1 1 0 0 0 0 0 0 1 0 1 0 0 0 0 0 1 0 0 1 0 0 0 0 1 0 0 0 1</probabilities>
		</cpt>
		<cpt id="D1_56_a_f">
			<state id="x1" label="F546" />
			<state id="x2" label="F547" />
			<state id="x3" label="F548" />
			<state id="x4" label="F549" />
			<probabilities>0.25 0.25 0.25 0.25</probabilities>
		</cpt>
		<cpt id="Z_57_a_f">
			<state id="f" label="F550" />
			<state id="m" label="F551" />
			<probabilities>0.5 0.5</probabilities>
		</cpt>
		<cpt id="Z_57_d_f">
			<state id="f" label="F552" />
			<state id="m" label="F553" />
			<parents>Z_57_a_f</parents>
			<probabilities>0.67 0.33 0.33 0.67</probabilities>
		</cpt>
		<cpt id="N57_d_f">
			<state id="x1" label="F554" />
			<state id="x2" label="F555" />
			<parents>N54_d_f N54_d_m Z_57_d_f</parents>
			<probabilities>1 0 1 0 1 0 0 1 0 1 1 0 0 1 0 1</probabilities>
		</cpt>
		<cpt id="Z_57_a_m">
			<state id="f" label="F556" />
			<state id="m" label="F557" />
			<probabilities>0.5 0.5</probabilities>
		</cpt>
		<cpt id="Z_57_d_m">
			<state id="f" label="F558" />
			<state id="m" label="F559" />
			<parents>Z_57_a_m</parents>
			<probabilities>0.67 0.33 0.33 0.67</probabilities>
		</cpt>
		<cpt id="N57_d_m">
			<state id="x1" label="F560" />
			<state id="x2" label="F561" />
			<parents>N55_d_f N55_d_m Z_57_d_m</parents>
			<probabilities>1 0 1 0 1 0 0 1 0 1 1 0 0 1 0 1</probabilities>
		</cpt>
		<cpt id="N57_d_g">
			<state id="x1_1" label="F562" />
			<state id="x1_2" label="F563" />
			<state id="x2_2" label="F564" />
			<parents>N57_d_f N57_d_m</parents>
			<probabilities>1 0 0 0 1 0 0 1 0 0 0 1</probabilities>
		</cpt>
		<cpt id="D0_57_d_p">
			<state id="a" label="F565" />
			<state id="n" label="F566" />
			<parents>N57_d_g</parents>
			<probabilities>1 0 0 1 0 1</probabilities>
		</cpt>
		<cpt id="N57_a_f">
			<state id="x1" label="F567" />
			<state id="x2" label="F568" />
			<state id="x3" label="F569" />
			<state id="x4" label="F570" />
			<parents>N54_a_f N54_a_m Z_57_a_f</parents>
			<probabilities>1 0 0 0 1 0 0 0 1 0 0 0 0 1 0 0 1 0 0 0 0 0 1 0 1 0 0 0 0 0 0 1 0 1 0 0 1 0 0 0 0 1 0 0 0 1 0 0 0 1 0 0 0 0 1 0 0 1 0 0 0 0 0 1 0 0 1 0 1 0 0 0 0 0 1 0 0 1 0 0 0 0 1 0 0 0 1 0 0 0 1 0 0 0 0 1 0 0 0 1 1 0 0 0 0 0 0 1 0 1 0 0 0 0 0 1 0 0 1 0 0 0 0 1 0 0 0 1</probabilities>
		</cpt>
		<cpt id="N57_a_m">
			<state id="x1" label="F571" />
			<state id="x2" label="F572" />
			<state id="x3" label="F573" />
			<state id="x4" label="F574" />
			<parents>N55_a_f N55_a_m Z_57_a_m</parents>
			<probabilities>1 0 0 0 1 0 0 0 1 0 0 0 0 1 0 0 1 0 0 0 0 0 1 0 1 0 0 0 0 0 0 1 0 1 0 0 1 0 0 0 0 1 0 0 0 1 0 0 0 1 0 0 0 0 1 0 0 1 0 0 0 0 0 1 0 0 1 0 1 0 0 0 0 0 1 0 0 1 0 0 0 0 1 0 0 0 1 0 0 0 1 0 0 0 0 1 0 0 0 1 1 0 0 0 0 0 0 1 0 1 0 0 0 0 0 1 0 0 1 0 0 0 0 1 0 0 0 1</probabilities>
		</cpt>
		<cpt id="D0_57_a_x">
			<state id="x" label="F575" />
			<state id="y" label="F576" />
			<parents>N57_a_f N57_a_m</parents>
			<probabilities>0 1 0 1 1 0 0 1 0 1 0 1 0 1 0 1 1 0 0 1 0 1 0 1 0 1 0 1 0 1 0 1</probabilities>
		</cpt>
		<cpt id="Z_58_a_f">
			<state id="f" label="F577" />
			<state id="m" label="F578" />
			<probabilities>0.5 0.5</probabilities>
		</cpt>
		<cpt id="Z_58_d_f">
			<state id="f" label="F579" />
			<state id="m" label="F580" />
			<parents>Z_58_a_f</parents>
			<probabilities>0.67 0.33 0.33 0.67</probabilities>
		</cpt>
		<cpt id="N58_d_f">
			<state id="x1" label="F581" />
			<state id="x2" label="F582" />
			<parents>N54_d_f N54_d_m Z_58_d_f</parents>
			<probabilities>1 0 1 0 1 0 0 1 0 1 1 0 0 1 0 1</probabilities>
		</cpt>
		<cpt id="Z_58_a_m">
			<state id="f" label="F583" />
			<state id="m" label="F584" />
			<probabilities>0.5 0.5</probabilities>
		</cpt>
		<cpt id="Z_58_d_m">
			<state id="f" label="F585" />
			<state id="m" label="F586" />
			<parents>Z_58_a_m</parents>
			<probabilities>0.67 0.33 0.33 0.67</probabilities>
		</cpt>
		<cpt id="N58_d_m">
			<state id="x1" label="F587" />
			<state id="x2" label="F588" />
			<parents>N55_d_f N55_d_m Z_58_d_m</parents>
			<probabilities>1 0 1 0 1 0 0 1 0 1 1 0 0 1 0 1</probabilities>
		</cpt>
		<cpt id="N58_d_g">
			<state id="x1_1" label="F589" />
			<state id="x1_2" label="F590" />
			<state id="x2_2" label="F591" />
			<parents>N58_d_f N58_d_m</parents>
			<probabilities>1 0 0 0 1 0 0 1 0 0 0 1</probabilities>
		</cpt>
		<cpt id="D0_58_d_p">
			<state id="a" label="F592" />
			<state id="n" label="F593" />
			<parents>N58_d_g</parents>
			<probabilities>1 0 0 1 0 1</probabilities>
		</cpt>
		<cpt id="N58_a_f">
			<state id="x1" label="F594" />
			<state id="x2" label="F595" />
			<state id="x3" label="F596" />
			<state id="x4" label="F597" />
			<parents>N54_a_f N54_a_m Z_58_a_f</parents>
			<probabilities>1 0 0 0 1 0 0 0 1 0 0 0 0 1 0 0 1 0 0 0 0 0 1 0 1 0 0 0 0 0 0 1 0 1 0 0 1 0 0 0 0 1 0 0 0 1 0 0 0 1 0 0 0 0 1 0 0 1 0 0 0 0 0 1 0 0 1 0 1 0 0 0 0 0 1 0 0 1 0 0 0 0 1 0 0 0 1 0 0 0 1 0 0 0 0 1 0 0 0 1 1 0 0 0 0 0 0 1 0 1 0 0 0 0 0 1 0 0 1 0 0 0 0 1 0 0 0 1</probabilities>
		</cpt>
		<cpt id="N58_a_m">
			<state id="x1" label="F598" />
			<state id="x2" label="F599" />
			<state id="x3" label="F600" />
			<state id="x4" label="F601" />
			<parents>N55_a_f N55_a_m Z_58_a_m</parents>
			<probabilities>1 0 0 0 1 0 0 0 1 0 0 0 0 1 0 0 1 0 0 0 0 0 1 0 1 0 0 0 0 0 0 1 0 1 0 0 1 0 0 0 0 1 0 0 0 1 0 0 0 1 0 0 0 0 1 0 0 1 0 0 0 0 0 1 0 0 1 0 1 0 0 0 0 0 1 0 0 1 0 0 0 0 1 0 0 0 1 0 0 0 1 0 0 0 0 1 0 0 0 1 1 0 0 0 0 0 0 1 0 1 0 0 0 0 0 1 0 0 1 0 0 0 0 1 0 0 0 1</probabilities>
		</cpt>
		<cpt id="D0_58_a_x">
			<state id="x" label="F602" />
			<state id="y" label="F603" />
			<parents>N58_a_f N58_a_m</parents>
			<probabilities>0 1 0 1 0 1 1 0 0 1 0 1 0 1 0 1 0 1 0 1 0 1 0 1 1 0 0 1 0 1 0 1</probabilities>
		</cpt>
		<cpt id="Z_59_a_f">
			<state id="f" label="F604" />
			<state id="m" label="F605" />
			<probabilities>0.5 0.5</probabilities>
		</cpt>
		<cpt id="Z_59_d_f">
			<state id="f" label="F606" />
			<state id="m" label="F607" />
			<parents>Z_59_a_f</parents>
			<probabilities>0.67 0.33 0.33 0.67</probabilities>
		</cpt>
		<cpt id="N59_d_f">
			<state id="x1" label="F608" />
			<state id="x2" label="F609" />
			<parents>N54_d_f N54_d_m Z_59_d_f</parents>
			<probabilities>1 0 1 0 1 0 0 1 0 1 1 0 0 1 0 1</probabilities>
		</cpt>
		<cpt id="Z_59_a_m">
			<state id="f" label="F610" />
			<state id="m" label="F611" />
			<probabilities>0.5 0.5</probabilities>
		</cpt>
		<cpt id="Z_59_d_m">
			<state id="f" label="F612" />
			<state id="m" label="F613" />
			<parents>Z_59_a_m</parents>
			<probabilities>0.67 0.33 0.33 0.67</probabilities>
		</cpt>
		<cpt id="N59_d_m">
			<state id="x1" label="F614" />
			<state id="x2" label="F615" />
			<parents>N55_d_f N55_d_m Z_59_d_m</parents>
			<probabilities>1 0 1 0 1 0 0 1 0 1 1 0 0 1 0 1</probabilities>
		</cpt>
		<cpt id="N59_d_g">
			<state id="x1_1" label="F616" />
			<state id="x1_2" label="F617" />
			<state id="x2_2" label="F618" />
			<parents>N59_d_f N59_d_m</parents>
			<probabilities>1 0 0 0 1 0 0 1 0 0 0 1</probabilities>
		</cpt>
		<cpt id="D0_59_d_p">
			<state id="a" label="F619" />
			<state id="n" label="F620" />
			<parents>N59_d_g</parents>
			<probabilities>1 0 0 1 0 1</probabilities>
		</cpt>
		<cpt id="N59_a_f">
			<state id="x1" label="F621" />
			<state id="x2" label="F622" />
			<state id="x3" label="F623" />
			<state id="x4" label="F624" />
			<parents>N54_a_f N54_a_m Z_59_a_f</parents>
			<probabilities>1 0 0 0 1 0 0 0 1 0 0 0 0 1 0 0 1 0 0 0 0 0 1 0 1 0 0 0 0 0 0 1 0 1 0 0 1 0 0 0 0 1 0 0 0 1 0 0 0 1 0 0 0 0 1 0 0 1 0 0 0 0 0 1 0 0 1 0 1 0 0 0 0 0 1 0 0 1 0 0 0 0 1 0 0 0 1 0 0 0 1 0 0 0 0 1 0 0 0 1 1 0 0 0 0 0 0 1 0 1 0 0 0 0 0 1 0 0 1 0 0 0 0 1 0 0 0 1</probabilities>
		</cpt>
		<cpt id="N59_a_m">
			<state id="x1" label="F625" />
			<state id="x2" label="F626" />
			<state id="x3" label="F627" />
			<state id="x4" label="F628" />
			<parents>N55_a_f N55_a_m Z_59_a_m</parents>
			<probabilities>1 0 0 0 1 0 0 0 1 0 0 0 0 1 0 0 1 0 0 0 0 0 1 0 1 0 0 0 0 0 0 1 0 1 0 0 1 0 0 0 0 1 0 0 0 1 0 0 0 1 0 0 0 0 1 0 0 1 0 0 0 0 0 1 0 0 1 0 1 0 0 0 0 0 1 0 0 1 0 0 0 0 1 0 0 0 1 0 0 0 1 0 0 0 0 1 0 0 0 1 1 0 0 0 0 0 0 1 0 1 0 0 0 0 0 1 0 0 1 0 0 0 0 1 0 0 0 1</probabilities>
		</cpt>
		<cpt id="D0_59_a_x">
			<state id="x" label="F629" />
			<state id="y" label="F630" />
			<parents>N59_a_f N59_a_m</parents>
			<probabilities>0 1 0 1 0 1 0 1 0 1 0 1 0 1 0 1 0 1 0 1 0 1 1 0 0 1 0 1 1 0 0 1</probabilities>
		</cpt>
		<cpt id="N54_d_g">
			<state id="x1_1" label="F631" />
			<state id="x1_2" label="F632" />
			<state id="x2_2" label="F633" />
			<parents>N54_d_f N54_d_m</parents>
			<probabilities>1 0 0 0 1 0 0 1 0 0 0 1</probabilities>
		</cpt>
		<cpt id="D0_54_d_p">
			<state id="a" label="F634" />
			<state id="n" label="F635" />
			<parents>N54_d_g</parents>
			<probabilities>1 0 0 1 0 1</probabilities>
		</cpt>
		<cpt id="D0_54_a_x">
			<state id="x" label="F636" />
			<state id="y" label="F637" />
			<parents>N54_a_f N54_a_m</parents>
			<probabilities>0 1 0 1 1 0 0 1 0 1 0 1 0 1 0 1 1 0 0 1 0 1 0 1 0 1 0 1 0 1 0 1</probabilities>
		</cpt>
		<cpt id="N25_d_g">
			<state id="x1_1" label="F638" />
			<state id="x1_2" label="F639" />
			<state id="x2_2" label="F640" />
			<parents>N25_d_f N25_d_m</parents>
			<probabilities>1 0 0 0 1 0 0 1 0 0 0 1</probabilities>
		</cpt>
		<cpt id="D0_25_d_p">
			<state id="a" label="F641" />
			<state id="n" label="F642" />
			<parents>N25_d_g</parents>
			<probabilities>1 0 0 1 0 1</probabilities>
		</cpt>
		<cpt id="D0_25_a_x">
			<state id="x" label="F643" />
			<state id="y" label="F644" />
			<parents>N25_a_f N25_a_m</parents>
			<probabilities>0 1 0 1 0 1 0 1 0 1 0 1 1 0 0 1 0 1 1 0 0 1 0 1 0 1 0 1 0 1 0 1</probabilities>
		</cpt>
		<cpt id="N73_d_g">
			<state id="x1_1" label="F645" />
			<state id="x1_2" label="F646" />
			<state id="x2_2" label="F647" />
			<parents>N73_d_f N73_d_m</parents>
			<probabilities>1 0 0 0 1 0 0 1 0 0 0 1</probabilities>
		</cpt>
		<cpt id="D0_73_d_p">
			<state id="a" label="F648" />
			<state id="n" label="F649" />
			<parents>N73_d_g</parents>
			<probabilities>1 0 0 1 0 1</probabilities>
		</cpt>
		<cpt id="N72_d_g">
			<state id="x1_1" label="F650" />
			<state id="x1_2" label="F651" />
			<state id="x2_2" label="F652" />
			<parents>N72_d_f N72_d_m</parents>
			<probabilities>1 0 0 0 1 0 0 1 0 0 0 1</probabilities>
		</cpt>
		<cpt id="D0_72_d_p">
			<state id="a" label="F653" />
			<state id="n" label="F654" />
			<parents>N72_d_g</parents>
			<probabilities>1 0 0 1 0 1</probabilities>
		</cpt>
		<cpt id="N55_d_g">
			<state id="x1_1" label="F655" />
			<state id="x1_2" label="F656" />
			<state id="x2_2" label="F657" />
			<parents>N55_d_f N55_d_m</parents>
			<probabilities>1 0 0 0 1 0 0 1 0 0 0 1</probabilities>
		</cpt>
		<cpt id="D0_55_d_p">
			<state id="a" label="F658" />
			<state id="n" label="F659" />
			<parents>N55_d_g</parents>
			<probabilities>1 0 0 1 0 1</probabilities>
		</cpt>
		<cpt id="D0_55_a_x">
			<state id="x" label="F660" />
			<state id="y" label="F661" />
			<parents>N55_a_f N55_a_m</parents>
			<probabilities>0 1 0 1 0 1 1 0 0 1 0 1 0 1 0 1 0 1 0 1 0 1 0 1 1 0 0 1 0 1 0 1</probabilities>
		</cpt>
		<cpt id="N26_d_g">
			<state id="x1_1" label="F662" />
			<state id="x1_2" label="F663" />
			<state id="x2_2" label="F664" />
			<parents>N26_d_f N26_d_m</parents>
			<probabilities>1 0 0 0 1 0 0 1 0 0 0 1</probabilities>
		</cpt>
		<cpt id="D0_26_d_p">
			<state id="a" label="F665" />
			<state id="n" label="F666" />
			<parents>N26_d_g</parents>
			<probabilities>1 0 0 1 0 1</probabilities>
		</cpt>
		<cpt id="D0_26_a_x">
			<state id="x" label="F667" />
			<state id="y" label="F668" />
			<parents>N26_a_f N26_a_m</parents>
			<probabilities>0 1 0 1 0 1 0 1 0 1 0 1 0 1 1 0 0 1 0 1 0 1 0 1 0 1 1 0 0 1 0 1</probabilities>
		</cpt>
		<cpt id="N71_d_g">
			<state id="x1_1" label="F669" />
			<state id="x1_2" label="F670" />
			<state id="x2_2" label="F671" />
			<parents>N71_d_f N71_d_m</parents>
			<probabilities>1 0 0 0 1 0 0 1 0 0 0 1</probabilities>
		</cpt>
		<cpt id="D0_71_d_p">
			<state id="a" label="F672" />
			<state id="n" label="F673" />
			<parents>N71_d_g</parents>
			<probabilities>1 0 0 1 0 1</probabilities>
		</cpt>
		<cpt id="N70_d_g">
			<state id="x1_1" label="F674" />
			<state id="x1_2" label="F675" />
			<state id="x2_2" label="F676" />
			<parents>N70_d_f N70_d_m</parents>
			<probabilities>1 0 0 0 1 0 0 1 0 0 0 1</probabilities>
		</cpt>
		<cpt id="D0_70_d_p">
			<state id="a" label="F677" />
			<state id="n" label="F678" />
			<parents>N70_d_g</parents>
			<probabilities>1 0 0 1 0 1</probabilities>
		</cpt>
		<cpt id="N69_d_g">
			<state id="x1_1" label="F679" />
			<state id="x1_2" label="F680" />
			<state id="x2_2" label="F681" />
			<parents>N69_d_f N69_d_m</parents>
			<probabilities>1 0 0 0 1 0 0 1 0 0 0 1</probabilities>
		</cpt>
		<cpt id="D0_69_d_p">
			<state id="a" label="F682" />
			<state id="n" label="F683" />
			<parents>N69_d_g</parents>
			<probabilities>1 0 0 1 0 1</probabilities>
		</cpt>
		<cpt id="N68_d_g">
			<state id="x1_1" label="F684" />
			<state id="x1_2" label="F685" />
			<state id="x2_2" label="F686" />
			<parents>N68_d_f N68_d_m</parents>
			<probabilities>1 0 0 0 1 0 0 1 0 0 0 1</probabilities>
		</cpt>
		<cpt id="D0_68_d_p">
			<state id="a" label="F687" />
			<state id="n" label="F688" />
			<parents>N68_d_g</parents>
			<probabilities>1 0 0 1 0 1</probabilities>
		</cpt>
		<cpt id="N67_d_g">
			<state id="x1_1" label="F689" />
			<state id="x1_2" label="F690" />
			<state id="x2_2" label="F691" />
			<parents>N67_d_f N67_d_m</parents>
			<probabilities>1 0 0 0 1 0 0 1 0 0 0 1</probabilities>
		</cpt>
		<cpt id="D0_67_d_p">
			<state id="a" label="F692" />
			<state id="n" label="F693" />
			<parents>N67_d_g</parents>
			<probabilities>1 0 0 1 0 1</probabilities>
		</cpt>
		<cpt id="N66_d_g">
			<state id="x1_1" label="F694" />
			<state id="x1_2" label="F695" />
			<state id="x2_2" label="F696" />
			<parents>N66_d_f N66_d_m</parents>
			<probabilities>1 0 0 0 1 0 0 1 0 0 0 1</probabilities>
		</cpt>
		<cpt id="D0_66_d_p">
			<state id="a" label="F697" />
			<state id="n" label="F698" />
			<parents>N66_d_g</parents>
			<probabilities>1 0 0 1 0 1</probabilities>
		</cpt>
		<cpt id="N65_d_g">
			<state id="x1_1" label="F699" />
			<state id="x1_2" label="F700" />
			<state id="x2_2" label="F701" />
			<parents>N65_d_f N65_d_m</parents>
			<probabilities>1 0 0 0 1 0 0 1 0 0 0 1</probabilities>
		</cpt>
		<cpt id="D0_65_d_p">
			<state id="a" label="F702" />
			<state id="n" label="F703" />
			<parents>N65_d_g</parents>
			<probabilities>1 0 0 1 0 1</probabilities>
		</cpt>
		<cpt id="N64_d_g">
			<state id="x1_1" label="F704" />
			<state id="x1_2" label="F705" />
			<state id="x2_2" label="F706" />
			<parents>N64_d_f N64_d_m</parents>
			<probabilities>1 0 0 0 1 0 0 1 0 0 0 1</probabilities>
		</cpt>
		<cpt id="D0_64_d_p">
			<state id="a" label="F707" />
			<state id="n" label="F708" />
			<parents>N64_d_g</parents>
			<probabilities>1 0 0 1 0 1</probabilities>
		</cpt>
		<cpt id="N12_d_f">
			<state id="x1" label="F709" />
			<state id="x2" label="F710" />
			<probabilities>0.005000000000000001 0.995</probabilities>
		</cpt>
		<cpt id="N12_d_m">
			<state id="x1" label="F711" />
			<state id="x2" label="F712" />
			<probabilities>0.005000000000000001 0.995</probabilities>
		</cpt>
		<cpt id="Z_17_a_f">
			<state id="f" label="F713" />
			<state id="m" label="F714" />
			<probabilities>0.5 0.5</probabilities>
		</cpt>
		<cpt id="Z_17_d_f">
			<state id="f" label="F715" />
			<state id="m" label="F716" />
			<parents>Z_17_a_f</parents>
			<probabilities>0.67 0.33 0.33 0.67</probabilities>
		</cpt>
		<cpt id="N17_d_f">
			<state id="x1" label="F717" />
			<state id="x2" label="F718" />
			<parents>N12_d_f N12_d_m Z_17_d_f</parents>
			<probabilities>1 0 1 0 1 0 0 1 0 1 1 0 0 1 0 1</probabilities>
		</cpt>
		<cpt id="Z_7_a_f">
			<state id="f" label="F719" />
			<state id="m" label="F720" />
			<probabilities>0.5 0.5</probabilities>
		</cpt>
		<cpt id="Z_7_d_f">
			<state id="f" label="F721" />
			<state id="m" label="F722" />
			<parents>Z_7_a_f</parents>
			<probabilities>0.67 0.33 0.33 0.67</probabilities>
		</cpt>
		<cpt id="N7_d_f">
			<state id="x1" label="F723" />
			<state id="x2" label="F724" />
			<parents>N5_d_f N5_d_m Z_7_d_f</parents>
			<probabilities>1 0 1 0 1 0 0 1 0 1 1 0 0 1 0 1</probabilities>
		</cpt>
		<cpt id="Z_7_a_m">
			<state id="f" label="F725" />
			<state id="m" label="F726" />
			<probabilities>0.5 0.5</probabilities>
		</cpt>
		<cpt id="Z_7_d_m">
			<state id="f" label="F727" />
			<state id="m" label="F728" />
			<parents>Z_7_a_m</parents>
			<probabilities>0.67 0.33 0.33 0.67</probabilities>
		</cpt>
		<cpt id="N7_d_m">
			<state id="x1" label="F729" />
			<state id="x2" label="F730" />
			<parents>N3_d_f N3_d_m Z_7_d_m</parents>
			<probabilities>1 0 1 0 1 0 0 1 0 1 1 0 0 1 0 1</probabilities>
		</cpt>
		<cpt id="Z_17_a_m">
			<state id="f" label="F731" />
			<state id="m" label="F732" />
			<probabilities>0.5 0.5</probabilities>
		</cpt>
		<cpt id="Z_17_d_m">
			<state id="f" label="F733" />
			<state id="m" label="F734" />
			<parents>Z_17_a_m</parents>
			<probabilities>0.67 0.33 0.33 0.67</probabilities>
		</cpt>
		<cpt id="N17_d_m">
			<state id="x1" label="F735" />
			<state id="x2" label="F736" />
			<parents>N7_d_f N7_d_m Z_17_d_m</parents>
			<probabilities>1 0 1 0 1 0 0 1 0 1 1 0 0 1 0 1</probabilities>
		</cpt>
		<cpt id="Z_27_a_f">
			<state id="f" label="F737" />
			<state id="m" label="F738" />
			<probabilities>0.5 0.5</probabilities>
		</cpt>
		<cpt id="Z_27_d_f">
			<state id="f" label="F739" />
			<state id="m" label="F740" />
			<parents>Z_27_a_f</parents>
			<probabilities>0.67 0.33 0.33 0.67</probabilities>
		</cpt>
		<cpt id="N27_d_f">
			<state id="x1" label="F741" />
			<state id="x2" label="F742" />
			<parents>N17_d_f N17_d_m Z_27_d_f</parents>
			<probabilities>1 0 1 0 1 0 0 1 0 1 1 0 0 1 0 1</probabilities>
		</cpt>
		<cpt id="Z_9_a_f">
			<state id="f" label="F743" />
			<state id="m" label="F744" />
			<probabilities>0.5 0.5</probabilities>
		</cpt>
		<cpt id="Z_9_d_f">
			<state id="f" label="F745" />
			<state id="m" label="F746" />
			<parents>Z_9_a_f</parents>
			<probabilities>0.67 0.33 0.33 0.67</probabilities>
		</cpt>
		<cpt id="N9_d_f">
			<state id="x1" label="F747" />
			<state id="x2" label="F748" />
			<parents>N4_d_f N4_d_m Z_9_d_f</parents>
			<probabilities>1 0 1 0 1 0 0 1 0 1 1 0 0 1 0 1</probabilities>
		</cpt>
		<cpt id="Z_9_a_m">
			<state id="f" label="F749" />
			<state id="m" label="F750" />
			<probabilities>0.5 0.5</probabilities>
		</cpt>
		<cpt id="Z_9_d_m">
			<state id="f" label="F751" />
			<state id="m" label="F752" />
			<parents>Z_9_a_m</parents>
			<probabilities>0.67 0.33 0.33 0.67</probabilities>
		</cpt>
		<cpt id="N9_d_m">
			<state id="x1" label="F753" />
			<state id="x2" label="F754" />
			<parents>N6_d_f N6_d_m Z_9_d_m</parents>
			<probabilities>1 0 1 0 1 0 0 1 0 1 1 0 0 1 0 1</probabilities>
		</cpt>
		<cpt id="Z_19_a_f">
			<state id="f" label="F755" />
			<state id="m" label="F756" />
			<probabilities>0.5 0.5</probabilities>
		</cpt>
		<cpt id="Z_19_d_f">
			<state id="f" label="F757" />
			<state id="m" label="F758" />
			<parents>Z_19_a_f</parents>
			<probabilities>0.67 0.33 0.33 0.67</probabilities>
		</cpt>
		<cpt id="N19_d_f">
			<state id="x1" label="F759" />
			<state id="x2" label="F760" />
			<parents>N9_d_f N9_d_m Z_19_d_f</parents>
			<probabilities>1 0 1 0 1 0 0 1 0 1 1 0 0 1 0 1</probabilities>
		</cpt>
		<cpt id="N13_d_f">
			<state id="x1" label="F761" />
			<state id="x2" label="F762" />
			<probabilities>0.005000000000000001 0.995</probabilities>
		</cpt>
		<cpt id="N13_d_m">
			<state id="x1" label="F763" />
			<state id="x2" label="F764" />
			<probabilities>0.005000000000000001 0.995</probabilities>
		</cpt>
		<cpt id="Z_19_a_m">
			<state id="f" label="F765" />
			<state id="m" label="F766" />
			<probabilities>0.5 0.5</probabilities>
		</cpt>
		<cpt id="Z_19_d_m">
			<state id="f" label="F767" />
			<state id="m" label="F768" />
			<parents>Z_19_a_m</parents>
			<probabilities>0.67 0.33 0.33 0.67</probabilities>
		</cpt>
		<cpt id="N19_d_m">
			<state id="x1" label="F769" />
			<state id="x2" label="F770" />
			<parents>N13_d_f N13_d_m Z_19_d_m</parents>
			<probabilities>1 0 1 0 1 0 0 1 0 1 1 0 0 1 0 1</probabilities>
		</cpt>
		<cpt id="Z_27_a_m">
			<state id="f" label="F771" />
			<state id="m" label="F772" />
			<probabilities>0.5 0.5</probabilities>
		</cpt>
		<cpt id="Z_27_d_m">
			<state id="f" label="F773" />
			<state id="m" label="F774" />
			<parents>Z_27_a_m</parents>
			<probabilities>0.67 0.33 0.33 0.67</probabilities>
		</cpt>
		<cpt id="N27_d_m">
			<state id="x1" label="F775" />
			<state id="x2" label="F776" />
			<parents>N19_d_f N19_d_m Z_27_d_m</parents>
			<probabilities>1 0 1 0 1 0 0 1 0 1 1 0 0 1 0 1</probabilities>
		</cpt>
		<cpt id="N27_d_g">
			<state id="x1_1" label="F777" />
			<state id="x1_2" label="F778" />
			<state id="x2_2" label="F779" />
			<parents>N27_d_f N27_d_m</parents>
			<probabilities>1 0 0 0 1 0 0 1 0 0 0 1</probabilities>
		</cpt>
		<cpt id="D0_27_d_p">
			<state id="a" label="F780" />
			<state id="n" label="F781" />
			<parents>N27_d_g</parents>
			<probabilities>1 0 0 1 0 1</probabilities>
		</cpt>
		<cpt id="N9_a_f">
			<state id="x1" label="F782" />
			<state id="x2" label="F783" />
			<state id="x3" label="F784" />
			<state id="x4" label="F785" />
			<parents>N4_a_f N4_a_m Z_9_a_f</parents>
			<probabilities>1 0 0 0 1 0 0 0 1 0 0 0 0 1 0 0 1 0 0 0 0 0 1 0 1 0 0 0 0 0 0 1 0 1 0 0 1 0 0 0 0 1 0 0 0 1 0 0 0 1 0 0 0 0 1 0 0 1 0 0 0 0 0 1 0 0 1 0 1 0 0 0 0 0 1 0 0 1 0 0 0 0 1 0 0 0 1 0 0 0 1 0 0 0 0 1 0 0 0 1 1 0 0 0 0 0 0 1 0 1 0 0 0 0 0 1 0 0 1 0 0 0 0 1 0 0 0 1</probabilities>
		</cpt>
		<cpt id="N9_a_m">
			<state id="x1" label="F786" />
			<state id="x2" label="F787" />
			<state id="x3" label="F788" />
			<state id="x4" label="F789" />
			<parents>N6_a_f N6_a_m Z_9_a_m</parents>
			<probabilities>1 0 0 0 1 0 0 0 1 0 0 0 0 1 0 0 1 0 0 0 0 0 1 0 1 0 0 0 0 0 0 1 0 1 0 0 1 0 0 0 0 1 0 0 0 1 0 0 0 1 0 0 0 0 1 0 0 1 0 0 0 0 0 1 0 0 1 0 1 0 0 0 0 0 1 0 0 1 0 0 0 0 1 0 0 0 1 0 0 0 1 0 0 0 0 1 0 0 0 1 1 0 0 0 0 0 0 1 0 1 0 0 0 0 0 1 0 0 1 0 0 0 0 1 0 0 0 1</probabilities>
		</cpt>
		<cpt id="N19_a_f">
			<state id="x1" label="F790" />
			<state id="x2" label="F791" />
			<state id="x3" label="F792" />
			<state id="x4" label="F793" />
			<parents>N9_a_f N9_a_m Z_19_a_f</parents>
			<probabilities>1 0 0 0 1 0 0 0 1 0 0 0 0 1 0 0 1 0 0 0 0 0 1 0 1 0 0 0 0 0 0 1 0 1 0 0 1 0 0 0 0 1 0 0 0 1 0 0 0 1 0 0 0 0 1 0 0 1 0 0 0 0 0 1 0 0 1 0 1 0 0 0 0 0 1 0 0 1 0 0 0 0 1 0 0 0 1 0 0 0 1 0 0 0 0 1 0 0 0 1 1 0 0 0 0 0 0 1 0 1 0 0 0 0 0 1 0 0 1 0 0 0 0 1 0 0 0 1</probabilities>
		</cpt>
		<cpt id="N13_a_f">
			<state id="x1" label="F794" />
			<state id="x2" label="F795" />
			<state id="x3" label="F796" />
			<state id="x4" label="F797" />
			<probabilities>0.25 0.25 0.25 0.25</probabilities>
		</cpt>
		<cpt id="N13_a_m">
			<state id="x1" label="F798" />
			<state id="x2" label="F799" />
			<state id="x3" label="F800" />
			<state id="x4" label="F801" />
			<probabilities>0.25 0.25 0.25 0.25</probabilities>
		</cpt>
		<cpt id="N19_a_m">
			<state id="x1" label="F802" />
			<state id="x2" label="F803" />
			<state id="x3" label="F804" />
			<state id="x4" label="F805" />
			<parents>N13_a_f N13_a_m Z_19_a_m</parents>
			<probabilities>1 0 0 0 1 0 0 0 1 0 0 0 0 1 0 0 1 0 0 0 0 0 1 0 1 0 0 0 0 0 0 1 0 1 0 0 1 0 0 0 0 1 0 0 0 1 0 0 0 1 0 0 0 0 1 0 0 1 0 0 0 0 0 1 0 0 1 0 1 0 0 0 0 0 1 0 0 1 0 0 0 0 1 0 0 0 1 0 0 0 1 0 0 0 0 1 0 0 0 1 1 0 0 0 0 0 0 1 0 1 0 0 0 0 0 1 0 0 1 0 0 0 0 1 0 0 0 1</probabilities>
		</cpt>
		<cpt id="D0_27_a_m">
			<state id="x1" label="F806" />
			<state id="x2" label="F807" />
			<state id="x3" label="F808" />
			<state id="x4" label="F809" />
			<parents>N19_a_f N19_a_m Z_27_a_m</parents>
			<probabilities>1 0 0 0 1 0 0 0 1 0 0 0 0 1 0 0 1 0 0 0 0 0 1 0 1 0 0 0 0 0 0 1 0 1 0 0 1 0 0 0 0 1 0 0 0 1 0 0 0 1 0 0 0 0 1 0 0 1 0 0 0 0 0 1 0 0 1 0 1 0 0 0 0 0 1 0 0 1 0 0 0 0 1 0 0 0 1 0 0 0 1 0 0 0 0 1 0 0 0 1 1 0 0 0 0 0 0 1 0 1 0 0 0 0 0 1 0 0 1 0 0 0 0 1 0 0 0 1</probabilities>
		</cpt>
		<cpt id="D1_27_a_m">
			<state id="x1" label="F810" />
			<state id="x2" label="F811" />
			<state id="x3" label="F812" />
			<state id="x4" label="F813" />
			<probabilities>0.25 0.25 0.25 0.25</probabilities>
		</cpt>
		<cpt id="N12_a_f">
			<state id="x1" label="F814" />
			<state id="x2" label="F815" />
			<state id="x3" label="F816" />
			<state id="x4" label="F817" />
			<probabilities>0.25 0.25 0.25 0.25</probabilities>
		</cpt>
		<cpt id="N12_a_m">
			<state id="x1" label="F818" />
			<state id="x2" label="F819" />
			<state id="x3" label="F820" />
			<state id="x4" label="F821" />
			<probabilities>0.25 0.25 0.25 0.25</probabilities>
		</cpt>
		<cpt id="N17_a_f">
			<state id="x1" label="F822" />
			<state id="x2" label="F823" />
			<state id="x3" label="F824" />
			<state id="x4" label="F825" />
			<parents>N12_a_f N12_a_m Z_17_a_f</parents>
			<probabilities>1 0 0 0 1 0 0 0 1 0 0 0 0 1 0 0 1 0 0 0 0 0 1 0 1 0 0 0 0 0 0 1 0 1 0 0 1 0 0 0 0 1 0 0 0 1 0 0 0 1 0 0 0 0 1 0 0 1 0 0 0 0 0 1 0 0 1 0 1 0 0 0 0 0 1 0 0 1 0 0 0 0 1 0 0 0 1 0 0 0 1 0 0 0 0 1 0 0 0 1 1 0 0 0 0 0 0 1 0 1 0 0 0 0 0 1 0 0 1 0 0 0 0 1 0 0 0 1</probabilities>
		</cpt>
		<cpt id="N7_a_f">
			<state id="x1" label="F826" />
			<state id="x2" label="F827" />
			<state id="x3" label="F828" />
			<state id="x4" label="F829" />
			<parents>N5_a_f N5_a_m Z_7_a_f</parents>
			<probabilities>1 0 0 0 1 0 0 0 1 0 0 0 0 1 0 0 1 0 0 0 0 0 1 0 1 0 0 0 0 0 0 1 0 1 0 0 1 0 0 0 0 1 0 0 0 1 0 0 0 1 0 0 0 0 1 0 0 1 0 0 0 0 0 1 0 0 1 0 1 0 0 0 0 0 1 0 0 1 0 0 0 0 1 0 0 0 1 0 0 0 1 0 0 0 0 1 0 0 0 1 1 0 0 0 0 0 0 1 0 1 0 0 0 0 0 1 0 0 1 0 0 0 0 1 0 0 0 1</probabilities>
		</cpt>
		<cpt id="N7_a_m">
			<state id="x1" label="F830" />
			<state id="x2" label="F831" />
			<state id="x3" label="F832" />
			<state id="x4" label="F833" />
			<parents>N3_a_f N3_a_m Z_7_a_m</parents>
			<probabilities>1 0 0 0 1 0 0 0 1 0 0 0 0 1 0 0 1 0 0 0 0 0 1 0 1 0 0 0 0 0 0 1 0 1 0 0 1 0 0 0 0 1 0 0 0 1 0 0 0 1 0 0 0 0 1 0 0 1 0 0 0 0 0 1 0 0 1 0 1 0 0 0 0 0 1 0 0 1 0 0 0 0 1 0 0 0 1 0 0 0 1 0 0 0 0 1 0 0 0 1 1 0 0 0 0 0 0 1 0 1 0 0 0 0 0 1 0 0 1 0 0 0 0 1 0 0 0 1</probabilities>
		</cpt>
		<cpt id="N17_a_m">
			<state id="x1" label="F834" />
			<state id="x2" label="F835" />
			<state id="x3" label="F836" />
			<state id="x4" label="F837" />
			<parents>N7_a_f N7_a_m Z_17_a_m</parents>
			<probabilities>1 0 0 0 1 0 0 0 1 0 0 0 0 1 0 0 1 0 0 0 0 0 1 0 1 0 0 0 0 0 0 1 0 1 0 0 1 0 0 0 0 1 0 0 0 1 0 0 0 1 0 0 0 0 1 0 0 1 0 0 0 0 0 1 0 0 1 0 1 0 0 0 0 0 1 0 0 1 0 0 0 0 1 0 0 0 1 0 0 0 1 0 0 0 0 1 0 0 0 1 1 0 0 0 0 0 0 1 0 1 0 0 0 0 0 1 0 0 1 0 0 0 0 1 0 0 0 1</probabilities>
		</cpt>
		<cpt id="D0_27_a_f">
			<state id="x1" label="F838" />
			<state id="x2" label="F839" />
			<state id="x3" label="F840" />
			<state id="x4" label="F841" />
			<parents>N17_a_f N17_a_m Z_27_a_f</parents>
			<probabilities>1 0 0 0 1 0 0 0 1 0 0 0 0 1 0 0 1 0 0 0 0 0 1 0 1 0 0 0 0 0 0 1 0 1 0 0 1 0 0 0 0 1 0 0 0 1 0 0 0 1 0 0 0 0 1 0 0 1 0 0 0 0 0 1 0 0 1 0 1 0 0 0 0 0 1 0 0 1 0 0 0 0 1 0 0 0 1 0 0 0 1 0 0 0 0 1 0 0 0 1 1 0 0 0 0 0 0 1 0 1 0 0 0 0 0 1 0 0 1 0 0 0 0 1 0 0 0 1</probabilities>
		</cpt>
		<cpt id="D1_27_a_f">
			<state id="x1" label="F842" />
			<state id="x2" label="F843" />
			<state id="x3" label="F844" />
			<state id="x4" label="F845" />
			<probabilities>0.25 0.25 0.25 0.25</probabilities>
		</cpt>
		<cpt id="Z_28_a_f">
			<state id="f" label="F846" />
			<state id="m" label="F847" />
			<probabilities>0.5 0.5</probabilities>
		</cpt>
		<cpt id="Z_28_d_f">
			<state id="f" label="F848" />
			<state id="m" label="F849" />
			<parents>Z_28_a_f</parents>
			<probabilities>0.67 0.33 0.33 0.67</probabilities>
		</cpt>
		<cpt id="N28_d_f">
			<state id="x1" label="F850" />
			<state id="x2" label="F851" />
			<parents>N17_d_f N17_d_m Z_28_d_f</parents>
			<probabilities>1 0 1 0 1 0 0 1 0 1 1 0 0 1 0 1</probabilities>
		</cpt>
		<cpt id="Z_28_a_m">
			<state id="f" label="F852" />
			<state id="m" label="F853" />
			<probabilities>0.5 0.5</probabilities>
		</cpt>
		<cpt id="Z_28_d_m">
			<state id="f" label="F854" />
			<state id="m" label="F855" />
			<parents>Z_28_a_m</parents>
			<probabilities>0.67 0.33 0.33 0.67</probabilities>
		</cpt>
		<cpt id="N28_d_m">
			<state id="x1" label="F856" />
			<state id="x2" label="F857" />
			<parents>N19_d_f N19_d_m Z_28_d_m</parents>
			<probabilities>1 0 1 0 1 0 0 1 0 1 1 0 0 1 0 1</probabilities>
		</cpt>
		<cpt id="N28_d_g">
			<state id="x1_1" label="F858" />
			<state id="x1_2" label="F859" />
			<state id="x2_2" label="F860" />
			<parents>N28_d_f N28_d_m</parents>
			<probabilities>1 0 0 0 1 0 0 1 0 0 0 1</probabilities>
		</cpt>
		<cpt id="D0_28_d_p">
			<state id="a" label="F861" />
			<state id="n" label="F862" />
			<parents>N28_d_g</parents>
			<probabilities>1 0 0 1 0 1</probabilities>
		</cpt>
		<cpt id="D0_28_a_m">
			<state id="x1" label="F863" />
			<state id="x2" label="F864" />
			<state id="x3" label="F865" />
			<state id="x4" label="F866" />
			<parents>N19_a_f N19_a_m Z_28_a_m</parents>
			<probabilities>1 0 0 0 1 0 0 0 1 0 0 0 0 1 0 0 1 0 0 0 0 0 1 0 1 0 0 0 0 0 0 1 0 1 0 0 1 0 0 0 0 1 0 0 0 1 0 0 0 1 0 0 0 0 1 0 0 1 0 0 0 0 0 1 0 0 1 0 1 0 0 0 0 0 1 0 0 1 0 0 0 0 1 0 0 0 1 0 0 0 1 0 0 0 0 1 0 0 0 1 1 0 0 0 0 0 0 1 0 1 0 0 0 0 0 1 0 0 1 0 0 0 0 1 0 0 0 1</probabilities>
		</cpt>
		<cpt id="D1_28_a_m">
			<state id="x1" label="F867" />
			<state id="x2" label="F868" />
			<state id="x3" label="F869" />
			<state id="x4" label="F870" />
			<probabilities>0.25 0.25 0.25 0.25</probabilities>
		</cpt>
		<cpt id="D0_28_a_f">
			<state id="x1" label="F871" />
			<state id="x2" label="F872" />
			<state id="x3" label="F873" />
			<state id="x4" label="F874" />
			<parents>N17_a_f N17_a_m Z_28_a_f</parents>
			<probabilities>1 0 0 0 1 0 0 0 1 0 0 0 0 1 0 0 1 0 0 0 0 0 1 0 1 0 0 0 0 0 0 1 0 1 0 0 1 0 0 0 0 1 0 0 0 1 0 0 0 1 0 0 0 0 1 0 0 1 0 0 0 0 0 1 0 0 1 0 1 0 0 0 0 0 1 0 0 1 0 0 0 0 1 0 0 0 1 0 0 0 1 0 0 0 0 1 0 0 0 1 1 0 0 0 0 0 0 1 0 1 0 0 0 0 0 1 0 0 1 0 0 0 0 1 0 0 0 1</probabilities>
		</cpt>
		<cpt id="D1_28_a_f">
			<state id="x1" label="F875" />
			<state id="x2" label="F876" />
			<state id="x3" label="F877" />
			<state id="x4" label="F878" />
			<probabilities>0.25 0.25 0.25 0.25</probabilities>
		</cpt>
		<cpt id="Z_29_a_f">
			<state id="f" label="F879" />
			<state id="m" label="F880" />
			<probabilities>0.5 0.5</probabilities>
		</cpt>
		<cpt id="Z_29_d_f">
			<state id="f" label="F881" />
			<state id="m" label="F882" />
			<parents>Z_29_a_f</parents>
			<probabilities>0.67 0.33 0.33 0.67</probabilities>
		</cpt>
		<cpt id="N29_d_f">
			<state id="x1" label="F883" />
			<state id="x2" label="F884" />
			<parents>N17_d_f N17_d_m Z_29_d_f</parents>
			<probabilities>1 0 1 0 1 0 0 1 0 1 1 0 0 1 0 1</probabilities>
		</cpt>
		<cpt id="Z_29_a_m">
			<state id="f" label="F885" />
			<state id="m" label="F886" />
			<probabilities>0.5 0.5</probabilities>
		</cpt>
		<cpt id="Z_29_d_m">
			<state id="f" label="F887" />
			<state id="m" label="F888" />
			<parents>Z_29_a_m</parents>
			<probabilities>0.67 0.33 0.33 0.67</probabilities>
		</cpt>
		<cpt id="N29_d_m">
			<state id="x1" label="F889" />
			<state id="x2" label="F890" />
			<parents>N19_d_f N19_d_m Z_29_d_m</parents>
			<probabilities>1 0 1 0 1 0 0 1 0 1 1 0 0 1 0 1</probabilities>
		</cpt>
		<cpt id="N29_d_g">
			<state id="x1_1" label="F891" />
			<state id="x1_2" label="F892" />
			<state id="x2_2" label="F893" />
			<parents>N29_d_f N29_d_m</parents>
			<probabilities>1 0 0 0 1 0 0 1 0 0 0 1</probabilities>
		</cpt>
		<cpt id="D0_29_d_p">
			<state id="a" label="F894" />
			<state id="n" label="F895" />
			<parents>N29_d_g</parents>
			<probabilities>1 0 0 1 0 1</probabilities>
		</cpt>
		<cpt id="N29_a_f">
			<state id="x1" label="F896" />
			<state id="x2" label="F897" />
			<state id="x3" label="F898" />
			<state id="x4" label="F899" />
			<parents>N17_a_f N17_a_m Z_29_a_f</parents>
			<probabilities>1 0 0 0 1 0 0 0 1 0 0 0 0 1 0 0 1 0 0 0 0 0 1 0 1 0 0 0 0 0 0 1 0 1 0 0 1 0 0 0 0 1 0 0 0 1 0 0 0 1 0 0 0 0 1 0 0 1 0 0 0 0 0 1 0 0 1 0 1 0 0 0 0 0 1 0 0 1 0 0 0 0 1 0 0 0 1 0 0 0 1 0 0 0 0 1 0 0 0 1 1 0 0 0 0 0 0 1 0 1 0 0 0 0 0 1 0 0 1 0 0 0 0 1 0 0 0 1</probabilities>
		</cpt>
		<cpt id="N29_a_m">
			<state id="x1" label="F900" />
			<state id="x2" label="F901" />
			<state id="x3" label="F902" />
			<state id="x4" label="F903" />
			<parents>N19_a_f N19_a_m Z_29_a_m</parents>
			<probabilities>1 0 0 0 1 0 0 0 1 0 0 0 0 1 0 0 1 0 0 0 0 0 1 0 1 0 0 0 0 0 0 1 0 1 0 0 1 0 0 0 0 1 0 0 0 1 0 0 0 1 0 0 0 0 1 0 0 1 0 0 0 0 0 1 0 0 1 0 1 0 0 0 0 0 1 0 0 1 0 0 0 0 1 0 0 0 1 0 0 0 1 0 0 0 0 1 0 0 0 1 1 0 0 0 0 0 0 1 0 1 0 0 0 0 0 1 0 0 1 0 0 0 0 1 0 0 0 1</probabilities>
		</cpt>
		<cpt id="D0_29_a_x">
			<state id="x" label="F904" />
			<state id="y" label="F905" />
			<parents>N29_a_f N29_a_m</parents>
			<probabilities>0 1 0 1 1 0 0 1 0 1 0 1 0 1 0 1 1 0 0 1 0 1 0 1 0 1 0 1 0 1 0 1</probabilities>
		</cpt>
		<cpt id="Z_30_a_f">
			<state id="f" label="F906" />
			<state id="m" label="F907" />
			<probabilities>0.5 0.5</probabilities>
		</cpt>
		<cpt id="Z_30_d_f">
			<state id="f" label="F908" />
			<state id="m" label="F909" />
			<parents>Z_30_a_f</parents>
			<probabilities>0.67 0.33 0.33 0.67</probabilities>
		</cpt>
		<cpt id="N30_d_f">
			<state id="x1" label="F910" />
			<state id="x2" label="F911" />
			<parents>N17_d_f N17_d_m Z_30_d_f</parents>
			<probabilities>1 0 1 0 1 0 0 1 0 1 1 0 0 1 0 1</probabilities>
		</cpt>
		<cpt id="Z_30_a_m">
			<state id="f" label="F912" />
			<state id="m" label="F913" />
			<probabilities>0.5 0.5</probabilities>
		</cpt>
		<cpt id="Z_30_d_m">
			<state id="f" label="F914" />
			<state id="m" label="F915" />
			<parents>Z_30_a_m</parents>
			<probabilities>0.67 0.33 0.33 0.67</probabilities>
		</cpt>
		<cpt id="N30_d_m">
			<state id="x1" label="F916" />
			<state id="x2" label="F917" />
			<parents>N19_d_f N19_d_m Z_30_d_m</parents>
			<probabilities>1 0 1 0 1 0 0 1 0 1 1 0 0 1 0 1</probabilities>
		</cpt>
		<cpt id="N30_d_g">
			<state id="x1_1" label="F918" />
			<state id="x1_2" label="F919" />
			<state id="x2_2" label="F920" />
			<parents>N30_d_f N30_d_m</parents>
			<probabilities>1 0 0 0 1 0 0 1 0 0 0 1</probabilities>
		</cpt>
		<cpt id="D0_30_d_p">
			<state id="a" label="F921" />
			<state id="n" label="F922" />
			<parents>N30_d_g</parents>
			<probabilities>1 0 0 1 0 1</probabilities>
		</cpt>
		<cpt id="N30_a_f">
			<state id="x1" label="F923" />
			<state id="x2" label="F924" />
			<state id="x3" label="F925" />
			<state id="x4" label="F926" />
			<parents>N17_a_f N17_a_m Z_30_a_f</parents>
			<probabilities>1 0 0 0 1 0 0 0 1 0 0 0 0 1 0 0 1 0 0 0 0 0 1 0 1 0 0 0 0 0 0 1 0 1 0 0 1 0 0 0 0 1 0 0 0 1 0 0 0 1 0 0 0 0 1 0 0 1 0 0 0 0 0 1 0 0 1 0 1 0 0 0 0 0 1 0 0 1 0 0 0 0 1 0 0 0 1 0 0 0 1 0 0 0 0 1 0 0 0 1 1 0 0 0 0 0 0 1 0 1 0 0 0 0 0 1 0 0 1 0 0 0 0 1 0 0 0 1</probabilities>
		</cpt>
		<cpt id="N30_a_m">
			<state id="x1" label="F927" />
			<state id="x2" label="F928" />
			<state id="x3" label="F929" />
			<state id="x4" label="F930" />
			<parents>N19_a_f N19_a_m Z_30_a_m</parents>
			<probabilities>1 0 0 0 1 0 0 0 1 0 0 0 0 1 0 0 1 0 0 0 0 0 1 0 1 0 0 0 0 0 0 1 0 1 0 0 1 0 0 0 0 1 0 0 0 1 0 0 0 1 0 0 0 0 1 0 0 1 0 0 0 0 0 1 0 0 1 0 1 0 0 0 0 0 1 0 0 1 0 0 0 0 1 0 0 0 1 0 0 0 1 0 0 0 0 1 0 0 0 1 1 0 0 0 0 0 0 1 0 1 0 0 0 0 0 1 0 0 1 0 0 0 0 1 0 0 0 1</probabilities>
		</cpt>
		<cpt id="D0_30_a_x">
			<state id="x" label="F931" />
			<state id="y" label="F932" />
			<parents>N30_a_f N30_a_m</parents>
			<probabilities>0 1 0 1 1 0 0 1 0 1 0 1 0 1 0 1 1 0 0 1 0 1 0 1 0 1 0 1 0 1 0 1</probabilities>
		</cpt>
		<cpt id="Z_31_a_f">
			<state id="f" label="F933" />
			<state id="m" label="F934" />
			<probabilities>0.5 0.5</probabilities>
		</cpt>
		<cpt id="Z_31_d_f">
			<state id="f" label="F935" />
			<state id="m" label="F936" />
			<parents>Z_31_a_f</parents>
			<probabilities>0.67 0.33 0.33 0.67</probabilities>
		</cpt>
		<cpt id="N31_d_f">
			<state id="x1" label="F937" />
			<state id="x2" label="F938" />
			<parents>N17_d_f N17_d_m Z_31_d_f</parents>
			<probabilities>1 0 1 0 1 0 0 1 0 1 1 0 0 1 0 1</probabilities>
		</cpt>
		<cpt id="Z_31_a_m">
			<state id="f" label="F939" />
			<state id="m" label="F940" />
			<probabilities>0.5 0.5</probabilities>
		</cpt>
		<cpt id="Z_31_d_m">
			<state id="f" label="F941" />
			<state id="m" label="F942" />
			<parents>Z_31_a_m</parents>
			<probabilities>0.67 0.33 0.33 0.67</probabilities>
		</cpt>
		<cpt id="N31_d_m">
			<state id="x1" label="F943" />
			<state id="x2" label="F944" />
			<parents>N19_d_f N19_d_m Z_31_d_m</parents>
			<probabilities>1 0 1 0 1 0 0 1 0 1 1 0 0 1 0 1</probabilities>
		</cpt>
		<cpt id="N31_d_g">
			<state id="x1_1" label="F945" />
			<state id="x1_2" label="F946" />
			<state id="x2_2" label="F947" />
			<parents>N31_d_f N31_d_m</parents>
			<probabilities>1 0 0 0 1 0 0 1 0 0 0 1</probabilities>
		</cpt>
		<cpt id="D0_31_d_p">
			<state id="a" label="F948" />
			<state id="n" label="F949" />
			<parents>N31_d_g</parents>
			<probabilities>1 0 0 1 0 1</probabilities>
		</cpt>
		<cpt id="N31_a_f">
			<state id="x1" label="F950" />
			<state id="x2" label="F951" />
			<state id="x3" label="F952" />
			<state id="x4" label="F953" />
			<parents>N17_a_f N17_a_m Z_31_a_f</parents>
			<probabilities>1 0 0 0 1 0 0 0 1 0 0 0 0 1 0 0 1 0 0 0 0 0 1 0 1 0 0 0 0 0 0 1 0 1 0 0 1 0 0 0 0 1 0 0 0 1 0 0 0 1 0 0 0 0 1 0 0 1 0 0 0 0 0 1 0 0 1 0 1 0 0 0 0 0 1 0 0 1 0 0 0 0 1 0 0 0 1 0 0 0 1 0 0 0 0 1 0 0 0 1 1 0 0 0 0 0 0 1 0 1 0 0 0 0 0 1 0 0 1 0 0 0 0 1 0 0 0 1</probabilities>
		</cpt>
		<cpt id="N31_a_m">
			<state id="x1" label="F954" />
			<state id="x2" label="F955" />
			<state id="x3" label="F956" />
			<state id="x4" label="F957" />
			<parents>N19_a_f N19_a_m Z_31_a_m</parents>
			<probabilities>1 0 0 0 1 0 0 0 1 0 0 0 0 1 0 0 1 0 0 0 0 0 1 0 1 0 0 0 0 0 0 1 0 1 0 0 1 0 0 0 0 1 0 0 0 1 0 0 0 1 0 0 0 0 1 0 0 1 0 0 0 0 0 1 0 0 1 0 1 0 0 0 0 0 1 0 0 1 0 0 0 0 1 0 0 0 1 0 0 0 1 0 0 0 0 1 0 0 0 1 1 0 0 0 0 0 0 1 0 1 0 0 0 0 0 1 0 0 1 0 0 0 0 1 0 0 0 1</probabilities>
		</cpt>
		<cpt id="D0_31_a_x">
			<state id="x" label="F958" />
			<state id="y" label="F959" />
			<parents>N31_a_f N31_a_m</parents>
			<probabilities>0 1 0 1 1 0 0 1 0 1 0 1 0 1 0 1 1 0 0 1 0 1 0 1 0 1 0 1 0 1 0 1</probabilities>
		</cpt>
		<cpt id="Z_32_a_f">
			<state id="f" label="F960" />
			<state id="m" label="F961" />
			<probabilities>0.5 0.5</probabilities>
		</cpt>
		<cpt id="Z_32_d_f">
			<state id="f" label="F962" />
			<state id="m" label="F963" />
			<parents>Z_32_a_f</parents>
			<probabilities>0.67 0.33 0.33 0.67</probabilities>
		</cpt>
		<cpt id="N32_d_f">
			<state id="x1" label="F964" />
			<state id="x2" label="F965" />
			<parents>N17_d_f N17_d_m Z_32_d_f</parents>
			<probabilities>1 0 1 0 1 0 0 1 0 1 1 0 0 1 0 1</probabilities>
		</cpt>
		<cpt id="Z_32_a_m">
			<state id="f" label="F966" />
			<state id="m" label="F967" />
			<probabilities>0.5 0.5</probabilities>
		</cpt>
		<cpt id="Z_32_d_m">
			<state id="f" label="F968" />
			<state id="m" label="F969" />
			<parents>Z_32_a_m</parents>
			<probabilities>0.67 0.33 0.33 0.67</probabilities>
		</cpt>
		<cpt id="N32_d_m">
			<state id="x1" label="F970" />
			<state id="x2" label="F971" />
			<parents>N19_d_f N19_d_m Z_32_d_m</parents>
			<probabilities>1 0 1 0 1 0 0 1 0 1 1 0 0 1 0 1</probabilities>
		</cpt>
		<cpt id="N32_d_g">
			<state id="x1_1" label="F972" />
			<state id="x1_2" label="F973" />
			<state id="x2_2" label="F974" />
			<parents>N32_d_f N32_d_m</parents>
			<probabilities>1 0 0 0 1 0 0 1 0 0 0 1</probabilities>
		</cpt>
		<cpt id="D0_32_d_p">
			<state id="a" label="F975" />
			<state id="n" label="F976" />
			<parents>N32_d_g</parents>
			<probabilities>1 0 0 1 0 1</probabilities>
		</cpt>
		<cpt id="N32_a_f">
			<state id="x1" label="F977" />
			<state id="x2" label="F978" />
			<state id="x3" label="F979" />
			<state id="x4" label="F980" />
			<parents>N17_a_f N17_a_m Z_32_a_f</parents>
			<probabilities>1 0 0 0 1 0 0 0 1 0 0 0 0 1 0 0 1 0 0 0 0 0 1 0 1 0 0 0 0 0 0 1 0 1 0 0 1 0 0 0 0 1 0 0 0 1 0 0 0 1 0 0 0 0 1 0 0 1 0 0 0 0 0 1 0 0 1 0 1 0 0 0 0 0 1 0 0 1 0 0 0 0 1 0 0 0 1 0 0 0 1 0 0 0 0 1 0 0 0 1 1 0 0 0 0 0 0 1 0 1 0 0 0 0 0 1 0 0 1 0 0 0 0 1 0 0 0 1</probabilities>
		</cpt>
		<cpt id="N32_a_m">
			<state id="x1" label="F981" />
			<state id="x2" label="F982" />
			<state id="x3" label="F983" />
			<state id="x4" label="F984" />
			<parents>N19_a_f N19_a_m Z_32_a_m</parents>
			<probabilities>1 0 0 0 1 0 0 0 1 0 0 0 0 1 0 0 1 0 0 0 0 0 1 0 1 0 0 0 0 0 0 1 0 1 0 0 1 0 0 0 0 1 0 0 0 1 0 0 0 1 0 0 0 0 1 0 0 1 0 0 0 0 0 1 0 0 1 0 1 0 0 0 0 0 1 0 0 1 0 0 0 0 1 0 0 0 1 0 0 0 1 0 0 0 0 1 0 0 0 1 1 0 0 0 0 0 0 1 0 1 0 0 0 0 0 1 0 0 1 0 0 0 0 1 0 0 0 1</probabilities>
		</cpt>
		<cpt id="D0_32_a_x">
			<state id="x" label="F985" />
			<state id="y" label="F986" />
			<parents>N32_a_f N32_a_m</parents>
			<probabilities>0 1 0 1 1 0 0 1 0 1 0 1 0 1 0 1 1 0 0 1 0 1 0 1 0 1 0 1 0 1 0 1</probabilities>
		</cpt>
		<cpt id="Z_33_a_f">
			<state id="f" label="F987" />
			<state id="m" label="F988" />
			<probabilities>0.5 0.5</probabilities>
		</cpt>
		<cpt id="Z_33_d_f">
			<state id="f" label="F989" />
			<state id="m" label="F990" />
			<parents>Z_33_a_f</parents>
			<probabilities>0.67 0.33 0.33 0.67</probabilities>
		</cpt>
		<cpt id="N33_d_f">
			<state id="x1" label="F991" />
			<state id="x2" label="F992" />
			<parents>N17_d_f N17_d_m Z_33_d_f</parents>
			<probabilities>1 0 1 0 1 0 0 1 0 1 1 0 0 1 0 1</probabilities>
		</cpt>
		<cpt id="Z_33_a_m">
			<state id="f" label="F993" />
			<state id="m" label="F994" />
			<probabilities>0.5 0.5</probabilities>
		</cpt>
		<cpt id="Z_33_d_m">
			<state id="f" label="F995" />
			<state id="m" label="F996" />
			<parents>Z_33_a_m</parents>
			<probabilities>0.67 0.33 0.33 0.67</probabilities>
		</cpt>
		<cpt id="N33_d_m">
			<state id="x1" label="F997" />
			<state id="x2" label="F998" />
			<parents>N19_d_f N19_d_m Z_33_d_m</parents>
			<probabilities>1 0 1 0 1 0 0 1 0 1 1 0 0 1 0 1</probabilities>
		</cpt>
		<cpt id="N33_d_g">
			<state id="x1_1" label="F999" />
			<state id="x1_2" label="F1000" />
			<state id="x2_2" label="F1001" />
			<parents>N33_d_f N33_d_m</parents>
			<probabilities>1 0 0 0 1 0 0 1 0 0 0 1</probabilities>
		</cpt>
		<cpt id="D0_33_d_p">
			<state id="a" label="F1002" />
			<state id="n" label="F1003" />
			<parents>N33_d_g</parents>
			<probabilities>1 0 0 1 0 1</probabilities>
		</cpt>
		<cpt id="N33_a_f">
			<state id="x1" label="F1004" />
			<state id="x2" label="F1005" />
			<state id="x3" label="F1006" />
			<state id="x4" label="F1007" />
			<parents>N17_a_f N17_a_m Z_33_a_f</parents>
			<probabilities>1 0 0 0 1 0 0 0 1 0 0 0 0 1 0 0 1 0 0 0 0 0 1 0 1 0 0 0 0 0 0 1 0 1 0 0 1 0 0 0 0 1 0 0 0 1 0 0 0 1 0 0 0 0 1 0 0 1 0 0 0 0 0 1 0 0 1 0 1 0 0 0 0 0 1 0 0 1 0 0 0 0 1 0 0 0 1 0 0 0 1 0 0 0 0 1 0 0 0 1 1 0 0 0 0 0 0 1 0 1 0 0 0 0 0 1 0 0 1 0 0 0 0 1 0 0 0 1</probabilities>
		</cpt>
		<cpt id="N33_a_m">
			<state id="x1" label="F1008" />
			<state id="x2" label="F1009" />
			<state id="x3" label="F1010" />
			<state id="x4" label="F1011" />
			<parents>N19_a_f N19_a_m Z_33_a_m</parents>
			<probabilities>1 0 0 0 1 0 0 0 1 0 0 0 0 1 0 0 1 0 0 0 0 0 1 0 1 0 0 0 0 0 0 1 0 1 0 0 1 0 0 0 0 1 0 0 0 1 0 0 0 1 0 0 0 0 1 0 0 1 0 0 0 0 0 1 0 0 1 0 1 0 0 0 0 0 1 0 0 1 0 0 0 0 1 0 0 0 1 0 0 0 1 0 0 0 0 1 0 0 0 1 1 0 0 0 0 0 0 1 0 1 0 0 0 0 0 1 0 0 1 0 0 0 0 1 0 0 0 1</probabilities>
		</cpt>
		<cpt id="D0_33_a_x">
			<state id="x" label="F1012" />
			<state id="y" label="F1013" />
			<parents>N33_a_f N33_a_m</parents>
			<probabilities>0 1 0 1 0 1 1 0 0 1 0 1 0 1 0 1 0 1 0 1 0 1 0 1 1 0 0 1 0 1 0 1</probabilities>
		</cpt>
		<cpt id="Z_34_a_f">
			<state id="f" label="F1014" />
			<state id="m" label="F1015" />
			<probabilities>0.5 0.5</probabilities>
		</cpt>
		<cpt id="Z_34_d_f">
			<state id="f" label="F1016" />
			<state id="m" label="F1017" />
			<parents>Z_34_a_f</parents>
			<probabilities>0.67 0.33 0.33 0.67</probabilities>
		</cpt>
		<cpt id="N34_d_f">
			<state id="x1" label="F1018" />
			<state id="x2" label="F1019" />
			<parents>N17_d_f N17_d_m Z_34_d_f</parents>
			<probabilities>1 0 1 0 1 0 0 1 0 1 1 0 0 1 0 1</probabilities>
		</cpt>
		<cpt id="Z_34_a_m">
			<state id="f" label="F1020" />
			<state id="m" label="F1021" />
			<probabilities>0.5 0.5</probabilities>
		</cpt>
		<cpt id="Z_34_d_m">
			<state id="f" label="F1022" />
			<state id="m" label="F1023" />
			<parents>Z_34_a_m</parents>
			<probabilities>0.67 0.33 0.33 0.67</probabilities>
		</cpt>
		<cpt id="N34_d_m">
			<state id="x1" label="F1024" />
			<state id="x2" label="F1025" />
			<parents>N19_d_f N19_d_m Z_34_d_m</parents>
			<probabilities>1 0 1 0 1 0 0 1 0 1 1 0 0 1 0 1</probabilities>
		</cpt>
		<cpt id="N34_d_g">
			<state id="x1_1" label="F1026" />
			<state id="x1_2" label="F1027" />
			<state id="x2_2" label="F1028" />
			<parents>N34_d_f N34_d_m</parents>
			<probabilities>1 0 0 0 1 0 0 1 0 0 0 1</probabilities>
		</cpt>
		<cpt id="D0_34_d_p">
			<state id="a" label="F1029" />
			<state id="n" label="F1030" />
			<parents>N34_d_g</parents>
			<probabilities>1 0 0 1 0 1</probabilities>
		</cpt>
		<cpt id="N34_a_f">
			<state id="x1" label="F1031" />
			<state id="x2" label="F1032" />
			<state id="x3" label="F1033" />
			<state id="x4" label="F1034" />
			<parents>N17_a_f N17_a_m Z_34_a_f</parents>
			<probabilities>1 0 0 0 1 0 0 0 1 0 0 0 0 1 0 0 1 0 0 0 0 0 1 0 1 0 0 0 0 0 0 1 0 1 0 0 1 0 0 0 0 1 0 0 0 1 0 0 0 1 0 0 0 0 1 0 0 1 0 0 0 0 0 1 0 0 1 0 1 0 0 0 0 0 1 0 0 1 0 0 0 0 1 0 0 0 1 0 0 0 1 0 0 0 0 1 0 0 0 1 1 0 0 0 0 0 0 1 0 1 0 0 0 0 0 1 0 0 1 0 0 0 0 1 0 0 0 1</probabilities>
		</cpt>
		<cpt id="N34_a_m">
			<state id="x1" label="F1035" />
			<state id="x2" label="F1036" />
			<state id="x3" label="F1037" />
			<state id="x4" label="F1038" />
			<parents>N19_a_f N19_a_m Z_34_a_m</parents>
			<probabilities>1 0 0 0 1 0 0 0 1 0 0 0 0 1 0 0 1 0 0 0 0 0 1 0 1 0 0 0 0 0 0 1 0 1 0 0 1 0 0 0 0 1 0 0 0 1 0 0 0 1 0 0 0 0 1 0 0 1 0 0 0 0 0 1 0 0 1 0 1 0 0 0 0 0 1 0 0 1 0 0 0 0 1 0 0 0 1 0 0 0 1 0 0 0 0 1 0 0 0 1 1 0 0 0 0 0 0 1 0 1 0 0 0 0 0 1 0 0 1 0 0 0 0 1 0 0 0 1</probabilities>
		</cpt>
		<cpt id="D0_34_a_x">
			<state id="x" label="F1039" />
			<state id="y" label="F1040" />
			<parents>N34_a_f N34_a_m</parents>
			<probabilities>0 1 0 1 0 1 1 0 0 1 0 1 0 1 0 1 0 1 0 1 0 1 0 1 1 0 0 1 0 1 0 1</probabilities>
		</cpt>
		<cpt id="Z_35_a_f">
			<state id="f" label="F1041" />
			<state id="m" label="F1042" />
			<probabilities>0.5 0.5</probabilities>
		</cpt>
		<cpt id="Z_35_d_f">
			<state id="f" label="F1043" />
			<state id="m" label="F1044" />
			<parents>Z_35_a_f</parents>
